digraph Tree {
node [shape=box, style="filled, rounded", color="black", fontname="helvetica"] ;
edge [fontname="helvetica"] ;
0 [label="average_s_bytes <= 779.738\ngini = 0.75\nsamples = 9600\nvalue = [2400, 2400, 2400, 2400]\nclass = fec", fillcolor="#ffffff"] ;
1 [label="s_durat <= 52.032\ngini = 0.001\nsamples = 2397\nvalue = [2396, 0, 1, 0]\nclass = fec", fillcolor="#e58139"] ;
0 -> 1 [labeldistance=2.5, labelangle=45, headlabel="True"] ;
2 [label="gini = 0.0\nsamples = 2396\nvalue = [2396, 0, 0, 0]\nclass = fec", fillcolor="#e58139"] ;
1 -> 2 ;
3 [label="gini = 0.0\nsamples = 1\nvalue = [0, 0, 1, 0]\nclass = multipath", fillcolor="#399de5"] ;
1 -> 3 ;
4 [label="variance_in <= 199953.719\ngini = 0.667\nsamples = 7203\nvalue = [4, 2400, 2399, 2400]\nclass = monitoring", fillcolor="#ffffff"] ;
0 -> 4 [labeldistance=2.5, labelangle=-45, headlabel="False"] ;
5 [label="ratio_pkts <= 0.431\ngini = 0.508\nsamples = 4812\nvalue = [1, 2382, 39, 2390]\nclass = no_plugin", fillcolor="#fffeff"] ;
4 -> 5 ;
6 [label="s_durat <= 0.208\ngini = 0.471\nsamples = 2117\nvalue = [0, 1317, 3, 797]\nclass = monitoring", fillcolor="#b7f5b1"] ;
5 -> 6 ;
7 [label="gini = 0.127\nsamples = 88\nvalue = [0, 6, 0, 82]\nclass = no_plugin", fillcolor="#da47e7"] ;
6 -> 7 ;
8 [label="gini = 0.458\nsamples = 2029\nvalue = [0, 1311, 3, 715]\nclass = monitoring", fillcolor="#acf3a5"] ;
6 -> 8 ;
9 [label="c_bytes_all <= 6276.5\ngini = 0.494\nsamples = 2695\nvalue = [1, 1065, 36, 1593]\nclass = no_plugin", fillcolor="#f2bff7"] ;
5 -> 9 ;
10 [label="gini = 0.481\nsamples = 2642\nvalue = [1, 1056, 1, 1584]\nclass = no_plugin", fillcolor="#f2bdf6"] ;
9 -> 10 ;
11 [label="gini = 0.506\nsamples = 53\nvalue = [0, 9, 35, 9]\nclass = multipath", fillcolor="#8ac5f0"] ;
9 -> 11 ;
12 [label="c_bytes_all <= 4306.0\ngini = 0.026\nsamples = 2391\nvalue = [3, 18, 2360, 10]\nclass = multipath", fillcolor="#3c9ee5"] ;
4 -> 12 ;
13 [label="s_durat <= 6.61\ngini = 0.558\nsamples = 22\nvalue = [3, 13, 0, 6]\nclass = monitoring", fillcolor="#aef4a8"] ;
12 -> 13 ;
14 [label="gini = 0.432\nsamples = 19\nvalue = [0, 13, 0, 6]\nclass = monitoring", fillcolor="#9cf194"] ;
13 -> 14 ;
15 [label="gini = 0.0\nsamples = 3\nvalue = [3, 0, 0, 0]\nclass = fec", fillcolor="#e58139"] ;
13 -> 15 ;
16 [label="average_c_bytes <= 413.542\ngini = 0.008\nsamples = 2369\nvalue = [0, 5, 2360, 4]\nclass = multipath", fillcolor="#3a9de5"] ;
12 -> 16 ;
17 [label="gini = 0.003\nsamples = 2363\nvalue = [0, 2, 2360, 1]\nclass = multipath", fillcolor="#399de5"] ;
16 -> 17 ;
18 [label="gini = 0.5\nsamples = 6\nvalue = [0, 3, 0, 3]\nclass = monitoring", fillcolor="#ffffff"] ;
16 -> 18 ;
}
