digraph Tree {
node [shape=box, style="filled, rounded", color="black", fontname="helvetica"] ;
edge [fontname="helvetica"] ;
0 [label="average_s_bytes <= 776.325\ngini = 0.75\nsamples = 9600\nvalue = [2400, 2400, 2400, 2400]\nclass = fec", fillcolor="#ffffff"] ;
1 [label="s_durat <= 51.66\ngini = 0.003\nsamples = 2396\nvalue = [2393, 1, 1, 1]\nclass = fec", fillcolor="#e58139"] ;
0 -> 1 [labeldistance=2.5, labelangle=45, headlabel="True"] ;
2 [label="ratio_pkts <= 0.583\ngini = 0.002\nsamples = 2395\nvalue = [2393, 1, 0, 1]\nclass = fec", fillcolor="#e58139"] ;
1 -> 2 ;
3 [label="gini = 0.0\nsamples = 2376\nvalue = [2376, 0, 0, 0]\nclass = fec", fillcolor="#e58139"] ;
2 -> 3 ;
4 [label="gini = 0.194\nsamples = 19\nvalue = [17, 1, 0, 1]\nclass = fec", fillcolor="#e88f4f"] ;
2 -> 4 ;
5 [label="gini = 0.0\nsamples = 1\nvalue = [0, 0, 1, 0]\nclass = multipath", fillcolor="#399de5"] ;
1 -> 5 ;
6 [label="c_bytes_all <= 4418.0\ngini = 0.667\nsamples = 7204\nvalue = [7, 2399, 2399, 2399]\nclass = monitoring", fillcolor="#ffffff"] ;
0 -> 6 [labeldistance=2.5, labelangle=-45, headlabel="False"] ;
7 [label="ratio_pkts <= 0.439\ngini = 0.502\nsamples = 4653\nvalue = [7, 2308, 1, 2337]\nclass = no_plugin", fillcolor="#fffdff"] ;
6 -> 7 ;
8 [label="gini = 0.479\nsamples = 2336\nvalue = [6, 1420, 0, 910]\nclass = monitoring", fillcolor="#bdf6b8"] ;
7 -> 8 ;
9 [label="gini = 0.474\nsamples = 2317\nvalue = [1, 888, 1, 1427]\nclass = no_plugin", fillcolor="#f0b4f5"] ;
7 -> 9 ;
10 [label="average_s_bytes <= 1181.431\ngini = 0.114\nsamples = 2551\nvalue = [0, 91, 2398, 62]\nclass = multipath", fillcolor="#45a3e7"] ;
6 -> 10 ;
11 [label="gini = 0.025\nsamples = 2425\nvalue = [0, 17, 2394, 14]\nclass = multipath", fillcolor="#3c9ee5"] ;
10 -> 11 ;
12 [label="gini = 0.509\nsamples = 126\nvalue = [0, 74, 4, 48]\nclass = monitoring", fillcolor="#c2f6bd"] ;
10 -> 12 ;
}
