digraph Tree {
node [shape=box, style="filled, rounded", color="black", fontname="helvetica"] ;
edge [fontname="helvetica"] ;
0 [label="average_s_bytes <= 776.325\ngini = 0.75\nsamples = 9600\nvalue = [2400, 2400, 2400, 2400]\nclass = fec", fillcolor="#ffffff"] ;
1 [label="s_durat <= 51.66\ngini = 0.003\nsamples = 2396\nvalue = [2393, 1, 1, 1]\nclass = fec", fillcolor="#e58139"] ;
0 -> 1 [labeldistance=2.5, labelangle=45, headlabel="True"] ;
2 [label="variance_out <= 413609.094\ngini = 0.002\nsamples = 2395\nvalue = [2393, 1, 0, 1]\nclass = fec", fillcolor="#e58139"] ;
1 -> 2 ;
3 [label="gini = 0.0\nsamples = 2383\nvalue = [2383, 0, 0, 0]\nclass = fec", fillcolor="#e58139"] ;
2 -> 3 ;
4 [label="ratio_pkts <= 0.757\ngini = 0.292\nsamples = 12\nvalue = [10, 1, 0, 1]\nclass = fec", fillcolor="#ea985d"] ;
2 -> 4 ;
5 [label="variance_out <= 422602.297\ngini = 0.5\nsamples = 2\nvalue = [0, 1, 0, 1]\nclass = monitoring", fillcolor="#ffffff"] ;
4 -> 5 ;
6 [label="gini = 0.0\nsamples = 1\nvalue = [0, 0, 0, 1]\nclass = no_plugin", fillcolor="#d739e5"] ;
5 -> 6 ;
7 [label="gini = 0.0\nsamples = 1\nvalue = [0, 1, 0, 0]\nclass = monitoring", fillcolor="#47e539"] ;
5 -> 7 ;
8 [label="gini = 0.0\nsamples = 10\nvalue = [10, 0, 0, 0]\nclass = fec", fillcolor="#e58139"] ;
4 -> 8 ;
9 [label="gini = 0.0\nsamples = 1\nvalue = [0, 0, 1, 0]\nclass = multipath", fillcolor="#399de5"] ;
1 -> 9 ;
10 [label="variance_in <= 200368.688\ngini = 0.667\nsamples = 7204\nvalue = [7, 2399, 2399, 2399]\nclass = monitoring", fillcolor="#ffffff"] ;
0 -> 10 [labeldistance=2.5, labelangle=-45, headlabel="False"] ;
11 [label="ratio_pkts <= 0.439\ngini = 0.508\nsamples = 4806\nvalue = [3, 2375, 38, 2390]\nclass = no_plugin", fillcolor="#fffeff"] ;
10 -> 11 ;
12 [label="s_durat <= 0.208\ngini = 0.477\nsamples = 2375\nvalue = [2, 1446, 1, 926]\nclass = monitoring", fillcolor="#bdf6b8"] ;
11 -> 12 ;
13 [label="s_durat <= 0.208\ngini = 0.13\nsamples = 100\nvalue = [0, 7, 0, 93]\nclass = no_plugin", fillcolor="#da48e7"] ;
12 -> 13 ;
14 [label="gini = 0.066\nsamples = 88\nvalue = [0, 3, 0, 85]\nclass = no_plugin", fillcolor="#d840e6"] ;
13 -> 14 ;
15 [label="gini = 0.444\nsamples = 12\nvalue = [0, 4, 0, 8]\nclass = no_plugin", fillcolor="#eb9cf2"] ;
13 -> 15 ;
16 [label="c_pkts_all <= 7.5\ngini = 0.466\nsamples = 2275\nvalue = [2, 1439, 1, 833]\nclass = monitoring", fillcolor="#b2f4ac"] ;
12 -> 16 ;
17 [label="gini = 0.3\nsamples = 204\nvalue = [2, 167, 0, 35]\nclass = monitoring", fillcolor="#6feb64"] ;
16 -> 17 ;
18 [label="gini = 0.474\nsamples = 2071\nvalue = [0, 1272, 1, 798]\nclass = monitoring", fillcolor="#baf5b5"] ;
16 -> 18 ;
19 [label="c_bytes_all <= 6395.5\ngini = 0.491\nsamples = 2431\nvalue = [1, 929, 37, 1464]\nclass = no_plugin", fillcolor="#f1b8f6"] ;
11 -> 19 ;
20 [label="s_durat <= 0.407\ngini = 0.477\nsamples = 2387\nvalue = [1, 925, 3, 1458]\nclass = no_plugin", fillcolor="#f0b7f6"] ;
19 -> 20 ;
21 [label="gini = 0.463\nsamples = 2132\nvalue = [0, 776, 0, 1356]\nclass = no_plugin", fillcolor="#eeaaf4"] ;
20 -> 21 ;
22 [label="gini = 0.498\nsamples = 255\nvalue = [1, 149, 3, 102]\nclass = monitoring", fillcolor="#c6f7c2"] ;
20 -> 22 ;
23 [label="s_durat <= 1.104\ngini = 0.376\nsamples = 44\nvalue = [0, 4, 34, 6]\nclass = multipath", fillcolor="#6db7ec"] ;
19 -> 23 ;
24 [label="gini = 0.057\nsamples = 34\nvalue = [0, 0, 33, 1]\nclass = multipath", fillcolor="#3fa0e6"] ;
23 -> 24 ;
25 [label="gini = 0.58\nsamples = 10\nvalue = [0, 4, 1, 5]\nclass = no_plugin", fillcolor="#f8defb"] ;
23 -> 25 ;
26 [label="c_bytes_all <= 4389.0\ngini = 0.031\nsamples = 2398\nvalue = [4, 24, 2361, 9]\nclass = multipath", fillcolor="#3c9fe5"] ;
10 -> 26 ;
27 [label="s_durat <= 6.118\ngini = 0.538\nsamples = 24\nvalue = [4, 15, 0, 5]\nclass = monitoring", fillcolor="#9ef197"] ;
26 -> 27 ;
28 [label="variance <= 433962.625\ngini = 0.375\nsamples = 20\nvalue = [0, 15, 0, 5]\nclass = monitoring", fillcolor="#84ee7b"] ;
27 -> 28 ;
29 [label="gini = 0.278\nsamples = 18\nvalue = [0, 15, 0, 3]\nclass = monitoring", fillcolor="#6cea61"] ;
28 -> 29 ;
30 [label="gini = 0.0\nsamples = 2\nvalue = [0, 0, 0, 2]\nclass = no_plugin", fillcolor="#d739e5"] ;
28 -> 30 ;
31 [label="gini = 0.0\nsamples = 4\nvalue = [4, 0, 0, 0]\nclass = fec", fillcolor="#e58139"] ;
27 -> 31 ;
32 [label="average_c_bytes <= 416.206\ngini = 0.011\nsamples = 2374\nvalue = [0, 9, 2361, 4]\nclass = multipath", fillcolor="#3a9ee5"] ;
26 -> 32 ;
33 [label="s_durat <= 0.484\ngini = 0.003\nsamples = 2364\nvalue = [0, 2, 2360, 2]\nclass = multipath", fillcolor="#399de5"] ;
32 -> 33 ;
34 [label="gini = 0.0\nsamples = 1\nvalue = [0, 1, 0, 0]\nclass = monitoring", fillcolor="#47e539"] ;
33 -> 34 ;
35 [label="gini = 0.003\nsamples = 2363\nvalue = [0, 1, 2360, 2]\nclass = multipath", fillcolor="#399de5"] ;
33 -> 35 ;
36 [label="variance <= 326953.797\ngini = 0.46\nsamples = 10\nvalue = [0, 7, 1, 2]\nclass = monitoring", fillcolor="#8cef83"] ;
32 -> 36 ;
37 [label="gini = 0.0\nsamples = 6\nvalue = [0, 6, 0, 0]\nclass = monitoring", fillcolor="#47e539"] ;
36 -> 37 ;
38 [label="gini = 0.625\nsamples = 4\nvalue = [0, 1, 1, 2]\nclass = no_plugin", fillcolor="#f2bdf6"] ;
36 -> 38 ;
}
