digraph Tree {
node [shape=box, style="filled, rounded", color="black", fontname="helvetica"] ;
edge [fontname="helvetica"] ;
0 [label="average_s_bytes <= 742.986\ngini = 0.75\nsamples = 9600\nvalue = [2400, 2400, 2400, 2400]\nclass = fec", fillcolor="#ffffff"] ;
1 [label="s_durat <= 52.032\ngini = 0.002\nsamples = 2398\nvalue = [2395, 1, 1, 1]\nclass = fec", fillcolor="#e58139"] ;
0 -> 1 [labeldistance=2.5, labelangle=45, headlabel="True"] ;
2 [label="variance_out <= 413609.094\ngini = 0.002\nsamples = 2397\nvalue = [2395, 1, 0, 1]\nclass = fec", fillcolor="#e58139"] ;
1 -> 2 ;
3 [label="gini = 0.0\nsamples = 2384\nvalue = [2384, 0, 0, 0]\nclass = fec", fillcolor="#e58139"] ;
2 -> 3 ;
4 [label="ratio_bytes <= 0.834\ngini = 0.272\nsamples = 13\nvalue = [11, 1, 0, 1]\nclass = fec", fillcolor="#e9965a"] ;
2 -> 4 ;
5 [label="variance <= 371163.766\ngini = 0.5\nsamples = 2\nvalue = [0, 1, 0, 1]\nclass = monitoring", fillcolor="#ffffff"] ;
4 -> 5 ;
6 [label="gini = 0.0\nsamples = 1\nvalue = [0, 0, 0, 1]\nclass = no_plugin", fillcolor="#d739e5"] ;
5 -> 6 ;
7 [label="gini = 0.0\nsamples = 1\nvalue = [0, 1, 0, 0]\nclass = monitoring", fillcolor="#47e539"] ;
5 -> 7 ;
8 [label="gini = 0.0\nsamples = 11\nvalue = [11, 0, 0, 0]\nclass = fec", fillcolor="#e58139"] ;
4 -> 8 ;
9 [label="gini = 0.0\nsamples = 1\nvalue = [0, 0, 1, 0]\nclass = multipath", fillcolor="#399de5"] ;
1 -> 9 ;
10 [label="variance_in <= 199953.719\ngini = 0.667\nsamples = 7202\nvalue = [5, 2399, 2399, 2399]\nclass = monitoring", fillcolor="#ffffff"] ;
0 -> 10 [labeldistance=2.5, labelangle=-45, headlabel="False"] ;
11 [label="ratio_pkts <= 0.431\ngini = 0.509\nsamples = 4807\nvalue = [3, 2377, 39, 2388]\nclass = no_plugin", fillcolor="#fffeff"] ;
10 -> 11 ;
12 [label="s_durat <= 0.208\ngini = 0.474\nsamples = 2135\nvalue = [2, 1319, 2, 812]\nclass = monitoring", fillcolor="#b8f5b3"] ;
11 -> 12 ;
13 [label="ratio_bytes <= 0.1\ngini = 0.099\nsamples = 96\nvalue = [0, 5, 0, 91]\nclass = no_plugin", fillcolor="#d944e6"] ;
12 -> 13 ;
14 [label="gini = 0.0\nsamples = 1\nvalue = [0, 1, 0, 0]\nclass = monitoring", fillcolor="#47e539"] ;
13 -> 14 ;
15 [label="gini = 0.081\nsamples = 95\nvalue = [0, 4, 0, 91]\nclass = no_plugin", fillcolor="#d942e6"] ;
13 -> 15 ;
16 [label="c_pkts_all <= 7.5\ngini = 0.46\nsamples = 2039\nvalue = [2, 1314, 2, 721]\nclass = monitoring", fillcolor="#acf3a6"] ;
12 -> 16 ;
17 [label="gini = 0.318\nsamples = 205\nvalue = [2, 165, 0, 38]\nclass = monitoring", fillcolor="#73eb68"] ;
16 -> 17 ;
18 [label="gini = 0.469\nsamples = 1834\nvalue = [0, 1149, 2, 683]\nclass = monitoring", fillcolor="#b5f4af"] ;
16 -> 18 ;
19 [label="c_bytes_all <= 6395.5\ngini = 0.495\nsamples = 2672\nvalue = [1, 1058, 37, 1576]\nclass = no_plugin", fillcolor="#f2bff7"] ;
11 -> 19 ;
20 [label="s_durat <= 0.346\ngini = 0.483\nsamples = 2628\nvalue = [1, 1054, 4, 1569]\nclass = no_plugin", fillcolor="#f2bef6"] ;
19 -> 20 ;
21 [label="gini = 0.453\nsamples = 1763\nvalue = [0, 612, 0, 1151]\nclass = no_plugin", fillcolor="#eca2f3"] ;
20 -> 21 ;
22 [label="gini = 0.505\nsamples = 865\nvalue = [1, 442, 4, 418]\nclass = monitoring", fillcolor="#f5fef4"] ;
20 -> 22 ;
23 [label="variance_in <= 162079.469\ngini = 0.404\nsamples = 44\nvalue = [0, 4, 33, 7]\nclass = multipath", fillcolor="#74baed"] ;
19 -> 23 ;
24 [label="gini = 0.48\nsamples = 10\nvalue = [0, 4, 0, 6]\nclass = no_plugin", fillcolor="#f2bdf6"] ;
23 -> 24 ;
25 [label="gini = 0.057\nsamples = 34\nvalue = [0, 0, 33, 1]\nclass = multipath", fillcolor="#3fa0e6"] ;
23 -> 25 ;
26 [label="c_bytes_all <= 4389.0\ngini = 0.029\nsamples = 2395\nvalue = [2, 22, 2360, 11]\nclass = multipath", fillcolor="#3c9ee5"] ;
10 -> 26 ;
27 [label="ratio_bytes <= 0.048\ngini = 0.46\nsamples = 20\nvalue = [2, 14, 0, 4]\nclass = monitoring", fillcolor="#8cef83"] ;
26 -> 27 ;
28 [label="c_pkts_all <= 16.0\ngini = 0.48\nsamples = 5\nvalue = [2, 0, 0, 3]\nclass = no_plugin", fillcolor="#f2bdf6"] ;
27 -> 28 ;
29 [label="gini = 0.0\nsamples = 2\nvalue = [2, 0, 0, 0]\nclass = fec", fillcolor="#e58139"] ;
28 -> 29 ;
30 [label="gini = 0.0\nsamples = 3\nvalue = [0, 0, 0, 3]\nclass = no_plugin", fillcolor="#d739e5"] ;
28 -> 30 ;
31 [label="variance <= 346516.078\ngini = 0.124\nsamples = 15\nvalue = [0, 14, 0, 1]\nclass = monitoring", fillcolor="#54e747"] ;
27 -> 31 ;
32 [label="gini = 0.32\nsamples = 5\nvalue = [0, 4, 0, 1]\nclass = monitoring", fillcolor="#75ec6a"] ;
31 -> 32 ;
33 [label="gini = 0.0\nsamples = 10\nvalue = [0, 10, 0, 0]\nclass = monitoring", fillcolor="#47e539"] ;
31 -> 33 ;
34 [label="average_c_bytes <= 416.206\ngini = 0.013\nsamples = 2375\nvalue = [0, 8, 2360, 7]\nclass = multipath", fillcolor="#3a9ee5"] ;
26 -> 34 ;
35 [label="c_durat <= 0.47\ngini = 0.004\nsamples = 2364\nvalue = [0, 2, 2359, 3]\nclass = multipath", fillcolor="#399de5"] ;
34 -> 35 ;
36 [label="gini = 0.0\nsamples = 1\nvalue = [0, 1, 0, 0]\nclass = monitoring", fillcolor="#47e539"] ;
35 -> 36 ;
37 [label="gini = 0.003\nsamples = 2363\nvalue = [0, 1, 2359, 3]\nclass = multipath", fillcolor="#399de5"] ;
35 -> 37 ;
38 [label="c_durat <= 1.33\ngini = 0.562\nsamples = 11\nvalue = [0, 6, 1, 4]\nclass = monitoring", fillcolor="#caf8c6"] ;
34 -> 38 ;
39 [label="gini = 0.571\nsamples = 7\nvalue = [0, 2, 1, 4]\nclass = no_plugin", fillcolor="#efb0f5"] ;
38 -> 39 ;
40 [label="gini = 0.0\nsamples = 4\nvalue = [0, 4, 0, 0]\nclass = monitoring", fillcolor="#47e539"] ;
38 -> 40 ;
}
