digraph Tree {
node [shape=box, style="filled, rounded", color="black", fontname="helvetica"] ;
edge [fontname="helvetica"] ;
0 [label="average_s_bytes <= 776.325\ngini = 0.75\nsamples = 9600\nvalue = [2400, 2400, 2400, 2400]\nclass = fec", fillcolor="#ffffff"] ;
1 [label="s_durat <= 52.032\ngini = 0.003\nsamples = 2397\nvalue = [2394, 1, 1, 1]\nclass = fec", fillcolor="#e58139"] ;
0 -> 1 [labeldistance=2.5, labelangle=45, headlabel="True"] ;
2 [label="variance_out <= 413609.094\ngini = 0.002\nsamples = 2396\nvalue = [2394, 1, 0, 1]\nclass = fec", fillcolor="#e58139"] ;
1 -> 2 ;
3 [label="gini = 0.0\nsamples = 2385\nvalue = [2385, 0, 0, 0]\nclass = fec", fillcolor="#e58139"] ;
2 -> 3 ;
4 [label="s_bytes_all <= 3325.5\ngini = 0.314\nsamples = 11\nvalue = [9, 1, 0, 1]\nclass = fec", fillcolor="#ea9a61"] ;
2 -> 4 ;
5 [label="gini = 0.0\nsamples = 9\nvalue = [9, 0, 0, 0]\nclass = fec", fillcolor="#e58139"] ;
4 -> 5 ;
6 [label="s_durat <= 10.985\ngini = 0.5\nsamples = 2\nvalue = [0, 1, 0, 1]\nclass = monitoring", fillcolor="#ffffff"] ;
4 -> 6 ;
7 [label="gini = 0.0\nsamples = 1\nvalue = [0, 1, 0, 0]\nclass = monitoring", fillcolor="#47e539"] ;
6 -> 7 ;
8 [label="gini = 0.0\nsamples = 1\nvalue = [0, 0, 0, 1]\nclass = no_plugin", fillcolor="#d739e5"] ;
6 -> 8 ;
9 [label="gini = 0.0\nsamples = 1\nvalue = [0, 0, 1, 0]\nclass = multipath", fillcolor="#399de5"] ;
1 -> 9 ;
10 [label="variance_in <= 199953.719\ngini = 0.667\nsamples = 7203\nvalue = [6, 2399, 2399, 2399]\nclass = monitoring", fillcolor="#ffffff"] ;
0 -> 10 [labeldistance=2.5, labelangle=-45, headlabel="False"] ;
11 [label="ratio_pkts <= 0.431\ngini = 0.508\nsamples = 4807\nvalue = [3, 2384, 34, 2386]\nclass = no_plugin", fillcolor="#ffffff"] ;
10 -> 11 ;
12 [label="s_durat <= 0.208\ngini = 0.471\nsamples = 2122\nvalue = [2, 1324, 3, 793]\nclass = monitoring", fillcolor="#b5f5b0"] ;
11 -> 12 ;
13 [label="variance_in <= 153297.891\ngini = 0.092\nsamples = 83\nvalue = [0, 4, 0, 79]\nclass = no_plugin", fillcolor="#d943e6"] ;
12 -> 13 ;
14 [label="gini = 0.49\nsamples = 7\nvalue = [0, 3, 0, 4]\nclass = no_plugin", fillcolor="#f5cef8"] ;
13 -> 14 ;
15 [label="gini = 0.026\nsamples = 76\nvalue = [0, 1, 0, 75]\nclass = no_plugin", fillcolor="#d83ce5"] ;
13 -> 15 ;
16 [label="average_s_bytes <= 1187.15\ngini = 0.458\nsamples = 2039\nvalue = [2, 1320, 3, 714]\nclass = monitoring", fillcolor="#abf3a4"] ;
12 -> 16 ;
17 [label="gini = 0.488\nsamples = 912\nvalue = [0, 533, 3, 376]\nclass = monitoring", fillcolor="#c9f7c5"] ;
16 -> 17 ;
18 [label="gini = 0.422\nsamples = 1127\nvalue = [2, 787, 0, 338]\nclass = monitoring", fillcolor="#96f08e"] ;
16 -> 18 ;
19 [label="c_bytes_all <= 6342.5\ngini = 0.492\nsamples = 2685\nvalue = [1, 1060, 31, 1593]\nclass = no_plugin", fillcolor="#f2bef6"] ;
11 -> 19 ;
20 [label="s_durat <= 0.346\ngini = 0.481\nsamples = 2641\nvalue = [1, 1055, 1, 1584]\nclass = no_plugin", fillcolor="#f2bdf6"] ;
19 -> 20 ;
21 [label="gini = 0.455\nsamples = 1803\nvalue = [0, 630, 0, 1173]\nclass = no_plugin", fillcolor="#eca3f3"] ;
20 -> 21 ;
22 [label="gini = 0.502\nsamples = 838\nvalue = [1, 425, 1, 411]\nclass = monitoring", fillcolor="#f9fef9"] ;
20 -> 22 ;
23 [label="s_durat <= 0.851\ngini = 0.48\nsamples = 44\nvalue = [0, 5, 30, 9]\nclass = multipath", fillcolor="#88c4ef"] ;
19 -> 23 ;
24 [label="gini = 0.064\nsamples = 30\nvalue = [0, 0, 29, 1]\nclass = multipath", fillcolor="#40a0e6"] ;
23 -> 24 ;
25 [label="gini = 0.541\nsamples = 14\nvalue = [0, 5, 1, 8]\nclass = no_plugin", fillcolor="#f2bdf6"] ;
23 -> 25 ;
26 [label="c_bytes_all <= 4389.0\ngini = 0.026\nsamples = 2396\nvalue = [3, 15, 2365, 13]\nclass = multipath", fillcolor="#3c9ee5"] ;
10 -> 26 ;
27 [label="average_s_bytes <= 977.37\ngini = 0.611\nsamples = 18\nvalue = [3, 9, 0, 6]\nclass = monitoring", fillcolor="#d1f8ce"] ;
26 -> 27 ;
28 [label="gini = 0.0\nsamples = 3\nvalue = [3, 0, 0, 0]\nclass = fec", fillcolor="#e58139"] ;
27 -> 28 ;
29 [label="ratio_bytes <= 0.139\ngini = 0.48\nsamples = 15\nvalue = [0, 9, 0, 6]\nclass = monitoring", fillcolor="#c2f6bd"] ;
27 -> 29 ;
30 [label="gini = 0.444\nsamples = 9\nvalue = [0, 3, 0, 6]\nclass = no_plugin", fillcolor="#eb9cf2"] ;
29 -> 30 ;
31 [label="gini = 0.0\nsamples = 6\nvalue = [0, 6, 0, 0]\nclass = monitoring", fillcolor="#47e539"] ;
29 -> 31 ;
32 [label="average_c_bytes <= 416.206\ngini = 0.011\nsamples = 2378\nvalue = [0, 6, 2365, 7]\nclass = multipath", fillcolor="#3a9ee5"] ;
26 -> 32 ;
33 [label="s_durat <= 4.475\ngini = 0.003\nsamples = 2368\nvalue = [0, 1, 2364, 3]\nclass = multipath", fillcolor="#399de5"] ;
32 -> 33 ;
34 [label="gini = 0.002\nsamples = 2366\nvalue = [0, 1, 2364, 1]\nclass = multipath", fillcolor="#399de5"] ;
33 -> 34 ;
35 [label="gini = 0.0\nsamples = 2\nvalue = [0, 0, 0, 2]\nclass = no_plugin", fillcolor="#d739e5"] ;
33 -> 35 ;
36 [label="c_durat <= 1.33\ngini = 0.58\nsamples = 10\nvalue = [0, 5, 1, 4]\nclass = monitoring", fillcolor="#e0fbde"] ;
32 -> 36 ;
37 [label="gini = 0.5\nsamples = 6\nvalue = [0, 1, 1, 4]\nclass = no_plugin", fillcolor="#e788ef"] ;
36 -> 37 ;
38 [label="gini = 0.0\nsamples = 4\nvalue = [0, 4, 0, 0]\nclass = monitoring", fillcolor="#47e539"] ;
36 -> 38 ;
}
