digraph Tree {
node [shape=box, style="filled, rounded", color="black", fontname="helvetica"] ;
edge [fontname="helvetica"] ;
0 [label="average_s_bytes <= 742.986\ngini = 0.75\nsamples = 9600\nvalue = [2400, 2400, 2400, 2400]\nclass = fec", fillcolor="#ffffff"] ;
1 [label="s_durat <= 52.032\ngini = 0.002\nsamples = 2398\nvalue = [2395, 1, 1, 1]\nclass = fec", fillcolor="#e58139"] ;
0 -> 1 [labeldistance=2.5, labelangle=45, headlabel="True"] ;
2 [label="average_s_bytes <= 552.935\ngini = 0.002\nsamples = 2397\nvalue = [2395, 1, 0, 1]\nclass = fec", fillcolor="#e58139"] ;
1 -> 2 ;
3 [label="average_s_bytes <= 481.606\ngini = 0.001\nsamples = 2391\nvalue = [2390, 0, 0, 1]\nclass = fec", fillcolor="#e58139"] ;
2 -> 3 ;
4 [label="gini = 0.0\nsamples = 2373\nvalue = [2373, 0, 0, 0]\nclass = fec", fillcolor="#e58139"] ;
3 -> 4 ;
5 [label="gini = 0.105\nsamples = 18\nvalue = [17, 0, 0, 1]\nclass = fec", fillcolor="#e78845"] ;
3 -> 5 ;
6 [label="average_s_bytes <= 575.687\ngini = 0.278\nsamples = 6\nvalue = [5, 1, 0, 0]\nclass = fec", fillcolor="#ea9a61"] ;
2 -> 6 ;
7 [label="gini = 0.0\nsamples = 1\nvalue = [0, 1, 0, 0]\nclass = monitoring", fillcolor="#47e539"] ;
6 -> 7 ;
8 [label="gini = 0.0\nsamples = 5\nvalue = [5, 0, 0, 0]\nclass = fec", fillcolor="#e58139"] ;
6 -> 8 ;
9 [label="gini = 0.0\nsamples = 1\nvalue = [0, 0, 1, 0]\nclass = multipath", fillcolor="#399de5"] ;
1 -> 9 ;
10 [label="c_bytes_all <= 4418.0\ngini = 0.667\nsamples = 7202\nvalue = [5, 2399, 2399, 2399]\nclass = monitoring", fillcolor="#ffffff"] ;
0 -> 10 [labeldistance=2.5, labelangle=-45, headlabel="False"] ;
11 [label="ratio_pkts <= 0.431\ngini = 0.501\nsamples = 4647\nvalue = [5, 2312, 2, 2328]\nclass = no_plugin", fillcolor="#fffeff"] ;
10 -> 11 ;
12 [label="s_durat <= 0.208\ngini = 0.474\nsamples = 2099\nvalue = [4, 1296, 0, 799]\nclass = monitoring", fillcolor="#b9f5b3"] ;
11 -> 12 ;
13 [label="gini = 0.101\nsamples = 94\nvalue = [0, 5, 0, 89]\nclass = no_plugin", fillcolor="#d944e6"] ;
12 -> 13 ;
14 [label="gini = 0.46\nsamples = 2005\nvalue = [4, 1291, 0, 710]\nclass = monitoring", fillcolor="#acf3a6"] ;
12 -> 14 ;
15 [label="s_durat <= 0.346\ngini = 0.481\nsamples = 2548\nvalue = [1, 1016, 2, 1529]\nclass = no_plugin", fillcolor="#f2bdf6"] ;
11 -> 15 ;
16 [label="gini = 0.453\nsamples = 1737\nvalue = [0, 602, 0, 1135]\nclass = no_plugin", fillcolor="#eca2f3"] ;
15 -> 16 ;
17 [label="gini = 0.503\nsamples = 811\nvalue = [1, 414, 2, 394]\nclass = monitoring", fillcolor="#f6fef6"] ;
15 -> 17 ;
18 [label="average_s_bytes <= 1179.852\ngini = 0.118\nsamples = 2555\nvalue = [0, 87, 2397, 71]\nclass = multipath", fillcolor="#46a3e7"] ;
10 -> 18 ;
19 [label="average_c_bytes <= 416.206\ngini = 0.024\nsamples = 2422\nvalue = [0, 12, 2393, 17]\nclass = multipath", fillcolor="#3b9ee5"] ;
18 -> 19 ;
20 [label="gini = 0.009\nsamples = 2403\nvalue = [0, 3, 2392, 8]\nclass = multipath", fillcolor="#3a9de5"] ;
19 -> 20 ;
21 [label="gini = 0.548\nsamples = 19\nvalue = [0, 9, 1, 9]\nclass = monitoring", fillcolor="#ffffff"] ;
19 -> 21 ;
22 [label="ratio_bytes <= 0.094\ngini = 0.516\nsamples = 133\nvalue = [0, 75, 4, 54]\nclass = monitoring", fillcolor="#cef8ca"] ;
18 -> 22 ;
23 [label="gini = 0.496\nsamples = 120\nvalue = [0, 74, 4, 42]\nclass = monitoring", fillcolor="#b4f4ae"] ;
22 -> 23 ;
24 [label="gini = 0.142\nsamples = 13\nvalue = [0, 1, 0, 12]\nclass = no_plugin", fillcolor="#da49e7"] ;
22 -> 24 ;
}
