digraph Tree {
node [shape=box, style="filled, rounded", color="black", fontname="helvetica"] ;
edge [fontname="helvetica"] ;
0 [label="X[8] <= 7.587\ngini = 0.75\nsamples = 9600\nvalue = [2400, 2400, 2400, 2400]\nclass = fec", fillcolor="#ffffff"] ;
1 [label="X[4] <= 4302.0\ngini = 0.672\nsamples = 7259\nvalue = [59, 2400, 2400, 2400]\nclass = monitoring", fillcolor="#ffffff"] ;
0 -> 1 [labeldistance=2.5, labelangle=45, headlabel="True"] ;
2 [label="X[6] <= 1096.181\ngini = 0.603\nsamples = 5344\nvalue = [1, 2290, 679, 2374]\nclass = no_plugin", fillcolor="#fefafe"] ;
1 -> 2 ;
3 [label="gini = 0.52\nsamples = 1045\nvalue = [1, 160, 674, 210]\nclass = datagram", fillcolor="#91c9f1"] ;
2 -> 3 ;
4 [label="gini = 0.501\nsamples = 4299\nvalue = [0, 2130, 5, 2164]\nclass = no_plugin", fillcolor="#fefcff"] ;
2 -> 4 ;
5 [label="X[1] <= 5936.0\ngini = 0.188\nsamples = 1915\nvalue = [58, 110, 1721, 26]\nclass = datagram", fillcolor="#4ea8e8"] ;
1 -> 5 ;
6 [label="gini = 0.643\nsamples = 181\nvalue = [57, 87, 28, 9]\nclass = monitoring", fillcolor="#d2f9cf"] ;
5 -> 6 ;
7 [label="gini = 0.046\nsamples = 1734\nvalue = [1, 23, 1693, 17]\nclass = datagram", fillcolor="#3e9fe6"] ;
5 -> 7 ;
8 [label="gini = 0.0\nsamples = 2341\nvalue = [2341, 0, 0, 0]\nclass = fec", fillcolor="#e58139"] ;
0 -> 8 [labeldistance=2.5, labelangle=-45, headlabel="False"] ;
}
