digraph Tree {
node [shape=box, style="filled, rounded", color="black", fontname="helvetica"] ;
edge [fontname="helvetica"] ;
0 [label="X[10] <= 219153.008\ngini = 0.75\nsamples = 9600\nvalue = [2400, 2400, 2400, 2400]\nclass = fec", fillcolor="#ffffff"] ;
1 [label="gini = 0.0\nsamples = 2399\nvalue = [2399, 0, 0, 0]\nclass = fec", fillcolor="#e58139"] ;
0 -> 1 [labeldistance=2.5, labelangle=45, headlabel="True"] ;
2 [label="X[4] <= 4302.0\ngini = 0.667\nsamples = 7201\nvalue = [1, 2400, 2400, 2400]\nclass = monitoring", fillcolor="#ffffff"] ;
0 -> 2 [labeldistance=2.5, labelangle=-45, headlabel="False"] ;
3 [label="X[6] <= 1096.181\ngini = 0.603\nsamples = 5344\nvalue = [1, 2290, 679, 2374]\nclass = no_plugin", fillcolor="#fefafe"] ;
2 -> 3 ;
4 [label="X[9] <= 198539.18\ngini = 0.52\nsamples = 1045\nvalue = [1, 160, 674, 210]\nclass = datagram", fillcolor="#91c9f1"] ;
3 -> 4 ;
5 [label="X[12] <= 7.185\ngini = 0.012\nsamples = 678\nvalue = [0, 1, 674, 3]\nclass = datagram", fillcolor="#3a9ee5"] ;
4 -> 5 ;
6 [label="gini = 0.0\nsamples = 2\nvalue = [0, 0, 0, 2]\nclass = no_plugin", fillcolor="#d739e5"] ;
5 -> 6 ;
7 [label="gini = 0.006\nsamples = 676\nvalue = [0, 1, 674, 1]\nclass = datagram", fillcolor="#3a9de5"] ;
5 -> 7 ;
8 [label="X[3] <= 0.107\ngini = 0.494\nsamples = 367\nvalue = [1, 159, 0, 207]\nclass = no_plugin", fillcolor="#f6d1f9"] ;
4 -> 8 ;
9 [label="gini = 0.312\nsamples = 150\nvalue = [0, 29, 0, 121]\nclass = no_plugin", fillcolor="#e168eb"] ;
8 -> 9 ;
10 [label="gini = 0.484\nsamples = 217\nvalue = [1, 130, 0, 86]\nclass = monitoring", fillcolor="#c1f6bc"] ;
8 -> 10 ;
11 [label="X[11] <= 2.453\ngini = 0.501\nsamples = 4299\nvalue = [0, 2130, 5, 2164]\nclass = no_plugin", fillcolor="#fefcff"] ;
3 -> 11 ;
12 [label="X[3] <= 0.324\ngini = 0.444\nsamples = 711\nvalue = [0, 476, 2, 233]\nclass = monitoring", fillcolor="#a1f29a"] ;
11 -> 12 ;
13 [label="gini = 0.371\nsamples = 396\nvalue = [0, 299, 1, 96]\nclass = monitoring", fillcolor="#82ed79"] ;
12 -> 13 ;
14 [label="gini = 0.495\nsamples = 315\nvalue = [0, 177, 1, 137]\nclass = monitoring", fillcolor="#d6f9d3"] ;
12 -> 14 ;
15 [label="X[3] <= 0.117\ngini = 0.498\nsamples = 3588\nvalue = [0, 1654, 3, 1931]\nclass = no_plugin", fillcolor="#f9e3fb"] ;
11 -> 15 ;
16 [label="gini = 0.404\nsamples = 313\nvalue = [0, 88, 0, 225]\nclass = no_plugin", fillcolor="#e786ef"] ;
15 -> 16 ;
17 [label="gini = 0.5\nsamples = 3275\nvalue = [0, 1566, 3, 1706]\nclass = no_plugin", fillcolor="#fceffd"] ;
15 -> 17 ;
18 [label="X[1] <= 5408.5\ngini = 0.137\nsamples = 1857\nvalue = [0, 110, 1721, 26]\nclass = datagram", fillcolor="#48a5e7"] ;
2 -> 18 ;
19 [label="X[7] <= 1098.866\ngini = 0.446\nsamples = 123\nvalue = [0, 87, 27, 9]\nclass = monitoring", fillcolor="#8cef83"] ;
18 -> 19 ;
20 [label="X[7] <= 1050.55\ngini = 0.518\nsamples = 44\nvalue = [0, 14, 27, 3]\nclass = datagram", fillcolor="#a9d5f4"] ;
19 -> 20 ;
21 [label="gini = 0.291\nsamples = 17\nvalue = [0, 14, 0, 3]\nclass = monitoring", fillcolor="#6eeb63"] ;
20 -> 21 ;
22 [label="gini = 0.0\nsamples = 27\nvalue = [0, 0, 27, 0]\nclass = datagram", fillcolor="#399de5"] ;
20 -> 22 ;
23 [label="X[0] <= 0.499\ngini = 0.14\nsamples = 79\nvalue = [0, 73, 0, 6]\nclass = monitoring", fillcolor="#56e749"] ;
19 -> 23 ;
24 [label="gini = 0.12\nsamples = 78\nvalue = [0, 73, 0, 5]\nclass = monitoring", fillcolor="#54e747"] ;
23 -> 24 ;
25 [label="gini = 0.0\nsamples = 1\nvalue = [0, 0, 0, 1]\nclass = no_plugin", fillcolor="#d739e5"] ;
23 -> 25 ;
26 [label="X[0] <= 1.326\ngini = 0.045\nsamples = 1734\nvalue = [0, 23, 1694, 17]\nclass = datagram", fillcolor="#3e9fe6"] ;
18 -> 26 ;
27 [label="X[0] <= 0.354\ngini = 0.024\nsamples = 1708\nvalue = [0, 9, 1687, 12]\nclass = datagram", fillcolor="#3b9ee5"] ;
26 -> 27 ;
28 [label="gini = 0.278\nsamples = 6\nvalue = [0, 1, 0, 5]\nclass = no_plugin", fillcolor="#df61ea"] ;
27 -> 28 ;
29 [label="gini = 0.018\nsamples = 1702\nvalue = [0, 8, 1687, 7]\nclass = datagram", fillcolor="#3b9ee5"] ;
27 -> 29 ;
30 [label="X[4] <= 5593.0\ngini = 0.601\nsamples = 26\nvalue = [0, 14, 7, 5]\nclass = monitoring", fillcolor="#bbf5b6"] ;
26 -> 30 ;
31 [label="gini = 0.46\nsamples = 19\nvalue = [0, 13, 1, 5]\nclass = monitoring", fillcolor="#96f08e"] ;
30 -> 31 ;
32 [label="gini = 0.245\nsamples = 7\nvalue = [0, 1, 6, 0]\nclass = datagram", fillcolor="#5aade9"] ;
30 -> 32 ;
}
