digraph Tree {
node [shape=box, style="filled, rounded", color="black", fontname="helvetica"] ;
edge [fontname="helvetica"] ;
0 [label="X[2] <= 155.0\ngini = 0.75\nsamples = 9600\nvalue = [2400, 2400, 2400, 2400]\nclass = fec", fillcolor="#ffffff"] ;
1 [label="X[4] <= 4302.0\ngini = 0.672\nsamples = 7259\nvalue = [59, 2400, 2400, 2400]\nclass = monitoring", fillcolor="#ffffff"] ;
0 -> 1 [labeldistance=2.5, labelangle=45, headlabel="True"] ;
2 [label="X[6] <= 1096.181\ngini = 0.603\nsamples = 5344\nvalue = [1, 2290, 679, 2374]\nclass = no_plugin", fillcolor="#fefafe"] ;
1 -> 2 ;
3 [label="X[6] <= 1051.088\ngini = 0.52\nsamples = 1045\nvalue = [1, 160, 674, 210]\nclass = datagram", fillcolor="#91c9f1"] ;
2 -> 3 ;
4 [label="gini = 0.494\nsamples = 364\nvalue = [1, 158, 0, 205]\nclass = no_plugin", fillcolor="#f6d2f9"] ;
3 -> 4 ;
5 [label="gini = 0.02\nsamples = 681\nvalue = [0, 2, 674, 5]\nclass = datagram", fillcolor="#3b9ee5"] ;
3 -> 5 ;
6 [label="X[8] <= 2.453\ngini = 0.501\nsamples = 4299\nvalue = [0, 2130, 5, 2164]\nclass = no_plugin", fillcolor="#fefcff"] ;
2 -> 6 ;
7 [label="gini = 0.444\nsamples = 711\nvalue = [0, 476, 2, 233]\nclass = monitoring", fillcolor="#a1f29a"] ;
6 -> 7 ;
8 [label="gini = 0.498\nsamples = 3588\nvalue = [0, 1654, 3, 1931]\nclass = no_plugin", fillcolor="#f9e3fb"] ;
6 -> 8 ;
9 [label="X[1] <= 5936.0\ngini = 0.188\nsamples = 1915\nvalue = [58, 110, 1721, 26]\nclass = datagram", fillcolor="#4ea8e8"] ;
1 -> 9 ;
10 [label="X[5] <= 203.0\ngini = 0.643\nsamples = 181\nvalue = [57, 87, 28, 9]\nclass = monitoring", fillcolor="#d2f9cf"] ;
9 -> 10 ;
11 [label="gini = 0.451\nsamples = 124\nvalue = [0, 87, 28, 9]\nclass = monitoring", fillcolor="#8eef85"] ;
10 -> 11 ;
12 [label="gini = 0.0\nsamples = 57\nvalue = [57, 0, 0, 0]\nclass = fec", fillcolor="#e58139"] ;
10 -> 12 ;
13 [label="X[0] <= 1.326\ngini = 0.046\nsamples = 1734\nvalue = [1, 23, 1693, 17]\nclass = datagram", fillcolor="#3e9fe6"] ;
9 -> 13 ;
14 [label="gini = 0.026\nsamples = 1709\nvalue = [1, 9, 1687, 12]\nclass = datagram", fillcolor="#3c9ee5"] ;
13 -> 14 ;
15 [label="gini = 0.589\nsamples = 25\nvalue = [0, 14, 6, 5]\nclass = monitoring", fillcolor="#b2f4ac"] ;
13 -> 15 ;
16 [label="gini = 0.0\nsamples = 2341\nvalue = [2341, 0, 0, 0]\nclass = fec", fillcolor="#e58139"] ;
0 -> 16 [labeldistance=2.5, labelangle=-45, headlabel="False"] ;
}
