digraph Tree {
node [shape=box, style="filled, rounded", color="black", fontname="helvetica"] ;
edge [fontname="helvetica"] ;
0 [label="X[10] <= 219153.008\ngini = 0.75\nsamples = 9600\nvalue = [2400, 2400, 2400, 2400]\nclass = fec", fillcolor="#ffffff"] ;
1 [label="gini = 0.0\nsamples = 2399\nvalue = [2399, 0, 0, 0]\nclass = fec", fillcolor="#e58139"] ;
0 -> 1 [labeldistance=2.5, labelangle=45, headlabel="True"] ;
2 [label="X[4] <= 4302.0\ngini = 0.667\nsamples = 7201\nvalue = [1, 2400, 2400, 2400]\nclass = monitoring", fillcolor="#ffffff"] ;
0 -> 2 [labeldistance=2.5, labelangle=-45, headlabel="False"] ;
3 [label="X[6] <= 1096.181\ngini = 0.602\nsamples = 5340\nvalue = [1, 2293, 675, 2371]\nclass = no_plugin", fillcolor="#fefafe"] ;
2 -> 3 ;
4 [label="X[8] <= 351633.828\ngini = 0.528\nsamples = 1052\nvalue = [1, 163, 669, 219]\nclass = datagram", fillcolor="#94caf1"] ;
3 -> 4 ;
5 [label="gini = 0.015\nsamples = 674\nvalue = [0, 1, 669, 4]\nclass = datagram", fillcolor="#3a9ee5"] ;
4 -> 5 ;
6 [label="gini = 0.493\nsamples = 378\nvalue = [1, 162, 0, 215]\nclass = no_plugin", fillcolor="#f5cef9"] ;
4 -> 6 ;
7 [label="X[11] <= 2.453\ngini = 0.501\nsamples = 4288\nvalue = [0, 2130, 6, 2152]\nclass = no_plugin", fillcolor="#fffdff"] ;
3 -> 7 ;
8 [label="gini = 0.444\nsamples = 734\nvalue = [0, 493, 3, 238]\nclass = monitoring", fillcolor="#a0f299"] ;
7 -> 8 ;
9 [label="gini = 0.498\nsamples = 3554\nvalue = [0, 1637, 3, 1914]\nclass = no_plugin", fillcolor="#f9e2fb"] ;
7 -> 9 ;
10 [label="X[1] <= 5408.5\ngini = 0.137\nsamples = 1861\nvalue = [0, 107, 1725, 29]\nclass = datagram", fillcolor="#48a5e7"] ;
2 -> 10 ;
11 [label="X[7] <= 1098.866\ngini = 0.493\nsamples = 128\nvalue = [0, 84, 34, 10]\nclass = monitoring", fillcolor="#9df196"] ;
10 -> 11 ;
12 [label="gini = 0.494\nsamples = 53\nvalue = [0, 16, 34, 3]\nclass = datagram", fillcolor="#9fcff2"] ;
11 -> 12 ;
13 [label="gini = 0.169\nsamples = 75\nvalue = [0, 68, 0, 7]\nclass = monitoring", fillcolor="#5ae84d"] ;
11 -> 13 ;
14 [label="X[0] <= 1.326\ngini = 0.048\nsamples = 1733\nvalue = [0, 23, 1691, 19]\nclass = datagram", fillcolor="#3e9fe6"] ;
10 -> 14 ;
15 [label="gini = 0.03\nsamples = 1710\nvalue = [0, 13, 1684, 13]\nclass = datagram", fillcolor="#3c9fe5"] ;
14 -> 15 ;
16 [label="gini = 0.65\nsamples = 23\nvalue = [0, 10, 7, 6]\nclass = monitoring", fillcolor="#dcfada"] ;
14 -> 16 ;
}
