digraph Tree {
node [shape=box, style="filled, rounded", color="black", fontname="helvetica"] ;
edge [fontname="helvetica"] ;
0 [label="X[10] <= 218378.008\ngini = 0.75\nsamples = 9600\nvalue = [2400, 2400, 2400, 2400]\nclass = fec", fillcolor="#ffffff"] ;
1 [label="gini = 0.0\nsamples = 2400\nvalue = [2400, 0, 0, 0]\nclass = fec", fillcolor="#e58139"] ;
0 -> 1 [labeldistance=2.5, labelangle=45, headlabel="True"] ;
2 [label="X[4] <= 4296.0\ngini = 0.667\nsamples = 7200\nvalue = [0, 2400, 2400, 2400]\nclass = monitoring", fillcolor="#ffffff"] ;
0 -> 2 [labeldistance=2.5, labelangle=-45, headlabel="False"] ;
3 [label="X[6] <= 1096.181\ngini = 0.604\nsamples = 5344\nvalue = [0, 2287, 686, 2371]\nclass = no_plugin", fillcolor="#fefafe"] ;
2 -> 3 ;
4 [label="X[9] <= 198539.18\ngini = 0.523\nsamples = 1058\nvalue = [0, 160, 678, 220]\nclass = datagram", fillcolor="#93c9f1"] ;
3 -> 4 ;
5 [label="X[6] <= 1048.0\ngini = 0.017\nsamples = 684\nvalue = [0, 2, 678, 4]\nclass = datagram", fillcolor="#3b9ee5"] ;
4 -> 5 ;
6 [label="gini = 0.0\nsamples = 3\nvalue = [0, 0, 0, 3]\nclass = no_plugin", fillcolor="#d739e5"] ;
5 -> 6 ;
7 [label="gini = 0.009\nsamples = 681\nvalue = [0, 2, 678, 1]\nclass = datagram", fillcolor="#3a9de5"] ;
5 -> 7 ;
8 [label="X[3] <= 0.107\ngini = 0.488\nsamples = 374\nvalue = [0, 158, 0, 216]\nclass = no_plugin", fillcolor="#f4caf8"] ;
4 -> 8 ;
9 [label="gini = 0.241\nsamples = 100\nvalue = [0, 14, 0, 86]\nclass = no_plugin", fillcolor="#de59e9"] ;
8 -> 9 ;
10 [label="gini = 0.499\nsamples = 274\nvalue = [0, 144, 0, 130]\nclass = monitoring", fillcolor="#edfcec"] ;
8 -> 10 ;
11 [label="X[11] <= 2.445\ngini = 0.502\nsamples = 4286\nvalue = [0, 2127, 8, 2151]\nclass = no_plugin", fillcolor="#fffdff"] ;
3 -> 11 ;
12 [label="X[3] <= 0.324\ngini = 0.441\nsamples = 636\nvalue = [0, 431, 4, 201]\nclass = monitoring", fillcolor="#9ef196"] ;
11 -> 12 ;
13 [label="gini = 0.345\nsamples = 367\nvalue = [0, 286, 1, 80]\nclass = monitoring", fillcolor="#7bec71"] ;
12 -> 13 ;
14 [label="gini = 0.507\nsamples = 269\nvalue = [0, 145, 3, 121]\nclass = monitoring", fillcolor="#e1fbdf"] ;
12 -> 14 ;
15 [label="X[3] <= 0.117\ngini = 0.499\nsamples = 3650\nvalue = [0, 1696, 4, 1950]\nclass = no_plugin", fillcolor="#fae5fc"] ;
11 -> 15 ;
16 [label="gini = 0.399\nsamples = 313\nvalue = [0, 86, 0, 227]\nclass = no_plugin", fillcolor="#e684ef"] ;
15 -> 16 ;
17 [label="gini = 0.501\nsamples = 3337\nvalue = [0, 1610, 4, 1723]\nclass = no_plugin", fillcolor="#fcf2fd"] ;
15 -> 17 ;
18 [label="X[1] <= 5408.5\ngini = 0.143\nsamples = 1856\nvalue = [0, 113, 1714, 29]\nclass = datagram", fillcolor="#49a5e7"] ;
2 -> 18 ;
19 [label="X[7] <= 1098.866\ngini = 0.448\nsamples = 124\nvalue = [0, 88, 25, 11]\nclass = monitoring", fillcolor="#8aee81"] ;
18 -> 19 ;
20 [label="X[7] <= 1050.55\ngini = 0.547\nsamples = 46\nvalue = [0, 18, 25, 3]\nclass = datagram", fillcolor="#cee6f8"] ;
19 -> 20 ;
21 [label="gini = 0.245\nsamples = 21\nvalue = [0, 18, 0, 3]\nclass = monitoring", fillcolor="#66e95a"] ;
20 -> 21 ;
22 [label="gini = 0.0\nsamples = 25\nvalue = [0, 0, 25, 0]\nclass = datagram", fillcolor="#399de5"] ;
20 -> 22 ;
23 [label="X[9] <= 69357.084\ngini = 0.184\nsamples = 78\nvalue = [0, 70, 0, 8]\nclass = monitoring", fillcolor="#5ce850"] ;
19 -> 23 ;
24 [label="gini = 0.0\nsamples = 1\nvalue = [0, 0, 0, 1]\nclass = no_plugin", fillcolor="#d739e5"] ;
23 -> 24 ;
25 [label="gini = 0.165\nsamples = 77\nvalue = [0, 70, 0, 7]\nclass = monitoring", fillcolor="#59e84d"] ;
23 -> 25 ;
26 [label="X[0] <= 1.326\ngini = 0.049\nsamples = 1732\nvalue = [0, 25, 1689, 18]\nclass = datagram", fillcolor="#3e9fe6"] ;
18 -> 26 ;
27 [label="X[6] <= 1296.168\ngini = 0.031\nsamples = 1711\nvalue = [0, 15, 1684, 12]\nclass = datagram", fillcolor="#3c9fe5"] ;
26 -> 27 ;
28 [label="gini = 0.019\nsamples = 1695\nvalue = [0, 8, 1679, 8]\nclass = datagram", fillcolor="#3b9ee5"] ;
27 -> 28 ;
29 [label="gini = 0.648\nsamples = 16\nvalue = [0, 7, 5, 4]\nclass = monitoring", fillcolor="#defadb"] ;
27 -> 29 ;
30 [label="X[9] <= 85389.992\ngini = 0.635\nsamples = 21\nvalue = [0, 10, 5, 6]\nclass = monitoring", fillcolor="#cef8ca"] ;
26 -> 30 ;
31 [label="gini = 0.49\nsamples = 14\nvalue = [0, 8, 0, 6]\nclass = monitoring", fillcolor="#d1f8ce"] ;
30 -> 31 ;
32 [label="gini = 0.408\nsamples = 7\nvalue = [0, 2, 5, 0]\nclass = datagram", fillcolor="#88c4ef"] ;
30 -> 32 ;
}
