digraph Tree {
node [shape=box, style="filled, rounded", color="black", fontname="helvetica"] ;
edge [fontname="helvetica"] ;
0 [label="X[8] <= 7.587\ngini = 0.75\nsamples = 9600\nvalue = [2400, 2400, 2400, 2400]\nclass = fec", fillcolor="#ffffff"] ;
1 [label="X[4] <= 4302.0\ngini = 0.672\nsamples = 7259\nvalue = [59, 2400, 2400, 2400]\nclass = monitoring", fillcolor="#ffffff"] ;
0 -> 1 [labeldistance=2.5, labelangle=45, headlabel="True"] ;
2 [label="X[6] <= 1096.181\ngini = 0.602\nsamples = 5340\nvalue = [1, 2293, 675, 2371]\nclass = no_plugin", fillcolor="#fefafe"] ;
1 -> 2 ;
3 [label="X[6] <= 1050.75\ngini = 0.528\nsamples = 1052\nvalue = [1, 163, 669, 219]\nclass = datagram", fillcolor="#94caf1"] ;
2 -> 3 ;
4 [label="X[3] <= 0.107\ngini = 0.492\nsamples = 377\nvalue = [1, 160, 0, 216]\nclass = no_plugin", fillcolor="#f5ccf8"] ;
3 -> 4 ;
5 [label="gini = 0.297\nsamples = 127\nvalue = [0, 23, 0, 104]\nclass = no_plugin", fillcolor="#e065eb"] ;
4 -> 5 ;
6 [label="gini = 0.499\nsamples = 250\nvalue = [1, 137, 0, 112]\nclass = monitoring", fillcolor="#defadb"] ;
4 -> 6 ;
7 [label="X[7] <= 412.571\ngini = 0.018\nsamples = 675\nvalue = [0, 3, 669, 3]\nclass = datagram", fillcolor="#3b9ee5"] ;
3 -> 7 ;
8 [label="gini = 0.0\nsamples = 669\nvalue = [0, 0, 669, 0]\nclass = datagram", fillcolor="#399de5"] ;
7 -> 8 ;
9 [label="gini = 0.5\nsamples = 6\nvalue = [0, 3, 0, 3]\nclass = monitoring", fillcolor="#ffffff"] ;
7 -> 9 ;
10 [label="X[8] <= 2.453\ngini = 0.501\nsamples = 4288\nvalue = [0, 2130, 6, 2152]\nclass = no_plugin", fillcolor="#fffdff"] ;
2 -> 10 ;
11 [label="X[3] <= 0.324\ngini = 0.444\nsamples = 734\nvalue = [0, 493, 3, 238]\nclass = monitoring", fillcolor="#a0f299"] ;
10 -> 11 ;
12 [label="gini = 0.367\nsamples = 399\nvalue = [0, 303, 1, 95]\nclass = monitoring", fillcolor="#81ed78"] ;
11 -> 12 ;
13 [label="gini = 0.496\nsamples = 335\nvalue = [0, 190, 2, 143]\nclass = monitoring", fillcolor="#d2f9cf"] ;
11 -> 13 ;
14 [label="X[3] <= 0.117\ngini = 0.498\nsamples = 3554\nvalue = [0, 1637, 3, 1914]\nclass = no_plugin", fillcolor="#f9e2fb"] ;
10 -> 14 ;
15 [label="gini = 0.39\nsamples = 298\nvalue = [0, 79, 0, 219]\nclass = no_plugin", fillcolor="#e580ee"] ;
14 -> 15 ;
16 [label="gini = 0.5\nsamples = 3256\nvalue = [0, 1558, 3, 1695]\nclass = no_plugin", fillcolor="#fceffd"] ;
14 -> 16 ;
17 [label="X[1] <= 5887.0\ngini = 0.188\nsamples = 1919\nvalue = [58, 107, 1725, 29]\nclass = datagram", fillcolor="#4ea7e8"] ;
1 -> 17 ;
18 [label="X[8] <= 0.177\ngini = 0.665\nsamples = 187\nvalue = [57, 84, 36, 10]\nclass = monitoring", fillcolor="#d9fad6"] ;
17 -> 18 ;
19 [label="gini = 0.0\nsamples = 57\nvalue = [57, 0, 0, 0]\nclass = fec", fillcolor="#e58139"] ;
18 -> 19 ;
20 [label="X[7] <= 1098.866\ngini = 0.5\nsamples = 130\nvalue = [0, 84, 36, 10]\nclass = monitoring", fillcolor="#a1f29a"] ;
18 -> 20 ;
21 [label="gini = 0.484\nsamples = 55\nvalue = [0, 16, 36, 3]\nclass = datagram", fillcolor="#99cdf2"] ;
20 -> 21 ;
22 [label="gini = 0.169\nsamples = 75\nvalue = [0, 68, 0, 7]\nclass = monitoring", fillcolor="#5ae84d"] ;
20 -> 22 ;
23 [label="X[0] <= 1.326\ngini = 0.049\nsamples = 1732\nvalue = [1, 23, 1689, 19]\nclass = datagram", fillcolor="#3e9fe6"] ;
17 -> 23 ;
24 [label="X[6] <= 1296.168\ngini = 0.031\nsamples = 1710\nvalue = [1, 13, 1683, 13]\nclass = datagram", fillcolor="#3c9fe5"] ;
23 -> 24 ;
25 [label="gini = 0.02\nsamples = 1694\nvalue = [1, 7, 1677, 9]\nclass = datagram", fillcolor="#3b9ee5"] ;
24 -> 25 ;
26 [label="gini = 0.656\nsamples = 16\nvalue = [0, 6, 6, 4]\nclass = monitoring", fillcolor="#ffffff"] ;
24 -> 26 ;
27 [label="X[4] <= 5517.0\ngini = 0.645\nsamples = 22\nvalue = [0, 10, 6, 6]\nclass = monitoring", fillcolor="#d1f8ce"] ;
23 -> 27 ;
28 [label="gini = 0.48\nsamples = 15\nvalue = [0, 9, 0, 6]\nclass = monitoring", fillcolor="#c2f6bd"] ;
27 -> 28 ;
29 [label="gini = 0.245\nsamples = 7\nvalue = [0, 1, 6, 0]\nclass = datagram", fillcolor="#5aade9"] ;
27 -> 29 ;
30 [label="gini = 0.0\nsamples = 2341\nvalue = [2341, 0, 0, 0]\nclass = fec", fillcolor="#e58139"] ;
0 -> 30 [labeldistance=2.5, labelangle=-45, headlabel="False"] ;
}
