digraph Tree {
node [shape=box, style="filled, rounded", color="black", fontname="helvetica"] ;
edge [fontname="helvetica"] ;
0 [label="X[2] <= 155.0\ngini = 0.75\nsamples = 9600\nvalue = [2400, 2400, 2400, 2400]\nclass = fec", fillcolor="#ffffff"] ;
1 [label="X[4] <= 4302.0\ngini = 0.673\nsamples = 7267\nvalue = [67, 2400, 2400, 2400]\nclass = monitoring", fillcolor="#ffffff"] ;
0 -> 1 [labeldistance=2.5, labelangle=45, headlabel="True"] ;
2 [label="X[6] <= 1096.181\ngini = 0.6\nsamples = 5311\nvalue = [1, 2287, 651, 2372]\nclass = no_plugin", fillcolor="#fef9fe"] ;
1 -> 2 ;
3 [label="X[6] <= 1051.088\ngini = 0.534\nsamples = 1025\nvalue = [1, 163, 645, 216]\nclass = datagram", fillcolor="#96cbf1"] ;
2 -> 3 ;
4 [label="X[3] <= 0.107\ngini = 0.492\nsamples = 374\nvalue = [1, 159, 0, 214]\nclass = no_plugin", fillcolor="#f5ccf8"] ;
3 -> 4 ;
5 [label="gini = 0.226\nsamples = 108\nvalue = [0, 14, 0, 94]\nclass = no_plugin", fillcolor="#dd56e9"] ;
4 -> 5 ;
6 [label="gini = 0.499\nsamples = 266\nvalue = [1, 145, 0, 120]\nclass = monitoring", fillcolor="#dffbdd"] ;
4 -> 6 ;
7 [label="X[7] <= 416.221\ngini = 0.018\nsamples = 651\nvalue = [0, 4, 645, 2]\nclass = datagram", fillcolor="#3b9ee5"] ;
3 -> 7 ;
8 [label="gini = 0.0\nsamples = 645\nvalue = [0, 0, 645, 0]\nclass = datagram", fillcolor="#399de5"] ;
7 -> 8 ;
9 [label="gini = 0.444\nsamples = 6\nvalue = [0, 4, 0, 2]\nclass = monitoring", fillcolor="#a3f29c"] ;
7 -> 9 ;
10 [label="X[8] <= 2.453\ngini = 0.501\nsamples = 4286\nvalue = [0, 2124, 6, 2156]\nclass = no_plugin", fillcolor="#fefcff"] ;
2 -> 10 ;
11 [label="X[3] <= 0.324\ngini = 0.453\nsamples = 711\nvalue = [0, 468, 3, 240]\nclass = monitoring", fillcolor="#a6f29f"] ;
10 -> 11 ;
12 [label="gini = 0.378\nsamples = 383\nvalue = [0, 286, 0, 97]\nclass = monitoring", fillcolor="#85ee7c"] ;
11 -> 12 ;
13 [label="gini = 0.502\nsamples = 328\nvalue = [0, 182, 3, 143]\nclass = monitoring", fillcolor="#d8fad5"] ;
11 -> 13 ;
14 [label="X[3] <= 0.117\ngini = 0.498\nsamples = 3575\nvalue = [0, 1656, 3, 1916]\nclass = no_plugin", fillcolor="#fae4fb"] ;
10 -> 14 ;
15 [label="gini = 0.378\nsamples = 300\nvalue = [0, 76, 0, 224]\nclass = no_plugin", fillcolor="#e57cee"] ;
14 -> 15 ;
16 [label="gini = 0.5\nsamples = 3275\nvalue = [0, 1580, 3, 1692]\nclass = no_plugin", fillcolor="#fcf2fd"] ;
14 -> 16 ;
17 [label="X[1] <= 5917.5\ngini = 0.196\nsamples = 1956\nvalue = [66, 113, 1749, 28]\nclass = datagram", fillcolor="#4fa8e8"] ;
1 -> 17 ;
18 [label="X[8] <= 0.18\ngini = 0.654\nsamples = 194\nvalue = [65, 87, 34, 8]\nclass = monitoring", fillcolor="#e0fbdd"] ;
17 -> 18 ;
19 [label="gini = 0.0\nsamples = 65\nvalue = [65, 0, 0, 0]\nclass = fec", fillcolor="#e58139"] ;
18 -> 19 ;
20 [label="X[7] <= 1098.866\ngini = 0.472\nsamples = 129\nvalue = [0, 87, 34, 8]\nclass = monitoring", fillcolor="#98f091"] ;
18 -> 20 ;
21 [label="gini = 0.465\nsamples = 52\nvalue = [0, 17, 34, 1]\nclass = datagram", fillcolor="#9fcff2"] ;
20 -> 21 ;
22 [label="gini = 0.165\nsamples = 77\nvalue = [0, 70, 0, 7]\nclass = monitoring", fillcolor="#59e84d"] ;
20 -> 22 ;
23 [label="X[0] <= 1.33\ngini = 0.052\nsamples = 1762\nvalue = [1, 26, 1715, 20]\nclass = datagram", fillcolor="#3ea0e6"] ;
17 -> 23 ;
24 [label="X[6] <= 1296.168\ngini = 0.03\nsamples = 1735\nvalue = [1, 11, 1709, 14]\nclass = datagram", fillcolor="#3c9ee5"] ;
23 -> 24 ;
25 [label="gini = 0.017\nsamples = 1720\nvalue = [1, 5, 1705, 9]\nclass = datagram", fillcolor="#3b9ee5"] ;
24 -> 25 ;
26 [label="gini = 0.658\nsamples = 15\nvalue = [0, 6, 4, 5]\nclass = monitoring", fillcolor="#edfceb"] ;
24 -> 26 ;
27 [label="X[4] <= 5593.0\ngini = 0.593\nsamples = 27\nvalue = [0, 15, 6, 6]\nclass = monitoring", fillcolor="#b0f4aa"] ;
23 -> 27 ;
28 [label="gini = 0.42\nsamples = 20\nvalue = [0, 14, 0, 6]\nclass = monitoring", fillcolor="#96f08e"] ;
27 -> 28 ;
29 [label="gini = 0.245\nsamples = 7\nvalue = [0, 1, 6, 0]\nclass = datagram", fillcolor="#5aade9"] ;
27 -> 29 ;
30 [label="gini = 0.0\nsamples = 2333\nvalue = [2333, 0, 0, 0]\nclass = fec", fillcolor="#e58139"] ;
0 -> 30 [labeldistance=2.5, labelangle=-45, headlabel="False"] ;
}
