digraph Tree {
node [shape=box, style="filled, rounded", color="black", fontname="helvetica"] ;
edge [fontname="helvetica"] ;
0 [label="X[8] <= 7.587\ngini = 0.75\nsamples = 9600\nvalue = [2400, 2400, 2400, 2400]\nclass = fec", fillcolor="#ffffff"] ;
1 [label="X[4] <= 4302.0\ngini = 0.672\nsamples = 7259\nvalue = [59, 2400, 2400, 2400]\nclass = monitoring", fillcolor="#ffffff"] ;
0 -> 1 [labeldistance=2.5, labelangle=45, headlabel="True"] ;
2 [label="X[6] <= 1096.181\ngini = 0.603\nsamples = 5344\nvalue = [1, 2290, 679, 2374]\nclass = no_plugin", fillcolor="#fefafe"] ;
1 -> 2 ;
3 [label="X[6] <= 1051.088\ngini = 0.52\nsamples = 1045\nvalue = [1, 160, 674, 210]\nclass = datagram", fillcolor="#91c9f1"] ;
2 -> 3 ;
4 [label="X[3] <= 0.107\ngini = 0.494\nsamples = 364\nvalue = [1, 158, 0, 205]\nclass = no_plugin", fillcolor="#f6d2f9"] ;
3 -> 4 ;
5 [label="X[3] <= 0.107\ngini = 0.312\nsamples = 150\nvalue = [0, 29, 0, 121]\nclass = no_plugin", fillcolor="#e168eb"] ;
4 -> 5 ;
6 [label="X[0] <= 0.211\ngini = 0.134\nsamples = 69\nvalue = [0, 5, 0, 64]\nclass = no_plugin", fillcolor="#da48e7"] ;
5 -> 6 ;
7 [label="gini = 0.0\nsamples = 31\nvalue = [0, 0, 0, 31]\nclass = no_plugin", fillcolor="#d739e5"] ;
6 -> 7 ;
8 [label="X[0] <= 0.212\ngini = 0.229\nsamples = 38\nvalue = [0, 5, 0, 33]\nclass = no_plugin", fillcolor="#dd57e9"] ;
6 -> 8 ;
9 [label="gini = 0.42\nsamples = 10\nvalue = [0, 3, 0, 7]\nclass = no_plugin", fillcolor="#e88ef0"] ;
8 -> 9 ;
10 [label="X[3] <= 0.107\ngini = 0.133\nsamples = 28\nvalue = [0, 2, 0, 26]\nclass = no_plugin", fillcolor="#da48e7"] ;
8 -> 10 ;
11 [label="gini = 0.0\nsamples = 14\nvalue = [0, 0, 0, 14]\nclass = no_plugin", fillcolor="#d739e5"] ;
10 -> 11 ;
12 [label="gini = 0.245\nsamples = 14\nvalue = [0, 2, 0, 12]\nclass = no_plugin", fillcolor="#de5ae9"] ;
10 -> 12 ;
13 [label="X[0] <= 0.213\ngini = 0.417\nsamples = 81\nvalue = [0, 24, 0, 57]\nclass = no_plugin", fillcolor="#e88cf0"] ;
5 -> 13 ;
14 [label="X[0] <= 0.213\ngini = 0.382\nsamples = 70\nvalue = [0, 18, 0, 52]\nclass = no_plugin", fillcolor="#e57eee"] ;
13 -> 14 ;
15 [label="X[0] <= 0.212\ngini = 0.414\nsamples = 58\nvalue = [0, 17, 0, 41]\nclass = no_plugin", fillcolor="#e88bf0"] ;
14 -> 15 ;
16 [label="X[0] <= 0.212\ngini = 0.305\nsamples = 32\nvalue = [0, 6, 0, 26]\nclass = no_plugin", fillcolor="#e067eb"] ;
15 -> 16 ;
17 [label="gini = 0.457\nsamples = 17\nvalue = [0, 6, 0, 11]\nclass = no_plugin", fillcolor="#eda5f3"] ;
16 -> 17 ;
18 [label="gini = 0.0\nsamples = 15\nvalue = [0, 0, 0, 15]\nclass = no_plugin", fillcolor="#d739e5"] ;
16 -> 18 ;
19 [label="X[0] <= 0.213\ngini = 0.488\nsamples = 26\nvalue = [0, 11, 0, 15]\nclass = no_plugin", fillcolor="#f4caf8"] ;
15 -> 19 ;
20 [label="gini = 0.498\nsamples = 15\nvalue = [0, 8, 0, 7]\nclass = monitoring", fillcolor="#e8fce6"] ;
19 -> 20 ;
21 [label="gini = 0.397\nsamples = 11\nvalue = [0, 3, 0, 8]\nclass = no_plugin", fillcolor="#e683ef"] ;
19 -> 21 ;
22 [label="gini = 0.153\nsamples = 12\nvalue = [0, 1, 0, 11]\nclass = no_plugin", fillcolor="#db4be7"] ;
14 -> 22 ;
23 [label="gini = 0.496\nsamples = 11\nvalue = [0, 6, 0, 5]\nclass = monitoring", fillcolor="#e0fbde"] ;
13 -> 23 ;
24 [label="X[3] <= 0.108\ngini = 0.483\nsamples = 214\nvalue = [1, 129, 0, 84]\nclass = monitoring", fillcolor="#bff6ba"] ;
4 -> 24 ;
25 [label="X[0] <= 0.212\ngini = 0.298\nsamples = 110\nvalue = [0, 90, 0, 20]\nclass = monitoring", fillcolor="#70eb65"] ;
24 -> 25 ;
26 [label="gini = 0.48\nsamples = 10\nvalue = [0, 4, 0, 6]\nclass = no_plugin", fillcolor="#f2bdf6"] ;
25 -> 26 ;
27 [label="X[3] <= 0.107\ngini = 0.241\nsamples = 100\nvalue = [0, 86, 0, 14]\nclass = monitoring", fillcolor="#65e959"] ;
25 -> 27 ;
28 [label="X[3] <= 0.107\ngini = 0.381\nsamples = 39\nvalue = [0, 29, 0, 10]\nclass = monitoring", fillcolor="#86ee7d"] ;
27 -> 28 ;
29 [label="X[0] <= 0.214\ngini = 0.285\nsamples = 29\nvalue = [0, 24, 0, 5]\nclass = monitoring", fillcolor="#6dea62"] ;
28 -> 29 ;
30 [label="gini = 0.332\nsamples = 19\nvalue = [0, 15, 0, 4]\nclass = monitoring", fillcolor="#78ec6e"] ;
29 -> 30 ;
31 [label="gini = 0.18\nsamples = 10\nvalue = [0, 9, 0, 1]\nclass = monitoring", fillcolor="#5be84f"] ;
29 -> 31 ;
32 [label="gini = 0.5\nsamples = 10\nvalue = [0, 5, 0, 5]\nclass = monitoring", fillcolor="#ffffff"] ;
28 -> 32 ;
33 [label="X[3] <= 0.107\ngini = 0.123\nsamples = 61\nvalue = [0, 57, 0, 4]\nclass = monitoring", fillcolor="#54e747"] ;
27 -> 33 ;
34 [label="gini = 0.0\nsamples = 23\nvalue = [0, 23, 0, 0]\nclass = monitoring", fillcolor="#47e539"] ;
33 -> 34 ;
35 [label="X[3] <= 0.107\ngini = 0.188\nsamples = 38\nvalue = [0, 34, 0, 4]\nclass = monitoring", fillcolor="#5de850"] ;
33 -> 35 ;
36 [label="gini = 0.42\nsamples = 10\nvalue = [0, 7, 0, 3]\nclass = monitoring", fillcolor="#96f08e"] ;
35 -> 36 ;
37 [label="X[3] <= 0.108\ngini = 0.069\nsamples = 28\nvalue = [0, 27, 0, 1]\nclass = monitoring", fillcolor="#4ee640"] ;
35 -> 37 ;
38 [label="gini = 0.0\nsamples = 18\nvalue = [0, 18, 0, 0]\nclass = monitoring", fillcolor="#47e539"] ;
37 -> 38 ;
39 [label="gini = 0.18\nsamples = 10\nvalue = [0, 9, 0, 1]\nclass = monitoring", fillcolor="#5be84f"] ;
37 -> 39 ;
40 [label="X[3] <= 0.116\ngini = 0.481\nsamples = 104\nvalue = [1, 39, 0, 64]\nclass = no_plugin", fillcolor="#f0b3f5"] ;
24 -> 40 ;
41 [label="X[0] <= 0.22\ngini = 0.496\nsamples = 66\nvalue = [0, 30, 0, 36]\nclass = no_plugin", fillcolor="#f8defb"] ;
40 -> 41 ;
42 [label="X[0] <= 0.215\ngini = 0.5\nsamples = 55\nvalue = [0, 27, 0, 28]\nclass = no_plugin", fillcolor="#fef8fe"] ;
41 -> 42 ;
43 [label="X[3] <= 0.116\ngini = 0.488\nsamples = 38\nvalue = [0, 16, 0, 22]\nclass = no_plugin", fillcolor="#f4c9f8"] ;
42 -> 43 ;
44 [label="gini = 0.401\nsamples = 18\nvalue = [0, 5, 0, 13]\nclass = no_plugin", fillcolor="#e685ef"] ;
43 -> 44 ;
45 [label="X[3] <= 0.116\ngini = 0.495\nsamples = 20\nvalue = [0, 11, 0, 9]\nclass = monitoring", fillcolor="#defadb"] ;
43 -> 45 ;
46 [label="gini = 0.5\nsamples = 10\nvalue = [0, 5, 0, 5]\nclass = monitoring", fillcolor="#ffffff"] ;
45 -> 46 ;
47 [label="gini = 0.48\nsamples = 10\nvalue = [0, 6, 0, 4]\nclass = monitoring", fillcolor="#c2f6bd"] ;
45 -> 47 ;
48 [label="gini = 0.457\nsamples = 17\nvalue = [0, 11, 0, 6]\nclass = monitoring", fillcolor="#abf3a5"] ;
42 -> 48 ;
49 [label="gini = 0.397\nsamples = 11\nvalue = [0, 3, 0, 8]\nclass = no_plugin", fillcolor="#e683ef"] ;
41 -> 49 ;
50 [label="X[0] <= 0.225\ngini = 0.4\nsamples = 38\nvalue = [1, 9, 0, 28]\nclass = no_plugin", fillcolor="#e57dee"] ;
40 -> 50 ;
51 [label="X[3] <= 0.117\ngini = 0.211\nsamples = 25\nvalue = [0, 3, 0, 22]\nclass = no_plugin", fillcolor="#dc54e9"] ;
50 -> 51 ;
52 [label="gini = 0.32\nsamples = 10\nvalue = [0, 2, 0, 8]\nclass = no_plugin", fillcolor="#e16aec"] ;
51 -> 52 ;
53 [label="gini = 0.124\nsamples = 15\nvalue = [0, 1, 0, 14]\nclass = no_plugin", fillcolor="#da47e7"] ;
51 -> 53 ;
54 [label="gini = 0.568\nsamples = 13\nvalue = [1, 6, 0, 6]\nclass = monitoring", fillcolor="#ffffff"] ;
50 -> 54 ;
55 [label="X[3] <= 0.24\ngini = 0.02\nsamples = 681\nvalue = [0, 2, 674, 5]\nclass = datagram", fillcolor="#3b9ee5"] ;
3 -> 55 ;
56 [label="X[3] <= 0.233\ngini = 0.009\nsamples = 671\nvalue = [0, 1, 668, 2]\nclass = datagram", fillcolor="#3a9de5"] ;
55 -> 56 ;
57 [label="X[7] <= 412.071\ngini = 0.006\nsamples = 661\nvalue = [0, 0, 659, 2]\nclass = datagram", fillcolor="#3a9de5"] ;
56 -> 57 ;
58 [label="gini = 0.0\nsamples = 577\nvalue = [0, 0, 577, 0]\nclass = datagram", fillcolor="#399de5"] ;
57 -> 58 ;
59 [label="X[0] <= 0.32\ngini = 0.046\nsamples = 84\nvalue = [0, 0, 82, 2]\nclass = datagram", fillcolor="#3e9fe6"] ;
57 -> 59 ;
60 [label="gini = 0.32\nsamples = 10\nvalue = [0, 0, 8, 2]\nclass = datagram", fillcolor="#6ab6ec"] ;
59 -> 60 ;
61 [label="gini = 0.0\nsamples = 74\nvalue = [0, 0, 74, 0]\nclass = datagram", fillcolor="#399de5"] ;
59 -> 61 ;
62 [label="gini = 0.18\nsamples = 10\nvalue = [0, 1, 9, 0]\nclass = datagram", fillcolor="#4fa8e8"] ;
56 -> 62 ;
63 [label="gini = 0.54\nsamples = 10\nvalue = [0, 1, 6, 3]\nclass = datagram", fillcolor="#aad5f4"] ;
55 -> 63 ;
64 [label="X[8] <= 2.453\ngini = 0.501\nsamples = 4299\nvalue = [0, 2130, 5, 2164]\nclass = no_plugin", fillcolor="#fefcff"] ;
2 -> 64 ;
65 [label="X[3] <= 0.324\ngini = 0.444\nsamples = 711\nvalue = [0, 476, 2, 233]\nclass = monitoring", fillcolor="#a1f29a"] ;
64 -> 65 ;
66 [label="X[0] <= 0.252\ngini = 0.371\nsamples = 396\nvalue = [0, 299, 1, 96]\nclass = monitoring", fillcolor="#82ed79"] ;
65 -> 66 ;
67 [label="gini = 0.124\nsamples = 15\nvalue = [0, 1, 0, 14]\nclass = no_plugin", fillcolor="#da47e7"] ;
66 -> 67 ;
68 [label="X[0] <= 0.322\ngini = 0.342\nsamples = 381\nvalue = [0, 298, 1, 82]\nclass = monitoring", fillcolor="#7aec70"] ;
66 -> 68 ;
69 [label="X[3] <= 0.232\ngini = 0.174\nsamples = 105\nvalue = [0, 95, 1, 9]\nclass = monitoring", fillcolor="#5ae84e"] ;
68 -> 69 ;
70 [label="gini = 0.58\nsamples = 10\nvalue = [0, 4, 1, 5]\nclass = no_plugin", fillcolor="#f8defb"] ;
69 -> 70 ;
71 [label="X[3] <= 0.237\ngini = 0.081\nsamples = 95\nvalue = [0, 91, 0, 4]\nclass = monitoring", fillcolor="#4fe642"] ;
69 -> 71 ;
72 [label="gini = 0.0\nsamples = 46\nvalue = [0, 46, 0, 0]\nclass = monitoring", fillcolor="#47e539"] ;
71 -> 72 ;
73 [label="X[0] <= 0.258\ngini = 0.15\nsamples = 49\nvalue = [0, 45, 0, 4]\nclass = monitoring", fillcolor="#57e74b"] ;
71 -> 73 ;
74 [label="gini = 0.337\nsamples = 14\nvalue = [0, 11, 0, 3]\nclass = monitoring", fillcolor="#79ec6f"] ;
73 -> 74 ;
75 [label="X[3] <= 0.316\ngini = 0.056\nsamples = 35\nvalue = [0, 34, 0, 1]\nclass = monitoring", fillcolor="#4ce63f"] ;
73 -> 75 ;
76 [label="gini = 0.0\nsamples = 25\nvalue = [0, 25, 0, 0]\nclass = monitoring", fillcolor="#47e539"] ;
75 -> 76 ;
77 [label="gini = 0.18\nsamples = 10\nvalue = [0, 9, 0, 1]\nclass = monitoring", fillcolor="#5be84f"] ;
75 -> 77 ;
78 [label="X[3] <= 0.315\ngini = 0.389\nsamples = 276\nvalue = [0, 203, 0, 73]\nclass = monitoring", fillcolor="#89ee80"] ;
68 -> 78 ;
79 [label="X[6] <= 1256.776\ngini = 0.484\nsamples = 51\nvalue = [0, 21, 0, 30]\nclass = no_plugin", fillcolor="#f3c4f7"] ;
78 -> 79 ;
80 [label="X[3] <= 0.24\ngini = 0.469\nsamples = 24\nvalue = [0, 15, 0, 9]\nclass = monitoring", fillcolor="#b5f5b0"] ;
79 -> 80 ;
81 [label="gini = 0.32\nsamples = 10\nvalue = [0, 8, 0, 2]\nclass = monitoring", fillcolor="#75ec6a"] ;
80 -> 81 ;
82 [label="gini = 0.5\nsamples = 14\nvalue = [0, 7, 0, 7]\nclass = monitoring", fillcolor="#ffffff"] ;
80 -> 82 ;
83 [label="X[4] <= 3370.0\ngini = 0.346\nsamples = 27\nvalue = [0, 6, 0, 21]\nclass = no_plugin", fillcolor="#e272ec"] ;
79 -> 83 ;
84 [label="gini = 0.473\nsamples = 13\nvalue = [0, 5, 0, 8]\nclass = no_plugin", fillcolor="#f0b5f5"] ;
83 -> 84 ;
85 [label="gini = 0.133\nsamples = 14\nvalue = [0, 1, 0, 13]\nclass = no_plugin", fillcolor="#da48e7"] ;
83 -> 85 ;
86 [label="X[0] <= 0.333\ngini = 0.309\nsamples = 225\nvalue = [0, 182, 0, 43]\nclass = monitoring", fillcolor="#72eb68"] ;
78 -> 86 ;
87 [label="X[9] <= 20.64\ngini = 0.421\nsamples = 63\nvalue = [0, 44, 0, 19]\nclass = monitoring", fillcolor="#96f08e"] ;
86 -> 87 ;
88 [label="X[3] <= 0.319\ngini = 0.364\nsamples = 46\nvalue = [0, 35, 0, 11]\nclass = monitoring", fillcolor="#81ed77"] ;
87 -> 88 ;
89 [label="gini = 0.469\nsamples = 16\nvalue = [0, 10, 0, 6]\nclass = monitoring", fillcolor="#b5f5b0"] ;
88 -> 89 ;
90 [label="X[0] <= 0.325\ngini = 0.278\nsamples = 30\nvalue = [0, 25, 0, 5]\nclass = monitoring", fillcolor="#6cea61"] ;
88 -> 90 ;
91 [label="gini = 0.463\nsamples = 11\nvalue = [0, 7, 0, 4]\nclass = monitoring", fillcolor="#b0f4aa"] ;
90 -> 91 ;
92 [label="gini = 0.1\nsamples = 19\nvalue = [0, 18, 0, 1]\nclass = monitoring", fillcolor="#51e644"] ;
90 -> 92 ;
93 [label="gini = 0.498\nsamples = 17\nvalue = [0, 9, 0, 8]\nclass = monitoring", fillcolor="#ebfce9"] ;
87 -> 93 ;
94 [label="X[9] <= 20.538\ngini = 0.252\nsamples = 162\nvalue = [0, 138, 0, 24]\nclass = monitoring", fillcolor="#67ea5b"] ;
86 -> 94 ;
95 [label="X[0] <= 0.337\ngini = 0.42\nsamples = 20\nvalue = [0, 14, 0, 6]\nclass = monitoring", fillcolor="#96f08e"] ;
94 -> 95 ;
96 [label="gini = 0.5\nsamples = 10\nvalue = [0, 5, 0, 5]\nclass = monitoring", fillcolor="#ffffff"] ;
95 -> 96 ;
97 [label="gini = 0.18\nsamples = 10\nvalue = [0, 9, 0, 1]\nclass = monitoring", fillcolor="#5be84f"] ;
95 -> 97 ;
98 [label="X[4] <= 3613.0\ngini = 0.221\nsamples = 142\nvalue = [0, 124, 0, 18]\nclass = monitoring", fillcolor="#62e956"] ;
94 -> 98 ;
99 [label="X[3] <= 0.318\ngini = 0.186\nsamples = 125\nvalue = [0, 112, 0, 13]\nclass = monitoring", fillcolor="#5ce850"] ;
98 -> 99 ;
100 [label="X[4] <= 3556.0\ngini = 0.051\nsamples = 38\nvalue = [0, 37, 0, 1]\nclass = monitoring", fillcolor="#4ce63e"] ;
99 -> 100 ;
101 [label="gini = 0.18\nsamples = 10\nvalue = [0, 9, 0, 1]\nclass = monitoring", fillcolor="#5be84f"] ;
100 -> 101 ;
102 [label="gini = 0.0\nsamples = 28\nvalue = [0, 28, 0, 0]\nclass = monitoring", fillcolor="#47e539"] ;
100 -> 102 ;
103 [label="X[0] <= 0.339\ngini = 0.238\nsamples = 87\nvalue = [0, 75, 0, 12]\nclass = monitoring", fillcolor="#64e959"] ;
99 -> 103 ;
104 [label="X[3] <= 0.319\ngini = 0.133\nsamples = 42\nvalue = [0, 39, 0, 3]\nclass = monitoring", fillcolor="#55e748"] ;
103 -> 104 ;
105 [label="gini = 0.32\nsamples = 10\nvalue = [0, 8, 0, 2]\nclass = monitoring", fillcolor="#75ec6a"] ;
104 -> 105 ;
106 [label="X[3] <= 0.322\ngini = 0.061\nsamples = 32\nvalue = [0, 31, 0, 1]\nclass = monitoring", fillcolor="#4de63f"] ;
104 -> 106 ;
107 [label="gini = 0.0\nsamples = 22\nvalue = [0, 22, 0, 0]\nclass = monitoring", fillcolor="#47e539"] ;
106 -> 107 ;
108 [label="gini = 0.18\nsamples = 10\nvalue = [0, 9, 0, 1]\nclass = monitoring", fillcolor="#5be84f"] ;
106 -> 108 ;
109 [label="X[0] <= 0.342\ngini = 0.32\nsamples = 45\nvalue = [0, 36, 0, 9]\nclass = monitoring", fillcolor="#75ec6a"] ;
103 -> 109 ;
110 [label="gini = 0.469\nsamples = 16\nvalue = [0, 10, 0, 6]\nclass = monitoring", fillcolor="#b5f5b0"] ;
109 -> 110 ;
111 [label="X[3] <= 0.321\ngini = 0.185\nsamples = 29\nvalue = [0, 26, 0, 3]\nclass = monitoring", fillcolor="#5ce850"] ;
109 -> 111 ;
112 [label="gini = 0.305\nsamples = 16\nvalue = [0, 13, 0, 3]\nclass = monitoring", fillcolor="#71eb67"] ;
111 -> 112 ;
113 [label="gini = 0.0\nsamples = 13\nvalue = [0, 13, 0, 0]\nclass = monitoring", fillcolor="#47e539"] ;
111 -> 113 ;
114 [label="gini = 0.415\nsamples = 17\nvalue = [0, 12, 0, 5]\nclass = monitoring", fillcolor="#94f08b"] ;
98 -> 114 ;
115 [label="X[0] <= 0.358\ngini = 0.495\nsamples = 315\nvalue = [0, 177, 1, 137]\nclass = monitoring", fillcolor="#d6f9d3"] ;
65 -> 115 ;
116 [label="X[3] <= 0.333\ngini = 0.476\nsamples = 95\nvalue = [0, 37, 0, 58]\nclass = no_plugin", fillcolor="#f1b7f6"] ;
115 -> 116 ;
117 [label="X[0] <= 0.339\ngini = 0.5\nsamples = 71\nvalue = [0, 36, 0, 35]\nclass = monitoring", fillcolor="#fafefa"] ;
116 -> 117 ;
118 [label="X[3] <= 0.328\ngini = 0.444\nsamples = 30\nvalue = [0, 10, 0, 20]\nclass = no_plugin", fillcolor="#eb9cf2"] ;
117 -> 118 ;
119 [label="gini = 0.488\nsamples = 19\nvalue = [0, 8, 0, 11]\nclass = no_plugin", fillcolor="#f4c9f8"] ;
118 -> 119 ;
120 [label="gini = 0.298\nsamples = 11\nvalue = [0, 2, 0, 9]\nclass = no_plugin", fillcolor="#e065eb"] ;
118 -> 120 ;
121 [label="X[3] <= 0.328\ngini = 0.464\nsamples = 41\nvalue = [0, 26, 0, 15]\nclass = monitoring", fillcolor="#b1f4ab"] ;
117 -> 121 ;
122 [label="X[0] <= 0.342\ngini = 0.34\nsamples = 23\nvalue = [0, 18, 0, 5]\nclass = monitoring", fillcolor="#7aec70"] ;
121 -> 122 ;
123 [label="gini = 0.42\nsamples = 10\nvalue = [0, 7, 0, 3]\nclass = monitoring", fillcolor="#96f08e"] ;
122 -> 123 ;
124 [label="gini = 0.26\nsamples = 13\nvalue = [0, 11, 0, 2]\nclass = monitoring", fillcolor="#68ea5d"] ;
122 -> 124 ;
125 [label="gini = 0.494\nsamples = 18\nvalue = [0, 8, 0, 10]\nclass = no_plugin", fillcolor="#f7d7fa"] ;
121 -> 125 ;
126 [label="X[3] <= 0.351\ngini = 0.08\nsamples = 24\nvalue = [0, 1, 0, 23]\nclass = no_plugin", fillcolor="#d942e6"] ;
116 -> 126 ;
127 [label="gini = 0.0\nsamples = 14\nvalue = [0, 0, 0, 14]\nclass = no_plugin", fillcolor="#d739e5"] ;
126 -> 127 ;
128 [label="gini = 0.18\nsamples = 10\nvalue = [0, 1, 0, 9]\nclass = no_plugin", fillcolor="#db4fe8"] ;
126 -> 128 ;
129 [label="X[9] <= 26.158\ngini = 0.466\nsamples = 220\nvalue = [0, 140, 1, 79]\nclass = monitoring", fillcolor="#aff4a9"] ;
115 -> 129 ;
130 [label="X[9] <= 18.131\ngini = 0.504\nsamples = 152\nvalue = [0, 81, 1, 70]\nclass = monitoring", fillcolor="#e6fce4"] ;
129 -> 130 ;
131 [label="gini = 0.34\nsamples = 10\nvalue = [0, 8, 1, 1]\nclass = monitoring", fillcolor="#70eb65"] ;
130 -> 131 ;
132 [label="X[6] <= 1292.267\ngini = 0.5\nsamples = 142\nvalue = [0, 73, 0, 69]\nclass = monitoring", fillcolor="#f5fef4"] ;
130 -> 132 ;
133 [label="X[6] <= 1209.194\ngini = 0.478\nsamples = 48\nvalue = [0, 29, 0, 19]\nclass = monitoring", fillcolor="#c0f6bb"] ;
132 -> 133 ;
134 [label="gini = 0.463\nsamples = 11\nvalue = [0, 4, 0, 7]\nclass = no_plugin", fillcolor="#eeaaf4"] ;
133 -> 134 ;
135 [label="X[3] <= 0.352\ngini = 0.438\nsamples = 37\nvalue = [0, 25, 0, 12]\nclass = monitoring", fillcolor="#9ff198"] ;
133 -> 135 ;
136 [label="gini = 0.48\nsamples = 10\nvalue = [0, 4, 0, 6]\nclass = no_plugin", fillcolor="#f2bdf6"] ;
135 -> 136 ;
137 [label="X[6] <= 1246.51\ngini = 0.346\nsamples = 27\nvalue = [0, 21, 0, 6]\nclass = monitoring", fillcolor="#7cec72"] ;
135 -> 137 ;
138 [label="gini = 0.48\nsamples = 10\nvalue = [0, 6, 0, 4]\nclass = monitoring", fillcolor="#c2f6bd"] ;
137 -> 138 ;
139 [label="gini = 0.208\nsamples = 17\nvalue = [0, 15, 0, 2]\nclass = monitoring", fillcolor="#60e853"] ;
137 -> 139 ;
140 [label="X[4] <= 3567.0\ngini = 0.498\nsamples = 94\nvalue = [0, 44, 0, 50]\nclass = no_plugin", fillcolor="#fae7fc"] ;
132 -> 140 ;
141 [label="X[0] <= 0.443\ngini = 0.375\nsamples = 28\nvalue = [0, 7, 0, 21]\nclass = no_plugin", fillcolor="#e47bee"] ;
140 -> 141 ;
142 [label="gini = 0.496\nsamples = 11\nvalue = [0, 5, 0, 6]\nclass = no_plugin", fillcolor="#f8defb"] ;
141 -> 142 ;
143 [label="gini = 0.208\nsamples = 17\nvalue = [0, 2, 0, 15]\nclass = no_plugin", fillcolor="#dc53e8"] ;
141 -> 143 ;
144 [label="X[7] <= 139.269\ngini = 0.493\nsamples = 66\nvalue = [0, 37, 0, 29]\nclass = monitoring", fillcolor="#d7f9d4"] ;
140 -> 144 ;
145 [label="X[1] <= 88998.5\ngini = 0.499\nsamples = 56\nvalue = [0, 29, 0, 27]\nclass = monitoring", fillcolor="#f2fdf1"] ;
144 -> 145 ;
146 [label="X[9] <= 21.42\ngini = 0.444\nsamples = 21\nvalue = [0, 7, 0, 14]\nclass = no_plugin", fillcolor="#eb9cf2"] ;
145 -> 146 ;
147 [label="gini = 0.496\nsamples = 11\nvalue = [0, 5, 0, 6]\nclass = no_plugin", fillcolor="#f8defb"] ;
146 -> 147 ;
148 [label="gini = 0.32\nsamples = 10\nvalue = [0, 2, 0, 8]\nclass = no_plugin", fillcolor="#e16aec"] ;
146 -> 148 ;
149 [label="X[4] <= 3876.0\ngini = 0.467\nsamples = 35\nvalue = [0, 22, 0, 13]\nclass = monitoring", fillcolor="#b4f4ae"] ;
145 -> 149 ;
150 [label="X[1] <= 89456.0\ngini = 0.375\nsamples = 24\nvalue = [0, 18, 0, 6]\nclass = monitoring", fillcolor="#84ee7b"] ;
149 -> 150 ;
151 [label="gini = 0.153\nsamples = 12\nvalue = [0, 11, 0, 1]\nclass = monitoring", fillcolor="#58e74b"] ;
150 -> 151 ;
152 [label="gini = 0.486\nsamples = 12\nvalue = [0, 7, 0, 5]\nclass = monitoring", fillcolor="#caf8c6"] ;
150 -> 152 ;
153 [label="gini = 0.463\nsamples = 11\nvalue = [0, 4, 0, 7]\nclass = no_plugin", fillcolor="#eeaaf4"] ;
149 -> 153 ;
154 [label="gini = 0.32\nsamples = 10\nvalue = [0, 8, 0, 2]\nclass = monitoring", fillcolor="#75ec6a"] ;
144 -> 154 ;
155 [label="X[3] <= 0.359\ngini = 0.23\nsamples = 68\nvalue = [0, 59, 0, 9]\nclass = monitoring", fillcolor="#63e957"] ;
129 -> 155 ;
156 [label="X[0] <= 0.366\ngini = 0.087\nsamples = 44\nvalue = [0, 42, 0, 2]\nclass = monitoring", fillcolor="#50e642"] ;
155 -> 156 ;
157 [label="gini = 0.0\nsamples = 34\nvalue = [0, 34, 0, 0]\nclass = monitoring", fillcolor="#47e539"] ;
156 -> 157 ;
158 [label="gini = 0.32\nsamples = 10\nvalue = [0, 8, 0, 2]\nclass = monitoring", fillcolor="#75ec6a"] ;
156 -> 158 ;
159 [label="X[0] <= 0.367\ngini = 0.413\nsamples = 24\nvalue = [0, 17, 0, 7]\nclass = monitoring", fillcolor="#93f08b"] ;
155 -> 159 ;
160 [label="gini = 0.5\nsamples = 10\nvalue = [0, 5, 0, 5]\nclass = monitoring", fillcolor="#ffffff"] ;
159 -> 160 ;
161 [label="gini = 0.245\nsamples = 14\nvalue = [0, 12, 0, 2]\nclass = monitoring", fillcolor="#66e95a"] ;
159 -> 161 ;
162 [label="X[3] <= 0.117\ngini = 0.498\nsamples = 3588\nvalue = [0, 1654, 3, 1931]\nclass = no_plugin", fillcolor="#f9e3fb"] ;
64 -> 162 ;
163 [label="X[3] <= 0.115\ngini = 0.404\nsamples = 313\nvalue = [0, 88, 0, 225]\nclass = no_plugin", fillcolor="#e786ef"] ;
162 -> 163 ;
164 [label="X[0] <= 0.214\ngini = 0.443\nsamples = 121\nvalue = [0, 81, 0, 40]\nclass = monitoring", fillcolor="#a2f29b"] ;
163 -> 164 ;
165 [label="X[0] <= 0.212\ngini = 0.293\nsamples = 56\nvalue = [0, 46, 0, 10]\nclass = monitoring", fillcolor="#6feb64"] ;
164 -> 165 ;
166 [label="gini = 0.49\nsamples = 14\nvalue = [0, 6, 0, 8]\nclass = no_plugin", fillcolor="#f5cef8"] ;
165 -> 166 ;
167 [label="X[3] <= 0.107\ngini = 0.091\nsamples = 42\nvalue = [0, 40, 0, 2]\nclass = monitoring", fillcolor="#50e643"] ;
165 -> 167 ;
168 [label="gini = 0.32\nsamples = 10\nvalue = [0, 8, 0, 2]\nclass = monitoring", fillcolor="#75ec6a"] ;
167 -> 168 ;
169 [label="gini = 0.0\nsamples = 32\nvalue = [0, 32, 0, 0]\nclass = monitoring", fillcolor="#47e539"] ;
167 -> 169 ;
170 [label="X[0] <= 0.218\ngini = 0.497\nsamples = 65\nvalue = [0, 35, 0, 30]\nclass = monitoring", fillcolor="#e5fbe3"] ;
164 -> 170 ;
171 [label="X[2] <= 21.5\ngini = 0.293\nsamples = 28\nvalue = [0, 5, 0, 23]\nclass = no_plugin", fillcolor="#e064eb"] ;
170 -> 171 ;
172 [label="gini = 0.496\nsamples = 11\nvalue = [0, 5, 0, 6]\nclass = no_plugin", fillcolor="#f8defb"] ;
171 -> 172 ;
173 [label="gini = 0.0\nsamples = 17\nvalue = [0, 0, 0, 17]\nclass = no_plugin", fillcolor="#d739e5"] ;
171 -> 173 ;
174 [label="X[3] <= 0.113\ngini = 0.307\nsamples = 37\nvalue = [0, 30, 0, 7]\nclass = monitoring", fillcolor="#72eb67"] ;
170 -> 174 ;
175 [label="gini = 0.5\nsamples = 10\nvalue = [0, 5, 0, 5]\nclass = monitoring", fillcolor="#ffffff"] ;
174 -> 175 ;
176 [label="X[3] <= 0.113\ngini = 0.137\nsamples = 27\nvalue = [0, 25, 0, 2]\nclass = monitoring", fillcolor="#56e749"] ;
174 -> 176 ;
177 [label="gini = 0.0\nsamples = 17\nvalue = [0, 17, 0, 0]\nclass = monitoring", fillcolor="#47e539"] ;
176 -> 177 ;
178 [label="gini = 0.32\nsamples = 10\nvalue = [0, 8, 0, 2]\nclass = monitoring", fillcolor="#75ec6a"] ;
176 -> 178 ;
179 [label="X[3] <= 0.117\ngini = 0.07\nsamples = 192\nvalue = [0, 7, 0, 185]\nclass = no_plugin", fillcolor="#d940e6"] ;
163 -> 179 ;
180 [label="X[0] <= 0.222\ngini = 0.023\nsamples = 170\nvalue = [0, 2, 0, 168]\nclass = no_plugin", fillcolor="#d73be5"] ;
179 -> 180 ;
181 [label="gini = 0.0\nsamples = 145\nvalue = [0, 0, 0, 145]\nclass = no_plugin", fillcolor="#d739e5"] ;
180 -> 181 ;
182 [label="X[0] <= 0.225\ngini = 0.147\nsamples = 25\nvalue = [0, 2, 0, 23]\nclass = no_plugin", fillcolor="#da4ae7"] ;
180 -> 182 ;
183 [label="gini = 0.32\nsamples = 10\nvalue = [0, 2, 0, 8]\nclass = no_plugin", fillcolor="#e16aec"] ;
182 -> 183 ;
184 [label="gini = 0.0\nsamples = 15\nvalue = [0, 0, 0, 15]\nclass = no_plugin", fillcolor="#d739e5"] ;
182 -> 184 ;
185 [label="X[9] <= 10.396\ngini = 0.351\nsamples = 22\nvalue = [0, 5, 0, 17]\nclass = no_plugin", fillcolor="#e373ed"] ;
179 -> 185 ;
186 [label="gini = 0.5\nsamples = 10\nvalue = [0, 5, 0, 5]\nclass = monitoring", fillcolor="#ffffff"] ;
185 -> 186 ;
187 [label="gini = 0.0\nsamples = 12\nvalue = [0, 0, 0, 12]\nclass = no_plugin", fillcolor="#d739e5"] ;
185 -> 187 ;
188 [label="X[3] <= 0.119\ngini = 0.5\nsamples = 3275\nvalue = [0, 1566, 3, 1706]\nclass = no_plugin", fillcolor="#fceffd"] ;
162 -> 188 ;
189 [label="X[0] <= 0.223\ngini = 0.191\nsamples = 215\nvalue = [0, 192, 0, 23]\nclass = monitoring", fillcolor="#5de851"] ;
188 -> 189 ;
190 [label="gini = 0.375\nsamples = 12\nvalue = [0, 3, 0, 9]\nclass = no_plugin", fillcolor="#e47bee"] ;
189 -> 190 ;
191 [label="X[9] <= 9.895\ngini = 0.128\nsamples = 203\nvalue = [0, 189, 0, 14]\nclass = monitoring", fillcolor="#55e748"] ;
189 -> 191 ;
192 [label="X[0] <= 0.223\ngini = 0.012\nsamples = 166\nvalue = [0, 165, 0, 1]\nclass = monitoring", fillcolor="#48e53a"] ;
191 -> 192 ;
193 [label="gini = 0.18\nsamples = 10\nvalue = [0, 9, 0, 1]\nclass = monitoring", fillcolor="#5be84f"] ;
192 -> 193 ;
194 [label="gini = 0.0\nsamples = 156\nvalue = [0, 156, 0, 0]\nclass = monitoring", fillcolor="#47e539"] ;
192 -> 194 ;
195 [label="X[3] <= 0.118\ngini = 0.456\nsamples = 37\nvalue = [0, 24, 0, 13]\nclass = monitoring", fillcolor="#abf3a4"] ;
191 -> 195 ;
196 [label="gini = 0.375\nsamples = 12\nvalue = [0, 3, 0, 9]\nclass = no_plugin", fillcolor="#e47bee"] ;
195 -> 196 ;
197 [label="X[3] <= 0.118\ngini = 0.269\nsamples = 25\nvalue = [0, 21, 0, 4]\nclass = monitoring", fillcolor="#6aea5f"] ;
195 -> 197 ;
198 [label="gini = 0.133\nsamples = 14\nvalue = [0, 13, 0, 1]\nclass = monitoring", fillcolor="#55e748"] ;
197 -> 198 ;
199 [label="gini = 0.397\nsamples = 11\nvalue = [0, 8, 0, 3]\nclass = monitoring", fillcolor="#8cef83"] ;
197 -> 199 ;
200 [label="X[3] <= 0.122\ngini = 0.496\nsamples = 3060\nvalue = [0, 1374, 3, 1683]\nclass = no_plugin", fillcolor="#f8dbfa"] ;
188 -> 200 ;
201 [label="X[3] <= 0.12\ngini = 0.286\nsamples = 214\nvalue = [0, 37, 0, 177]\nclass = no_plugin", fillcolor="#df62ea"] ;
200 -> 201 ;
202 [label="X[0] <= 0.225\ngini = 0.491\nsamples = 37\nvalue = [0, 21, 0, 16]\nclass = monitoring", fillcolor="#d3f9d0"] ;
201 -> 202 ;
203 [label="gini = 0.298\nsamples = 11\nvalue = [0, 2, 0, 9]\nclass = no_plugin", fillcolor="#e065eb"] ;
202 -> 203 ;
204 [label="X[6] <= 1177.303\ngini = 0.393\nsamples = 26\nvalue = [0, 19, 0, 7]\nclass = monitoring", fillcolor="#8bef82"] ;
202 -> 204 ;
205 [label="gini = 0.0\nsamples = 11\nvalue = [0, 11, 0, 0]\nclass = monitoring", fillcolor="#47e539"] ;
204 -> 205 ;
206 [label="gini = 0.498\nsamples = 15\nvalue = [0, 8, 0, 7]\nclass = monitoring", fillcolor="#e8fce6"] ;
204 -> 206 ;
207 [label="X[7] <= 328.778\ngini = 0.164\nsamples = 177\nvalue = [0, 16, 0, 161]\nclass = no_plugin", fillcolor="#db4de8"] ;
201 -> 207 ;
208 [label="X[0] <= 0.228\ngini = 0.078\nsamples = 147\nvalue = [0, 6, 0, 141]\nclass = no_plugin", fillcolor="#d941e6"] ;
207 -> 208 ;
209 [label="X[3] <= 0.121\ngini = 0.019\nsamples = 106\nvalue = [0, 1, 0, 105]\nclass = no_plugin", fillcolor="#d73be5"] ;
208 -> 209 ;
210 [label="gini = 0.18\nsamples = 10\nvalue = [0, 1, 0, 9]\nclass = no_plugin", fillcolor="#db4fe8"] ;
209 -> 210 ;
211 [label="gini = 0.0\nsamples = 96\nvalue = [0, 0, 0, 96]\nclass = no_plugin", fillcolor="#d739e5"] ;
209 -> 211 ;
212 [label="X[0] <= 0.23\ngini = 0.214\nsamples = 41\nvalue = [0, 5, 0, 36]\nclass = no_plugin", fillcolor="#dd54e9"] ;
208 -> 212 ;
213 [label="X[3] <= 0.122\ngini = 0.285\nsamples = 29\nvalue = [0, 5, 0, 24]\nclass = no_plugin", fillcolor="#df62ea"] ;
212 -> 213 ;
214 [label="gini = 0.375\nsamples = 12\nvalue = [0, 3, 0, 9]\nclass = no_plugin", fillcolor="#e47bee"] ;
213 -> 214 ;
215 [label="gini = 0.208\nsamples = 17\nvalue = [0, 2, 0, 15]\nclass = no_plugin", fillcolor="#dc53e8"] ;
213 -> 215 ;
216 [label="gini = 0.0\nsamples = 12\nvalue = [0, 0, 0, 12]\nclass = no_plugin", fillcolor="#d739e5"] ;
212 -> 216 ;
217 [label="X[9] <= 9.884\ngini = 0.444\nsamples = 30\nvalue = [0, 10, 0, 20]\nclass = no_plugin", fillcolor="#eb9cf2"] ;
207 -> 217 ;
218 [label="gini = 0.5\nsamples = 12\nvalue = [0, 6, 0, 6]\nclass = monitoring", fillcolor="#ffffff"] ;
217 -> 218 ;
219 [label="gini = 0.346\nsamples = 18\nvalue = [0, 4, 0, 14]\nclass = no_plugin", fillcolor="#e272ec"] ;
217 -> 219 ;
220 [label="X[3] <= 0.124\ngini = 0.499\nsamples = 2846\nvalue = [0, 1337, 3, 1506]\nclass = no_plugin", fillcolor="#fbe9fc"] ;
200 -> 220 ;
221 [label="X[0] <= 0.228\ngini = 0.18\nsamples = 170\nvalue = [0, 153, 0, 17]\nclass = monitoring", fillcolor="#5be84f"] ;
220 -> 221 ;
222 [label="gini = 0.48\nsamples = 10\nvalue = [0, 4, 0, 6]\nclass = no_plugin", fillcolor="#f2bdf6"] ;
221 -> 222 ;
223 [label="X[0] <= 0.233\ngini = 0.128\nsamples = 160\nvalue = [0, 149, 0, 11]\nclass = monitoring", fillcolor="#55e748"] ;
221 -> 223 ;
224 [label="X[3] <= 0.123\ngini = 0.101\nsamples = 150\nvalue = [0, 142, 0, 8]\nclass = monitoring", fillcolor="#51e644"] ;
223 -> 224 ;
225 [label="gini = 0.355\nsamples = 13\nvalue = [0, 10, 0, 3]\nclass = monitoring", fillcolor="#7eed74"] ;
224 -> 225 ;
226 [label="X[0] <= 0.229\ngini = 0.07\nsamples = 137\nvalue = [0, 132, 0, 5]\nclass = monitoring", fillcolor="#4ee640"] ;
224 -> 226 ;
227 [label="gini = 0.266\nsamples = 19\nvalue = [0, 16, 0, 3]\nclass = monitoring", fillcolor="#6aea5e"] ;
226 -> 227 ;
228 [label="X[3] <= 0.123\ngini = 0.033\nsamples = 118\nvalue = [0, 116, 0, 2]\nclass = monitoring", fillcolor="#4ae53c"] ;
226 -> 228 ;
229 [label="gini = 0.0\nsamples = 86\nvalue = [0, 86, 0, 0]\nclass = monitoring", fillcolor="#47e539"] ;
228 -> 229 ;
230 [label="X[0] <= 0.23\ngini = 0.117\nsamples = 32\nvalue = [0, 30, 0, 2]\nclass = monitoring", fillcolor="#53e746"] ;
228 -> 230 ;
231 [label="gini = 0.32\nsamples = 10\nvalue = [0, 8, 0, 2]\nclass = monitoring", fillcolor="#75ec6a"] ;
230 -> 231 ;
232 [label="gini = 0.0\nsamples = 22\nvalue = [0, 22, 0, 0]\nclass = monitoring", fillcolor="#47e539"] ;
230 -> 232 ;
233 [label="gini = 0.42\nsamples = 10\nvalue = [0, 7, 0, 3]\nclass = monitoring", fillcolor="#96f08e"] ;
223 -> 233 ;
234 [label="X[3] <= 0.327\ngini = 0.495\nsamples = 2676\nvalue = [0, 1184, 3, 1489]\nclass = no_plugin", fillcolor="#f7d7fa"] ;
220 -> 234 ;
235 [label="X[9] <= 24.606\ngini = 0.475\nsamples = 1582\nvalue = [0, 607, 3, 972]\nclass = no_plugin", fillcolor="#f0b5f5"] ;
234 -> 235 ;
236 [label="X[0] <= 0.253\ngini = 0.492\nsamples = 1349\nvalue = [0, 577, 3, 769]\nclass = no_plugin", fillcolor="#f5cef9"] ;
235 -> 236 ;
237 [label="X[3] <= 0.142\ngini = 0.327\nsamples = 204\nvalue = [0, 42, 0, 162]\nclass = no_plugin", fillcolor="#e16cec"] ;
236 -> 237 ;
238 [label="X[0] <= 0.23\ngini = 0.5\nsamples = 47\nvalue = [0, 24, 0, 23]\nclass = monitoring", fillcolor="#f7fef7"] ;
237 -> 238 ;
239 [label="gini = 0.298\nsamples = 11\nvalue = [0, 2, 0, 9]\nclass = no_plugin", fillcolor="#e065eb"] ;
238 -> 239 ;
240 [label="X[3] <= 0.125\ngini = 0.475\nsamples = 36\nvalue = [0, 22, 0, 14]\nclass = monitoring", fillcolor="#bcf6b7"] ;
238 -> 240 ;
241 [label="gini = 0.165\nsamples = 11\nvalue = [0, 10, 0, 1]\nclass = monitoring", fillcolor="#59e84d"] ;
240 -> 241 ;
242 [label="X[0] <= 0.234\ngini = 0.499\nsamples = 25\nvalue = [0, 12, 0, 13]\nclass = no_plugin", fillcolor="#fcf0fd"] ;
240 -> 242 ;
243 [label="gini = 0.298\nsamples = 11\nvalue = [0, 2, 0, 9]\nclass = no_plugin", fillcolor="#e065eb"] ;
242 -> 243 ;
244 [label="gini = 0.408\nsamples = 14\nvalue = [0, 10, 0, 4]\nclass = monitoring", fillcolor="#91ef88"] ;
242 -> 244 ;
245 [label="X[0] <= 0.251\ngini = 0.203\nsamples = 157\nvalue = [0, 18, 0, 139]\nclass = no_plugin", fillcolor="#dc53e8"] ;
237 -> 245 ;
246 [label="X[0] <= 0.249\ngini = 0.087\nsamples = 110\nvalue = [0, 5, 0, 105]\nclass = no_plugin", fillcolor="#d942e6"] ;
245 -> 246 ;
247 [label="gini = 0.355\nsamples = 13\nvalue = [0, 3, 0, 10]\nclass = no_plugin", fillcolor="#e374ed"] ;
246 -> 247 ;
248 [label="X[3] <= 0.235\ngini = 0.04\nsamples = 97\nvalue = [0, 2, 0, 95]\nclass = no_plugin", fillcolor="#d83de6"] ;
246 -> 248 ;
249 [label="gini = 0.153\nsamples = 12\nvalue = [0, 1, 0, 11]\nclass = no_plugin", fillcolor="#db4be7"] ;
248 -> 249 ;
250 [label="gini = 0.023\nsamples = 85\nvalue = [0, 1, 0, 84]\nclass = no_plugin", fillcolor="#d73be5"] ;
248 -> 250 ;
251 [label="X[3] <= 0.239\ngini = 0.4\nsamples = 47\nvalue = [0, 13, 0, 34]\nclass = no_plugin", fillcolor="#e685ef"] ;
245 -> 251 ;
252 [label="gini = 0.475\nsamples = 18\nvalue = [0, 11, 0, 7]\nclass = monitoring", fillcolor="#bcf6b7"] ;
251 -> 252 ;
253 [label="X[3] <= 0.242\ngini = 0.128\nsamples = 29\nvalue = [0, 2, 0, 27]\nclass = no_plugin", fillcolor="#da48e7"] ;
251 -> 253 ;
254 [label="gini = 0.0\nsamples = 19\nvalue = [0, 0, 0, 19]\nclass = no_plugin", fillcolor="#d739e5"] ;
253 -> 254 ;
255 [label="gini = 0.32\nsamples = 10\nvalue = [0, 2, 0, 8]\nclass = no_plugin", fillcolor="#e16aec"] ;
253 -> 255 ;
256 [label="X[0] <= 0.322\ngini = 0.501\nsamples = 1145\nvalue = [0, 535, 3, 607]\nclass = no_plugin", fillcolor="#fae8fc"] ;
236 -> 256 ;
257 [label="X[1] <= 46804.0\ngini = 0.462\nsamples = 283\nvalue = [0, 182, 1, 100]\nclass = monitoring", fillcolor="#adf3a6"] ;
256 -> 257 ;
258 [label="X[0] <= 0.283\ngini = 0.495\nsamples = 228\nvalue = [0, 129, 1, 98]\nclass = monitoring", fillcolor="#d3f9d0"] ;
257 -> 258 ;
259 [label="X[3] <= 0.238\ngini = 0.478\nsamples = 208\nvalue = [0, 126, 0, 82]\nclass = monitoring", fillcolor="#bff6ba"] ;
258 -> 259 ;
260 [label="gini = 0.335\nsamples = 61\nvalue = [0, 48, 0, 13]\nclass = monitoring", fillcolor="#79ec6f"] ;
259 -> 260 ;
261 [label="gini = 0.498\nsamples = 147\nvalue = [0, 78, 0, 69]\nclass = monitoring", fillcolor="#eafce8"] ;
259 -> 261 ;
262 [label="X[4] <= 2979.0\ngini = 0.335\nsamples = 20\nvalue = [0, 3, 1, 16]\nclass = no_plugin", fillcolor="#e068eb"] ;
258 -> 262 ;
263 [label="gini = 0.46\nsamples = 10\nvalue = [0, 2, 1, 7]\nclass = no_plugin", fillcolor="#e683ef"] ;
262 -> 263 ;
264 [label="gini = 0.18\nsamples = 10\nvalue = [0, 1, 0, 9]\nclass = no_plugin", fillcolor="#db4fe8"] ;
262 -> 264 ;
265 [label="X[0] <= 0.321\ngini = 0.07\nsamples = 55\nvalue = [0, 53, 0, 2]\nclass = monitoring", fillcolor="#4ee640"] ;
257 -> 265 ;
266 [label="gini = 0.0\nsamples = 43\nvalue = [0, 43, 0, 0]\nclass = monitoring", fillcolor="#47e539"] ;
265 -> 266 ;
267 [label="gini = 0.278\nsamples = 12\nvalue = [0, 10, 0, 2]\nclass = monitoring", fillcolor="#6cea61"] ;
265 -> 267 ;
268 [label="X[0] <= 0.332\ngini = 0.486\nsamples = 862\nvalue = [0, 353, 2, 507]\nclass = no_plugin", fillcolor="#f3c3f7"] ;
256 -> 268 ;
269 [label="X[3] <= 0.242\ngini = 0.376\nsamples = 346\nvalue = [0, 84, 2, 260]\nclass = no_plugin", fillcolor="#e47aee"] ;
268 -> 269 ;
270 [label="X[0] <= 0.328\ngini = 0.499\nsamples = 67\nvalue = [0, 39, 1, 27]\nclass = monitoring", fillcolor="#c8f7c4"] ;
269 -> 270 ;
271 [label="gini = 0.467\nsamples = 57\nvalue = [0, 37, 1, 19]\nclass = monitoring", fillcolor="#a8f3a1"] ;
270 -> 271 ;
272 [label="gini = 0.32\nsamples = 10\nvalue = [0, 2, 0, 8]\nclass = no_plugin", fillcolor="#e16aec"] ;
270 -> 272 ;
273 [label="X[4] <= 3312.0\ngini = 0.277\nsamples = 279\nvalue = [0, 45, 1, 233]\nclass = no_plugin", fillcolor="#df60ea"] ;
269 -> 273 ;
274 [label="gini = 0.524\nsamples = 34\nvalue = [0, 15, 1, 18]\nclass = no_plugin", fillcolor="#f9e0fb"] ;
273 -> 274 ;
275 [label="gini = 0.215\nsamples = 245\nvalue = [0, 30, 0, 215]\nclass = no_plugin", fillcolor="#dd55e9"] ;
273 -> 275 ;
276 [label="X[3] <= 0.249\ngini = 0.499\nsamples = 516\nvalue = [0, 269, 0, 247]\nclass = monitoring", fillcolor="#f0fdef"] ;
268 -> 276 ;
277 [label="X[3] <= 0.24\ngini = 0.471\nsamples = 192\nvalue = [0, 73, 0, 119]\nclass = no_plugin", fillcolor="#f0b2f5"] ;
276 -> 277 ;
278 [label="gini = 0.475\nsamples = 18\nvalue = [0, 11, 0, 7]\nclass = monitoring", fillcolor="#bcf6b7"] ;
277 -> 278 ;
279 [label="gini = 0.459\nsamples = 174\nvalue = [0, 62, 0, 112]\nclass = no_plugin", fillcolor="#eda7f3"] ;
277 -> 279 ;
280 [label="X[9] <= 22.489\ngini = 0.478\nsamples = 324\nvalue = [0, 196, 0, 128]\nclass = monitoring", fillcolor="#bff6ba"] ;
276 -> 280 ;
281 [label="gini = 0.375\nsamples = 192\nvalue = [0, 144, 0, 48]\nclass = monitoring", fillcolor="#84ee7b"] ;
280 -> 281 ;
282 [label="gini = 0.478\nsamples = 132\nvalue = [0, 52, 0, 80]\nclass = no_plugin", fillcolor="#f1baf6"] ;
280 -> 282 ;
283 [label="X[0] <= 0.351\ngini = 0.224\nsamples = 233\nvalue = [0, 30, 0, 203]\nclass = no_plugin", fillcolor="#dd56e9"] ;
235 -> 283 ;
284 [label="gini = 0.0\nsamples = 109\nvalue = [0, 0, 0, 109]\nclass = no_plugin", fillcolor="#d739e5"] ;
283 -> 284 ;
285 [label="X[9] <= 25.92\ngini = 0.367\nsamples = 124\nvalue = [0, 30, 0, 94]\nclass = no_plugin", fillcolor="#e478ed"] ;
283 -> 285 ;
286 [label="X[0] <= 0.352\ngini = 0.211\nsamples = 25\nvalue = [0, 22, 0, 3]\nclass = monitoring", fillcolor="#60e954"] ;
285 -> 286 ;
287 [label="gini = 0.0\nsamples = 10\nvalue = [0, 10, 0, 0]\nclass = monitoring", fillcolor="#47e539"] ;
286 -> 287 ;
288 [label="gini = 0.32\nsamples = 15\nvalue = [0, 12, 0, 3]\nclass = monitoring", fillcolor="#75ec6a"] ;
286 -> 288 ;
289 [label="X[0] <= 0.366\ngini = 0.149\nsamples = 99\nvalue = [0, 8, 0, 91]\nclass = no_plugin", fillcolor="#db4ae7"] ;
285 -> 289 ;
290 [label="X[0] <= 0.359\ngini = 0.044\nsamples = 88\nvalue = [0, 2, 0, 86]\nclass = no_plugin", fillcolor="#d83ee6"] ;
289 -> 290 ;
291 [label="gini = 0.0\nsamples = 78\nvalue = [0, 0, 0, 78]\nclass = no_plugin", fillcolor="#d739e5"] ;
290 -> 291 ;
292 [label="gini = 0.32\nsamples = 10\nvalue = [0, 2, 0, 8]\nclass = no_plugin", fillcolor="#e16aec"] ;
290 -> 292 ;
293 [label="gini = 0.496\nsamples = 11\nvalue = [0, 6, 0, 5]\nclass = monitoring", fillcolor="#e0fbde"] ;
289 -> 293 ;
294 [label="X[0] <= 0.352\ngini = 0.498\nsamples = 1094\nvalue = [0, 577, 0, 517]\nclass = monitoring", fillcolor="#ecfcea"] ;
234 -> 294 ;
295 [label="X[7] <= 151.348\ngini = 0.492\nsamples = 596\nvalue = [0, 260, 0, 336]\nclass = no_plugin", fillcolor="#f6d2f9"] ;
294 -> 295 ;
296 [label="X[6] <= 1277.992\ngini = 0.478\nsamples = 542\nvalue = [0, 214, 0, 328]\nclass = no_plugin", fillcolor="#f1baf6"] ;
295 -> 296 ;
297 [label="X[0] <= 0.344\ngini = 0.4\nsamples = 58\nvalue = [0, 42, 0, 16]\nclass = monitoring", fillcolor="#8def84"] ;
296 -> 297 ;
298 [label="X[0] <= 0.341\ngini = 0.25\nsamples = 41\nvalue = [0, 35, 0, 6]\nclass = monitoring", fillcolor="#67e95b"] ;
297 -> 298 ;
299 [label="gini = 0.401\nsamples = 18\nvalue = [0, 13, 0, 5]\nclass = monitoring", fillcolor="#8eef85"] ;
298 -> 299 ;
300 [label="X[3] <= 0.328\ngini = 0.083\nsamples = 23\nvalue = [0, 22, 0, 1]\nclass = monitoring", fillcolor="#4fe642"] ;
298 -> 300 ;
301 [label="gini = 0.18\nsamples = 10\nvalue = [0, 9, 0, 1]\nclass = monitoring", fillcolor="#5be84f"] ;
300 -> 301 ;
302 [label="gini = 0.0\nsamples = 13\nvalue = [0, 13, 0, 0]\nclass = monitoring", fillcolor="#47e539"] ;
300 -> 302 ;
303 [label="gini = 0.484\nsamples = 17\nvalue = [0, 7, 0, 10]\nclass = no_plugin", fillcolor="#f3c4f7"] ;
297 -> 303 ;
304 [label="X[1] <= 84041.5\ngini = 0.458\nsamples = 484\nvalue = [0, 172, 0, 312]\nclass = no_plugin", fillcolor="#eda6f3"] ;
296 -> 304 ;
305 [label="X[3] <= 0.328\ngini = 0.476\nsamples = 425\nvalue = [0, 166, 0, 259]\nclass = no_plugin", fillcolor="#f1b8f6"] ;
304 -> 305 ;
306 [label="X[7] <= 146.583\ngini = 0.375\nsamples = 28\nvalue = [0, 21, 0, 7]\nclass = monitoring", fillcolor="#84ee7b"] ;
305 -> 306 ;
307 [label="gini = 0.496\nsamples = 11\nvalue = [0, 5, 0, 6]\nclass = no_plugin", fillcolor="#f8defb"] ;
306 -> 307 ;
308 [label="gini = 0.111\nsamples = 17\nvalue = [0, 16, 0, 1]\nclass = monitoring", fillcolor="#52e745"] ;
306 -> 308 ;
309 [label="X[0] <= 0.338\ngini = 0.464\nsamples = 397\nvalue = [0, 145, 0, 252]\nclass = no_plugin", fillcolor="#eeabf4"] ;
305 -> 309 ;
310 [label="gini = 0.346\nsamples = 90\nvalue = [0, 20, 0, 70]\nclass = no_plugin", fillcolor="#e272ec"] ;
309 -> 310 ;
311 [label="gini = 0.483\nsamples = 307\nvalue = [0, 125, 0, 182]\nclass = no_plugin", fillcolor="#f2c1f7"] ;
309 -> 311 ;
312 [label="X[0] <= 0.349\ngini = 0.183\nsamples = 59\nvalue = [0, 6, 0, 53]\nclass = no_plugin", fillcolor="#dc4fe8"] ;
304 -> 312 ;
313 [label="gini = 0.0\nsamples = 35\nvalue = [0, 0, 0, 35]\nclass = no_plugin", fillcolor="#d739e5"] ;
312 -> 313 ;
314 [label="X[3] <= 0.328\ngini = 0.375\nsamples = 24\nvalue = [0, 6, 0, 18]\nclass = no_plugin", fillcolor="#e47bee"] ;
312 -> 314 ;
315 [label="gini = 0.48\nsamples = 10\nvalue = [0, 4, 0, 6]\nclass = no_plugin", fillcolor="#f2bdf6"] ;
314 -> 315 ;
316 [label="gini = 0.245\nsamples = 14\nvalue = [0, 2, 0, 12]\nclass = no_plugin", fillcolor="#de5ae9"] ;
314 -> 316 ;
317 [label="X[0] <= 0.34\ngini = 0.252\nsamples = 54\nvalue = [0, 46, 0, 8]\nclass = monitoring", fillcolor="#67ea5b"] ;
295 -> 317 ;
318 [label="X[3] <= 0.332\ngini = 0.117\nsamples = 32\nvalue = [0, 30, 0, 2]\nclass = monitoring", fillcolor="#53e746"] ;
317 -> 318 ;
319 [label="gini = 0.188\nsamples = 19\nvalue = [0, 17, 0, 2]\nclass = monitoring", fillcolor="#5de850"] ;
318 -> 319 ;
320 [label="gini = 0.0\nsamples = 13\nvalue = [0, 13, 0, 0]\nclass = monitoring", fillcolor="#47e539"] ;
318 -> 320 ;
321 [label="X[9] <= 21.823\ngini = 0.397\nsamples = 22\nvalue = [0, 16, 0, 6]\nclass = monitoring", fillcolor="#8cef83"] ;
317 -> 321 ;
322 [label="gini = 0.496\nsamples = 11\nvalue = [0, 6, 0, 5]\nclass = monitoring", fillcolor="#e0fbde"] ;
321 -> 322 ;
323 [label="gini = 0.165\nsamples = 11\nvalue = [0, 10, 0, 1]\nclass = monitoring", fillcolor="#59e84d"] ;
321 -> 323 ;
324 [label="X[0] <= 0.355\ngini = 0.463\nsamples = 498\nvalue = [0, 317, 0, 181]\nclass = monitoring", fillcolor="#b0f4aa"] ;
294 -> 324 ;
325 [label="X[9] <= 25.269\ngini = 0.219\nsamples = 112\nvalue = [0, 98, 0, 14]\nclass = monitoring", fillcolor="#61e955"] ;
324 -> 325 ;
326 [label="X[0] <= 0.352\ngini = 0.145\nsamples = 102\nvalue = [0, 94, 0, 8]\nclass = monitoring", fillcolor="#57e74a"] ;
325 -> 326 ;
327 [label="gini = 0.305\nsamples = 16\nvalue = [0, 13, 0, 3]\nclass = monitoring", fillcolor="#71eb67"] ;
326 -> 327 ;
328 [label="X[3] <= 0.332\ngini = 0.11\nsamples = 86\nvalue = [0, 81, 0, 5]\nclass = monitoring", fillcolor="#52e745"] ;
326 -> 328 ;
329 [label="X[3] <= 0.332\ngini = 0.18\nsamples = 40\nvalue = [0, 36, 0, 4]\nclass = monitoring", fillcolor="#5be84f"] ;
328 -> 329 ;
330 [label="gini = 0.071\nsamples = 27\nvalue = [0, 26, 0, 1]\nclass = monitoring", fillcolor="#4ee641"] ;
329 -> 330 ;
331 [label="gini = 0.355\nsamples = 13\nvalue = [0, 10, 0, 3]\nclass = monitoring", fillcolor="#7eed74"] ;
329 -> 331 ;
332 [label="X[3] <= 0.335\ngini = 0.043\nsamples = 46\nvalue = [0, 45, 0, 1]\nclass = monitoring", fillcolor="#4be63d"] ;
328 -> 332 ;
333 [label="gini = 0.0\nsamples = 25\nvalue = [0, 25, 0, 0]\nclass = monitoring", fillcolor="#47e539"] ;
332 -> 333 ;
334 [label="gini = 0.091\nsamples = 21\nvalue = [0, 20, 0, 1]\nclass = monitoring", fillcolor="#50e643"] ;
332 -> 334 ;
335 [label="gini = 0.48\nsamples = 10\nvalue = [0, 4, 0, 6]\nclass = no_plugin", fillcolor="#f2bdf6"] ;
325 -> 335 ;
336 [label="X[0] <= 0.422\ngini = 0.491\nsamples = 386\nvalue = [0, 219, 0, 167]\nclass = monitoring", fillcolor="#d3f9d0"] ;
324 -> 336 ;
337 [label="X[3] <= 0.332\ngini = 0.475\nsamples = 325\nvalue = [0, 199, 0, 126]\nclass = monitoring", fillcolor="#bcf5b6"] ;
336 -> 337 ;
338 [label="X[3] <= 0.33\ngini = 0.476\nsamples = 92\nvalue = [0, 36, 0, 56]\nclass = no_plugin", fillcolor="#f1b8f6"] ;
337 -> 338 ;
339 [label="X[9] <= 26.819\ngini = 0.411\nsamples = 38\nvalue = [0, 27, 0, 11]\nclass = monitoring", fillcolor="#92f08a"] ;
338 -> 339 ;
340 [label="gini = 0.208\nsamples = 17\nvalue = [0, 15, 0, 2]\nclass = monitoring", fillcolor="#60e853"] ;
339 -> 340 ;
341 [label="gini = 0.49\nsamples = 21\nvalue = [0, 12, 0, 9]\nclass = monitoring", fillcolor="#d1f8ce"] ;
339 -> 341 ;
342 [label="X[3] <= 0.331\ngini = 0.278\nsamples = 54\nvalue = [0, 9, 0, 45]\nclass = no_plugin", fillcolor="#df61ea"] ;
338 -> 342 ;
343 [label="gini = 0.0\nsamples = 28\nvalue = [0, 0, 0, 28]\nclass = no_plugin", fillcolor="#d739e5"] ;
342 -> 343 ;
344 [label="gini = 0.453\nsamples = 26\nvalue = [0, 9, 0, 17]\nclass = no_plugin", fillcolor="#eca2f3"] ;
342 -> 344 ;
345 [label="X[6] <= 1313.317\ngini = 0.42\nsamples = 233\nvalue = [0, 163, 0, 70]\nclass = monitoring", fillcolor="#96f08e"] ;
337 -> 345 ;
346 [label="X[4] <= 3538.5\ngini = 0.482\nsamples = 32\nvalue = [0, 13, 0, 19]\nclass = no_plugin", fillcolor="#f2c0f7"] ;
345 -> 346 ;
347 [label="gini = 0.291\nsamples = 17\nvalue = [0, 3, 0, 14]\nclass = no_plugin", fillcolor="#e063eb"] ;
346 -> 347 ;
348 [label="gini = 0.444\nsamples = 15\nvalue = [0, 10, 0, 5]\nclass = monitoring", fillcolor="#a3f29c"] ;
346 -> 348 ;
349 [label="X[6] <= 1331.091\ngini = 0.379\nsamples = 201\nvalue = [0, 150, 0, 51]\nclass = monitoring", fillcolor="#86ee7c"] ;
345 -> 349 ;
350 [label="gini = 0.225\nsamples = 62\nvalue = [0, 54, 0, 8]\nclass = monitoring", fillcolor="#62e956"] ;
349 -> 350 ;
351 [label="gini = 0.427\nsamples = 139\nvalue = [0, 96, 0, 43]\nclass = monitoring", fillcolor="#99f192"] ;
349 -> 351 ;
352 [label="X[9] <= 21.545\ngini = 0.441\nsamples = 61\nvalue = [0, 20, 0, 41]\nclass = no_plugin", fillcolor="#eb9af2"] ;
336 -> 352 ;
353 [label="gini = 0.469\nsamples = 16\nvalue = [0, 10, 0, 6]\nclass = monitoring", fillcolor="#b5f5b0"] ;
352 -> 353 ;
354 [label="X[0] <= 0.465\ngini = 0.346\nsamples = 45\nvalue = [0, 10, 0, 35]\nclass = no_plugin", fillcolor="#e272ec"] ;
352 -> 354 ;
355 [label="X[4] <= 3533.0\ngini = 0.18\nsamples = 30\nvalue = [0, 3, 0, 27]\nclass = no_plugin", fillcolor="#db4fe8"] ;
354 -> 355 ;
356 [label="gini = 0.0\nsamples = 11\nvalue = [0, 0, 0, 11]\nclass = no_plugin", fillcolor="#d739e5"] ;
355 -> 356 ;
357 [label="gini = 0.266\nsamples = 19\nvalue = [0, 3, 0, 16]\nclass = no_plugin", fillcolor="#de5eea"] ;
355 -> 357 ;
358 [label="gini = 0.498\nsamples = 15\nvalue = [0, 7, 0, 8]\nclass = no_plugin", fillcolor="#fae6fc"] ;
354 -> 358 ;
359 [label="X[1] <= 5936.0\ngini = 0.188\nsamples = 1915\nvalue = [58, 110, 1721, 26]\nclass = datagram", fillcolor="#4ea8e8"] ;
1 -> 359 ;
360 [label="X[7] <= 401.514\ngini = 0.643\nsamples = 181\nvalue = [57, 87, 28, 9]\nclass = monitoring", fillcolor="#d2f9cf"] ;
359 -> 360 ;
361 [label="gini = 0.0\nsamples = 57\nvalue = [57, 0, 0, 0]\nclass = fec", fillcolor="#e58139"] ;
360 -> 361 ;
362 [label="X[7] <= 1098.866\ngini = 0.451\nsamples = 124\nvalue = [0, 87, 28, 9]\nclass = monitoring", fillcolor="#8eef85"] ;
360 -> 362 ;
363 [label="X[7] <= 1050.55\ngini = 0.512\nsamples = 45\nvalue = [0, 14, 28, 3]\nclass = datagram", fillcolor="#a6d3f3"] ;
362 -> 363 ;
364 [label="gini = 0.364\nsamples = 18\nvalue = [0, 14, 1, 3]\nclass = monitoring", fillcolor="#78ec6e"] ;
363 -> 364 ;
365 [label="gini = 0.0\nsamples = 27\nvalue = [0, 0, 27, 0]\nclass = datagram", fillcolor="#399de5"] ;
363 -> 365 ;
366 [label="X[8] <= 0.389\ngini = 0.14\nsamples = 79\nvalue = [0, 73, 0, 6]\nclass = monitoring", fillcolor="#56e749"] ;
362 -> 366 ;
367 [label="X[8] <= 0.383\ngini = 0.284\nsamples = 35\nvalue = [0, 29, 0, 6]\nclass = monitoring", fillcolor="#6dea62"] ;
366 -> 367 ;
368 [label="X[0] <= 0.24\ngini = 0.159\nsamples = 23\nvalue = [0, 21, 0, 2]\nclass = monitoring", fillcolor="#59e74c"] ;
367 -> 368 ;
369 [label="gini = 0.0\nsamples = 11\nvalue = [0, 11, 0, 0]\nclass = monitoring", fillcolor="#47e539"] ;
368 -> 369 ;
370 [label="gini = 0.278\nsamples = 12\nvalue = [0, 10, 0, 2]\nclass = monitoring", fillcolor="#6cea61"] ;
368 -> 370 ;
371 [label="gini = 0.444\nsamples = 12\nvalue = [0, 8, 0, 4]\nclass = monitoring", fillcolor="#a3f29c"] ;
367 -> 371 ;
372 [label="gini = 0.0\nsamples = 44\nvalue = [0, 44, 0, 0]\nclass = monitoring", fillcolor="#47e539"] ;
366 -> 372 ;
373 [label="X[0] <= 1.326\ngini = 0.046\nsamples = 1734\nvalue = [1, 23, 1693, 17]\nclass = datagram", fillcolor="#3e9fe6"] ;
359 -> 373 ;
374 [label="X[6] <= 1302.859\ngini = 0.026\nsamples = 1709\nvalue = [1, 9, 1687, 12]\nclass = datagram", fillcolor="#3c9ee5"] ;
373 -> 374 ;
375 [label="X[0] <= 0.357\ngini = 0.018\nsamples = 1698\nvalue = [1, 6, 1683, 8]\nclass = datagram", fillcolor="#3b9ee5"] ;
374 -> 375 ;
376 [label="gini = 0.58\nsamples = 10\nvalue = [0, 1, 4, 5]\nclass = no_plugin", fillcolor="#f8defb"] ;
375 -> 376 ;
377 [label="X[4] <= 4493.5\ngini = 0.011\nsamples = 1688\nvalue = [1, 5, 1679, 3]\nclass = datagram", fillcolor="#3a9ee5"] ;
375 -> 377 ;
378 [label="X[6] <= 1103.068\ngini = 0.327\nsamples = 21\nvalue = [0, 2, 17, 2]\nclass = datagram", fillcolor="#63b2ea"] ;
377 -> 378 ;
379 [label="gini = 0.0\nsamples = 11\nvalue = [0, 0, 11, 0]\nclass = datagram", fillcolor="#399de5"] ;
378 -> 379 ;
380 [label="gini = 0.56\nsamples = 10\nvalue = [0, 2, 6, 2]\nclass = datagram", fillcolor="#9ccef2"] ;
378 -> 380 ;
381 [label="X[9] <= 0.074\ngini = 0.006\nsamples = 1667\nvalue = [1, 3, 1662, 1]\nclass = datagram", fillcolor="#3a9de5"] ;
377 -> 381 ;
382 [label="gini = 0.18\nsamples = 10\nvalue = [1, 0, 9, 0]\nclass = datagram", fillcolor="#4fa8e8"] ;
381 -> 382 ;
383 [label="X[0] <= 0.358\ngini = 0.005\nsamples = 1657\nvalue = [0, 3, 1653, 1]\nclass = datagram", fillcolor="#399de5"] ;
381 -> 383 ;
384 [label="gini = 0.142\nsamples = 13\nvalue = [0, 1, 12, 0]\nclass = datagram", fillcolor="#49a5e7"] ;
383 -> 384 ;
385 [label="X[8] <= 2.121\ngini = 0.004\nsamples = 1644\nvalue = [0, 2, 1641, 1]\nclass = datagram", fillcolor="#399de5"] ;
383 -> 385 ;
386 [label="gini = 0.0\nsamples = 1334\nvalue = [0, 0, 1334, 0]\nclass = datagram", fillcolor="#399de5"] ;
385 -> 386 ;
387 [label="X[6] <= 1252.339\ngini = 0.019\nsamples = 310\nvalue = [0, 2, 307, 1]\nclass = datagram", fillcolor="#3b9ee5"] ;
385 -> 387 ;
388 [label="gini = 0.0\nsamples = 280\nvalue = [0, 0, 280, 0]\nclass = datagram", fillcolor="#399de5"] ;
387 -> 388 ;
389 [label="X[0] <= 0.616\ngini = 0.184\nsamples = 30\nvalue = [0, 2, 27, 1]\nclass = datagram", fillcolor="#4ea8e8"] ;
387 -> 389 ;
390 [label="gini = 0.46\nsamples = 10\nvalue = [0, 2, 7, 1]\nclass = datagram", fillcolor="#83c2ef"] ;
389 -> 390 ;
391 [label="gini = 0.0\nsamples = 20\nvalue = [0, 0, 20, 0]\nclass = datagram", fillcolor="#399de5"] ;
389 -> 391 ;
392 [label="gini = 0.661\nsamples = 11\nvalue = [0, 3, 4, 4]\nclass = datagram", fillcolor="#ffffff"] ;
374 -> 392 ;
393 [label="X[4] <= 5341.0\ngini = 0.589\nsamples = 25\nvalue = [0, 14, 6, 5]\nclass = monitoring", fillcolor="#b2f4ac"] ;
373 -> 393 ;
394 [label="gini = 0.391\nsamples = 15\nvalue = [0, 11, 0, 4]\nclass = monitoring", fillcolor="#8aee81"] ;
393 -> 394 ;
395 [label="gini = 0.54\nsamples = 10\nvalue = [0, 3, 6, 1]\nclass = datagram", fillcolor="#aad5f4"] ;
393 -> 395 ;
396 [label="gini = 0.0\nsamples = 2341\nvalue = [2341, 0, 0, 0]\nclass = fec", fillcolor="#e58139"] ;
0 -> 396 [labeldistance=2.5, labelangle=-45, headlabel="False"] ;
}
