digraph Tree {
node [shape=box, style="filled, rounded", color="black", fontname="helvetica"] ;
edge [fontname="helvetica"] ;
0 [label="average_s_bytes <= 779.738\ngini = 0.75\nsamples = 9600\nvalue = [2400, 2400, 2400, 2400]\nclass = fec", fillcolor="#ffffff"] ;
1 [label="c_durat <= 32.775\ngini = 0.001\nsamples = 2397\nvalue = [2396, 0, 1, 0]\nclass = fec", fillcolor="#e58139"] ;
0 -> 1 [labeldistance=2.5, labelangle=45, headlabel="True"] ;
2 [label="gini = 0.0\nsamples = 2387\nvalue = [2387, 0, 0, 0]\nclass = fec", fillcolor="#e58139"] ;
1 -> 2 ;
3 [label="gini = 0.18\nsamples = 10\nvalue = [9, 0, 1, 0]\nclass = fec", fillcolor="#e88f4f"] ;
1 -> 3 ;
4 [label="variance_in <= 199953.719\ngini = 0.667\nsamples = 7203\nvalue = [4, 2400, 2399, 2400]\nclass = monitoring", fillcolor="#ffffff"] ;
0 -> 4 [labeldistance=2.5, labelangle=-45, headlabel="False"] ;
5 [label="ratio_pkts <= 0.431\ngini = 0.508\nsamples = 4812\nvalue = [1, 2382, 39, 2390]\nclass = no_plugin", fillcolor="#fffeff"] ;
4 -> 5 ;
6 [label="s_durat <= 0.208\ngini = 0.471\nsamples = 2117\nvalue = [0, 1317, 3, 797]\nclass = monitoring", fillcolor="#b7f5b1"] ;
5 -> 6 ;
7 [label="c_durat <= 0.113\ngini = 0.127\nsamples = 88\nvalue = [0, 6, 0, 82]\nclass = no_plugin", fillcolor="#da47e7"] ;
6 -> 7 ;
8 [label="s_durat <= 0.208\ngini = 0.053\nsamples = 73\nvalue = [0, 2, 0, 71]\nclass = no_plugin", fillcolor="#d83fe6"] ;
7 -> 8 ;
9 [label="gini = 0.0\nsamples = 63\nvalue = [0, 0, 0, 63]\nclass = no_plugin", fillcolor="#d739e5"] ;
8 -> 9 ;
10 [label="gini = 0.32\nsamples = 10\nvalue = [0, 2, 0, 8]\nclass = no_plugin", fillcolor="#e16aec"] ;
8 -> 10 ;
11 [label="gini = 0.391\nsamples = 15\nvalue = [0, 4, 0, 11]\nclass = no_plugin", fillcolor="#e681ee"] ;
7 -> 11 ;
12 [label="c_pkts_all <= 7.5\ngini = 0.458\nsamples = 2029\nvalue = [0, 1311, 3, 715]\nclass = monitoring", fillcolor="#acf3a5"] ;
6 -> 12 ;
13 [label="s_durat <= 0.218\ngini = 0.264\nsamples = 198\nvalue = [0, 167, 0, 31]\nclass = monitoring", fillcolor="#69ea5e"] ;
12 -> 13 ;
14 [label="s_durat <= 0.209\ngini = 0.195\nsamples = 137\nvalue = [0, 122, 0, 15]\nclass = monitoring", fillcolor="#5ee851"] ;
13 -> 14 ;
15 [label="c_durat <= 0.106\ngini = 0.35\nsamples = 31\nvalue = [0, 24, 0, 7]\nclass = monitoring", fillcolor="#7ded73"] ;
14 -> 15 ;
16 [label="gini = 0.0\nsamples = 14\nvalue = [0, 14, 0, 0]\nclass = monitoring", fillcolor="#47e539"] ;
15 -> 16 ;
17 [label="gini = 0.484\nsamples = 17\nvalue = [0, 10, 0, 7]\nclass = monitoring", fillcolor="#c8f7c4"] ;
15 -> 17 ;
18 [label="c_durat <= 0.105\ngini = 0.14\nsamples = 106\nvalue = [0, 98, 0, 8]\nclass = monitoring", fillcolor="#56e749"] ;
14 -> 18 ;
19 [label="gini = 0.32\nsamples = 10\nvalue = [0, 8, 0, 2]\nclass = monitoring", fillcolor="#75ec6a"] ;
18 -> 19 ;
20 [label="c_durat <= 0.108\ngini = 0.117\nsamples = 96\nvalue = [0, 90, 0, 6]\nclass = monitoring", fillcolor="#53e746"] ;
18 -> 20 ;
21 [label="s_durat <= 0.21\ngini = 0.038\nsamples = 52\nvalue = [0, 51, 0, 1]\nclass = monitoring", fillcolor="#4be63d"] ;
20 -> 21 ;
22 [label="gini = 0.165\nsamples = 11\nvalue = [0, 10, 0, 1]\nclass = monitoring", fillcolor="#59e84d"] ;
21 -> 22 ;
23 [label="gini = 0.0\nsamples = 41\nvalue = [0, 41, 0, 0]\nclass = monitoring", fillcolor="#47e539"] ;
21 -> 23 ;
24 [label="s_durat <= 0.214\ngini = 0.201\nsamples = 44\nvalue = [0, 39, 0, 5]\nclass = monitoring", fillcolor="#5fe852"] ;
20 -> 24 ;
25 [label="variance_out <= 383721.141\ngini = 0.302\nsamples = 27\nvalue = [0, 22, 0, 5]\nclass = monitoring", fillcolor="#71eb66"] ;
24 -> 25 ;
26 [label="gini = 0.415\nsamples = 17\nvalue = [0, 12, 0, 5]\nclass = monitoring", fillcolor="#94f08b"] ;
25 -> 26 ;
27 [label="gini = 0.0\nsamples = 10\nvalue = [0, 10, 0, 0]\nclass = monitoring", fillcolor="#47e539"] ;
25 -> 27 ;
28 [label="gini = 0.0\nsamples = 17\nvalue = [0, 17, 0, 0]\nclass = monitoring", fillcolor="#47e539"] ;
24 -> 28 ;
29 [label="s_durat <= 0.221\ngini = 0.387\nsamples = 61\nvalue = [0, 45, 0, 16]\nclass = monitoring", fillcolor="#88ee7f"] ;
13 -> 29 ;
30 [label="gini = 0.488\nsamples = 19\nvalue = [0, 11, 0, 8]\nclass = monitoring", fillcolor="#cdf8c9"] ;
29 -> 30 ;
31 [label="average_c_bytes <= 412.0\ngini = 0.308\nsamples = 42\nvalue = [0, 34, 0, 8]\nclass = monitoring", fillcolor="#72eb68"] ;
29 -> 31 ;
32 [label="gini = 0.465\nsamples = 19\nvalue = [0, 12, 0, 7]\nclass = monitoring", fillcolor="#b2f4ac"] ;
31 -> 32 ;
33 [label="variance_in <= 198562.125\ngini = 0.083\nsamples = 23\nvalue = [0, 22, 0, 1]\nclass = monitoring", fillcolor="#4fe642"] ;
31 -> 33 ;
34 [label="gini = 0.0\nsamples = 13\nvalue = [0, 13, 0, 0]\nclass = monitoring", fillcolor="#47e539"] ;
33 -> 34 ;
35 [label="gini = 0.18\nsamples = 10\nvalue = [0, 9, 0, 1]\nclass = monitoring", fillcolor="#5be84f"] ;
33 -> 35 ;
36 [label="s_durat <= 0.223\ngini = 0.47\nsamples = 1831\nvalue = [0, 1144, 3, 684]\nclass = monitoring", fillcolor="#b5f5b0"] ;
12 -> 36 ;
37 [label="ratio_bytes <= 0.101\ngini = 0.498\nsamples = 451\nvalue = [0, 213, 0, 238]\nclass = no_plugin", fillcolor="#fbeafc"] ;
36 -> 37 ;
38 [label="s_durat <= 0.22\ngini = 0.464\nsamples = 153\nvalue = [0, 56, 0, 97]\nclass = no_plugin", fillcolor="#eeabf4"] ;
37 -> 38 ;
39 [label="s_durat <= 0.219\ngini = 0.188\nsamples = 57\nvalue = [0, 6, 0, 51]\nclass = no_plugin", fillcolor="#dc50e8"] ;
38 -> 39 ;
40 [label="s_durat <= 0.218\ngini = 0.102\nsamples = 37\nvalue = [0, 2, 0, 35]\nclass = no_plugin", fillcolor="#d944e6"] ;
39 -> 40 ;
41 [label="c_durat <= 0.115\ngini = 0.18\nsamples = 20\nvalue = [0, 2, 0, 18]\nclass = no_plugin", fillcolor="#db4fe8"] ;
40 -> 41 ;
42 [label="gini = 0.0\nsamples = 10\nvalue = [0, 0, 0, 10]\nclass = no_plugin", fillcolor="#d739e5"] ;
41 -> 42 ;
43 [label="gini = 0.32\nsamples = 10\nvalue = [0, 2, 0, 8]\nclass = no_plugin", fillcolor="#e16aec"] ;
41 -> 43 ;
44 [label="gini = 0.0\nsamples = 17\nvalue = [0, 0, 0, 17]\nclass = no_plugin", fillcolor="#d739e5"] ;
40 -> 44 ;
45 [label="variance <= 313328.578\ngini = 0.32\nsamples = 20\nvalue = [0, 4, 0, 16]\nclass = no_plugin", fillcolor="#e16aec"] ;
39 -> 45 ;
46 [label="gini = 0.42\nsamples = 10\nvalue = [0, 3, 0, 7]\nclass = no_plugin", fillcolor="#e88ef0"] ;
45 -> 46 ;
47 [label="gini = 0.18\nsamples = 10\nvalue = [0, 1, 0, 9]\nclass = no_plugin", fillcolor="#db4fe8"] ;
45 -> 47 ;
48 [label="c_durat <= 0.119\ngini = 0.499\nsamples = 96\nvalue = [0, 50, 0, 46]\nclass = monitoring", fillcolor="#f0fdef"] ;
38 -> 48 ;
49 [label="s_durat <= 0.221\ngini = 0.451\nsamples = 64\nvalue = [0, 42, 0, 22]\nclass = monitoring", fillcolor="#a7f3a1"] ;
48 -> 49 ;
50 [label="c_durat <= 0.116\ngini = 0.499\nsamples = 29\nvalue = [0, 15, 0, 14]\nclass = monitoring", fillcolor="#f3fdf2"] ;
49 -> 50 ;
51 [label="gini = 0.18\nsamples = 10\nvalue = [0, 9, 0, 1]\nclass = monitoring", fillcolor="#5be84f"] ;
50 -> 51 ;
52 [label="gini = 0.432\nsamples = 19\nvalue = [0, 6, 0, 13]\nclass = no_plugin", fillcolor="#e994f1"] ;
50 -> 52 ;
53 [label="c_durat <= 0.118\ngini = 0.353\nsamples = 35\nvalue = [0, 27, 0, 8]\nclass = monitoring", fillcolor="#7eed74"] ;
49 -> 53 ;
54 [label="c_durat <= 0.117\ngini = 0.245\nsamples = 21\nvalue = [0, 18, 0, 3]\nclass = monitoring", fillcolor="#66e95a"] ;
53 -> 54 ;
55 [label="gini = 0.32\nsamples = 10\nvalue = [0, 8, 0, 2]\nclass = monitoring", fillcolor="#75ec6a"] ;
54 -> 55 ;
56 [label="gini = 0.165\nsamples = 11\nvalue = [0, 10, 0, 1]\nclass = monitoring", fillcolor="#59e84d"] ;
54 -> 56 ;
57 [label="gini = 0.459\nsamples = 14\nvalue = [0, 9, 0, 5]\nclass = monitoring", fillcolor="#adf3a7"] ;
53 -> 57 ;
58 [label="s_durat <= 0.223\ngini = 0.375\nsamples = 32\nvalue = [0, 8, 0, 24]\nclass = no_plugin", fillcolor="#e47bee"] ;
48 -> 58 ;
59 [label="gini = 0.0\nsamples = 16\nvalue = [0, 0, 0, 16]\nclass = no_plugin", fillcolor="#d739e5"] ;
58 -> 59 ;
60 [label="gini = 0.5\nsamples = 16\nvalue = [0, 8, 0, 8]\nclass = monitoring", fillcolor="#ffffff"] ;
58 -> 60 ;
61 [label="ratio_pkts <= 0.408\ngini = 0.499\nsamples = 298\nvalue = [0, 157, 0, 141]\nclass = monitoring", fillcolor="#ecfceb"] ;
37 -> 61 ;
62 [label="s_bytes_all <= 28334.5\ngini = 0.491\nsamples = 234\nvalue = [0, 133, 0, 101]\nclass = monitoring", fillcolor="#d3f9cf"] ;
61 -> 62 ;
63 [label="c_durat <= 0.117\ngini = 0.476\nsamples = 166\nvalue = [0, 101, 0, 65]\nclass = monitoring", fillcolor="#bdf6b8"] ;
62 -> 63 ;
64 [label="c_durat <= 0.116\ngini = 0.466\nsamples = 141\nvalue = [0, 89, 0, 52]\nclass = monitoring", fillcolor="#b3f4ad"] ;
63 -> 64 ;
65 [label="c_durat <= 0.115\ngini = 0.479\nsamples = 123\nvalue = [0, 74, 0, 49]\nclass = monitoring", fillcolor="#c1f6bc"] ;
64 -> 65 ;
66 [label="c_durat <= 0.115\ngini = 0.468\nsamples = 107\nvalue = [0, 67, 0, 40]\nclass = monitoring", fillcolor="#b5f5af"] ;
65 -> 66 ;
67 [label="gini = 0.488\nsamples = 90\nvalue = [0, 52, 0, 38]\nclass = monitoring", fillcolor="#cdf8ca"] ;
66 -> 67 ;
68 [label="gini = 0.208\nsamples = 17\nvalue = [0, 15, 0, 2]\nclass = monitoring", fillcolor="#60e853"] ;
66 -> 68 ;
69 [label="gini = 0.492\nsamples = 16\nvalue = [0, 7, 0, 9]\nclass = no_plugin", fillcolor="#f6d3f9"] ;
65 -> 69 ;
70 [label="gini = 0.278\nsamples = 18\nvalue = [0, 15, 0, 3]\nclass = monitoring", fillcolor="#6cea61"] ;
64 -> 70 ;
71 [label="average_s_bytes <= 1154.938\ngini = 0.499\nsamples = 25\nvalue = [0, 12, 0, 13]\nclass = no_plugin", fillcolor="#fcf0fd"] ;
63 -> 71 ;
72 [label="gini = 0.473\nsamples = 13\nvalue = [0, 8, 0, 5]\nclass = monitoring", fillcolor="#baf5b5"] ;
71 -> 72 ;
73 [label="gini = 0.444\nsamples = 12\nvalue = [0, 4, 0, 8]\nclass = no_plugin", fillcolor="#eb9cf2"] ;
71 -> 73 ;
74 [label="variance_in <= 147181.992\ngini = 0.498\nsamples = 68\nvalue = [0, 32, 0, 36]\nclass = no_plugin", fillcolor="#fbe9fc"] ;
62 -> 74 ;
75 [label="gini = 0.305\nsamples = 16\nvalue = [0, 13, 0, 3]\nclass = monitoring", fillcolor="#71eb67"] ;
74 -> 75 ;
76 [label="variance_out <= 275716.359\ngini = 0.464\nsamples = 52\nvalue = [0, 19, 0, 33]\nclass = no_plugin", fillcolor="#eeabf4"] ;
74 -> 76 ;
77 [label="s_durat <= 0.216\ngini = 0.5\nsamples = 28\nvalue = [0, 14, 0, 14]\nclass = monitoring", fillcolor="#ffffff"] ;
76 -> 77 ;
78 [label="gini = 0.444\nsamples = 12\nvalue = [0, 8, 0, 4]\nclass = monitoring", fillcolor="#a3f29c"] ;
77 -> 78 ;
79 [label="gini = 0.469\nsamples = 16\nvalue = [0, 6, 0, 10]\nclass = no_plugin", fillcolor="#efb0f5"] ;
77 -> 79 ;
80 [label="c_durat <= 0.113\ngini = 0.33\nsamples = 24\nvalue = [0, 5, 0, 19]\nclass = no_plugin", fillcolor="#e26dec"] ;
76 -> 80 ;
81 [label="gini = 0.426\nsamples = 13\nvalue = [0, 4, 0, 9]\nclass = no_plugin", fillcolor="#e991f1"] ;
80 -> 81 ;
82 [label="gini = 0.165\nsamples = 11\nvalue = [0, 1, 0, 10]\nclass = no_plugin", fillcolor="#db4de8"] ;
80 -> 82 ;
83 [label="c_durat <= 0.107\ngini = 0.469\nsamples = 64\nvalue = [0, 24, 0, 40]\nclass = no_plugin", fillcolor="#efb0f5"] ;
61 -> 83 ;
84 [label="gini = 0.496\nsamples = 11\nvalue = [0, 6, 0, 5]\nclass = monitoring", fillcolor="#e0fbde"] ;
83 -> 84 ;
85 [label="c_durat <= 0.109\ngini = 0.449\nsamples = 53\nvalue = [0, 18, 0, 35]\nclass = no_plugin", fillcolor="#ec9ff2"] ;
83 -> 85 ;
86 [label="gini = 0.165\nsamples = 11\nvalue = [0, 1, 0, 10]\nclass = no_plugin", fillcolor="#db4de8"] ;
85 -> 86 ;
87 [label="variance_in <= 123724.359\ngini = 0.482\nsamples = 42\nvalue = [0, 17, 0, 25]\nclass = no_plugin", fillcolor="#f2c0f7"] ;
85 -> 87 ;
88 [label="s_durat <= 0.216\ngini = 0.42\nsamples = 30\nvalue = [0, 9, 0, 21]\nclass = no_plugin", fillcolor="#e88ef0"] ;
87 -> 88 ;
89 [label="gini = 0.498\nsamples = 15\nvalue = [0, 7, 0, 8]\nclass = no_plugin", fillcolor="#fae6fc"] ;
88 -> 89 ;
90 [label="gini = 0.231\nsamples = 15\nvalue = [0, 2, 0, 13]\nclass = no_plugin", fillcolor="#dd57e9"] ;
88 -> 90 ;
91 [label="gini = 0.444\nsamples = 12\nvalue = [0, 8, 0, 4]\nclass = monitoring", fillcolor="#a3f29c"] ;
87 -> 91 ;
92 [label="ratio_pkts <= 0.423\ngini = 0.44\nsamples = 1380\nvalue = [0, 931, 3, 446]\nclass = monitoring", fillcolor="#9ff198"] ;
36 -> 92 ;
93 [label="c_durat <= 0.316\ngini = 0.42\nsamples = 1187\nvalue = [0, 831, 1, 355]\nclass = monitoring", fillcolor="#96f08e"] ;
92 -> 93 ;
94 [label="c_durat <= 0.268\ngini = 0.457\nsamples = 610\nvalue = [0, 394, 0, 216]\nclass = monitoring", fillcolor="#acf3a6"] ;
93 -> 94 ;
95 [label="c_durat <= 0.115\ngini = 0.436\nsamples = 508\nvalue = [0, 345, 0, 163]\nclass = monitoring", fillcolor="#9ef197"] ;
94 -> 95 ;
96 [label="s_durat <= 0.271\ngini = 0.463\nsamples = 22\nvalue = [0, 8, 0, 14]\nclass = no_plugin", fillcolor="#eeaaf4"] ;
95 -> 96 ;
97 [label="gini = 0.375\nsamples = 12\nvalue = [0, 3, 0, 9]\nclass = no_plugin", fillcolor="#e47bee"] ;
96 -> 97 ;
98 [label="gini = 0.5\nsamples = 10\nvalue = [0, 5, 0, 5]\nclass = monitoring", fillcolor="#ffffff"] ;
96 -> 98 ;
99 [label="average_s_bytes <= 1299.27\ngini = 0.425\nsamples = 486\nvalue = [0, 337, 0, 149]\nclass = monitoring", fillcolor="#98f091"] ;
95 -> 99 ;
100 [label="variance_in <= 131901.383\ngini = 0.434\nsamples = 462\nvalue = [0, 315, 0, 147]\nclass = monitoring", fillcolor="#9df195"] ;
99 -> 100 ;
101 [label="c_durat <= 0.12\ngini = 0.476\nsamples = 208\nvalue = [0, 127, 0, 81]\nclass = monitoring", fillcolor="#bcf6b7"] ;
100 -> 101 ;
102 [label="gini = 0.225\nsamples = 31\nvalue = [0, 27, 0, 4]\nclass = monitoring", fillcolor="#62e956"] ;
101 -> 102 ;
103 [label="gini = 0.492\nsamples = 177\nvalue = [0, 100, 0, 77]\nclass = monitoring", fillcolor="#d5f9d1"] ;
101 -> 103 ;
104 [label="ratio_bytes <= 0.068\ngini = 0.385\nsamples = 254\nvalue = [0, 188, 0, 66]\nclass = monitoring", fillcolor="#88ee7f"] ;
100 -> 104 ;
105 [label="gini = 0.224\nsamples = 39\nvalue = [0, 34, 0, 5]\nclass = monitoring", fillcolor="#62e956"] ;
104 -> 105 ;
106 [label="gini = 0.406\nsamples = 215\nvalue = [0, 154, 0, 61]\nclass = monitoring", fillcolor="#90ef87"] ;
104 -> 106 ;
107 [label="s_durat <= 0.345\ngini = 0.153\nsamples = 24\nvalue = [0, 22, 0, 2]\nclass = monitoring", fillcolor="#58e74b"] ;
99 -> 107 ;
108 [label="gini = 0.0\nsamples = 14\nvalue = [0, 14, 0, 0]\nclass = monitoring", fillcolor="#47e539"] ;
107 -> 108 ;
109 [label="gini = 0.32\nsamples = 10\nvalue = [0, 8, 0, 2]\nclass = monitoring", fillcolor="#75ec6a"] ;
107 -> 109 ;
110 [label="s_durat <= 0.346\ngini = 0.499\nsamples = 102\nvalue = [0, 49, 0, 53]\nclass = no_plugin", fillcolor="#fcf0fd"] ;
94 -> 110 ;
111 [label="c_bytes_all <= 3594.5\ngini = 0.474\nsamples = 70\nvalue = [0, 27, 0, 43]\nclass = no_plugin", fillcolor="#f0b5f5"] ;
110 -> 111 ;
112 [label="ratio_bytes <= 0.046\ngini = 0.494\nsamples = 47\nvalue = [0, 26, 0, 21]\nclass = monitoring", fillcolor="#dcfad9"] ;
111 -> 112 ;
113 [label="s_durat <= 0.336\ngini = 0.375\nsamples = 24\nvalue = [0, 18, 0, 6]\nclass = monitoring", fillcolor="#84ee7b"] ;
112 -> 113 ;
114 [label="gini = 0.459\nsamples = 14\nvalue = [0, 9, 0, 5]\nclass = monitoring", fillcolor="#adf3a7"] ;
113 -> 114 ;
115 [label="gini = 0.18\nsamples = 10\nvalue = [0, 9, 0, 1]\nclass = monitoring", fillcolor="#5be84f"] ;
113 -> 115 ;
116 [label="c_durat <= 0.313\ngini = 0.454\nsamples = 23\nvalue = [0, 8, 0, 15]\nclass = no_plugin", fillcolor="#eca3f3"] ;
112 -> 116 ;
117 [label="gini = 0.165\nsamples = 11\nvalue = [0, 1, 0, 10]\nclass = no_plugin", fillcolor="#db4de8"] ;
116 -> 117 ;
118 [label="gini = 0.486\nsamples = 12\nvalue = [0, 7, 0, 5]\nclass = monitoring", fillcolor="#caf8c6"] ;
116 -> 118 ;
119 [label="c_durat <= 0.313\ngini = 0.083\nsamples = 23\nvalue = [0, 1, 0, 22]\nclass = no_plugin", fillcolor="#d942e6"] ;
111 -> 119 ;
120 [label="gini = 0.0\nsamples = 13\nvalue = [0, 0, 0, 13]\nclass = no_plugin", fillcolor="#d739e5"] ;
119 -> 120 ;
121 [label="gini = 0.18\nsamples = 10\nvalue = [0, 1, 0, 9]\nclass = no_plugin", fillcolor="#db4fe8"] ;
119 -> 121 ;
122 [label="s_durat <= 0.353\ngini = 0.43\nsamples = 32\nvalue = [0, 22, 0, 10]\nclass = monitoring", fillcolor="#9bf193"] ;
110 -> 122 ;
123 [label="s_durat <= 0.348\ngini = 0.245\nsamples = 21\nvalue = [0, 18, 0, 3]\nclass = monitoring", fillcolor="#66e95a"] ;
122 -> 123 ;
124 [label="gini = 0.0\nsamples = 11\nvalue = [0, 11, 0, 0]\nclass = monitoring", fillcolor="#47e539"] ;
123 -> 124 ;
125 [label="gini = 0.42\nsamples = 10\nvalue = [0, 7, 0, 3]\nclass = monitoring", fillcolor="#96f08e"] ;
123 -> 125 ;
126 [label="gini = 0.463\nsamples = 11\nvalue = [0, 4, 0, 7]\nclass = no_plugin", fillcolor="#eeaaf4"] ;
122 -> 126 ;
127 [label="s_durat <= 0.353\ngini = 0.368\nsamples = 577\nvalue = [0, 437, 1, 139]\nclass = monitoring", fillcolor="#82ed78"] ;
93 -> 127 ;
128 [label="s_durat <= 0.343\ngini = 0.271\nsamples = 291\nvalue = [0, 244, 0, 47]\nclass = monitoring", fillcolor="#6aea5f"] ;
127 -> 128 ;
129 [label="s_durat <= 0.34\ngini = 0.385\nsamples = 146\nvalue = [0, 108, 0, 38]\nclass = monitoring", fillcolor="#88ee7f"] ;
128 -> 129 ;
130 [label="s_durat <= 0.332\ngini = 0.341\nsamples = 133\nvalue = [0, 104, 0, 29]\nclass = monitoring", fillcolor="#7aec70"] ;
129 -> 130 ;
131 [label="variance <= 389741.609\ngini = 0.473\nsamples = 47\nvalue = [0, 29, 0, 18]\nclass = monitoring", fillcolor="#b9f5b4"] ;
130 -> 131 ;
132 [label="gini = 0.305\nsamples = 16\nvalue = [0, 13, 0, 3]\nclass = monitoring", fillcolor="#71eb67"] ;
131 -> 132 ;
133 [label="gini = 0.499\nsamples = 31\nvalue = [0, 16, 0, 15]\nclass = monitoring", fillcolor="#f4fdf3"] ;
131 -> 133 ;
134 [label="c_durat <= 0.327\ngini = 0.223\nsamples = 86\nvalue = [0, 75, 0, 11]\nclass = monitoring", fillcolor="#62e956"] ;
130 -> 134 ;
135 [label="gini = 0.288\nsamples = 63\nvalue = [0, 52, 0, 11]\nclass = monitoring", fillcolor="#6eea63"] ;
134 -> 135 ;
136 [label="gini = 0.0\nsamples = 23\nvalue = [0, 23, 0, 0]\nclass = monitoring", fillcolor="#47e539"] ;
134 -> 136 ;
137 [label="gini = 0.426\nsamples = 13\nvalue = [0, 4, 0, 9]\nclass = no_plugin", fillcolor="#e991f1"] ;
129 -> 137 ;
138 [label="variance_in <= 112063.309\ngini = 0.116\nsamples = 145\nvalue = [0, 136, 0, 9]\nclass = monitoring", fillcolor="#53e746"] ;
128 -> 138 ;
139 [label="ratio_bytes <= 0.041\ngini = 0.046\nsamples = 126\nvalue = [0, 123, 0, 3]\nclass = monitoring", fillcolor="#4be63e"] ;
138 -> 139 ;
140 [label="gini = 0.0\nsamples = 67\nvalue = [0, 67, 0, 0]\nclass = monitoring", fillcolor="#47e539"] ;
139 -> 140 ;
141 [label="c_durat <= 0.326\ngini = 0.097\nsamples = 59\nvalue = [0, 56, 0, 3]\nclass = monitoring", fillcolor="#51e644"] ;
139 -> 141 ;
142 [label="gini = 0.041\nsamples = 48\nvalue = [0, 47, 0, 1]\nclass = monitoring", fillcolor="#4be63d"] ;
141 -> 142 ;
143 [label="gini = 0.298\nsamples = 11\nvalue = [0, 9, 0, 2]\nclass = monitoring", fillcolor="#70eb65"] ;
141 -> 143 ;
144 [label="gini = 0.432\nsamples = 19\nvalue = [0, 13, 0, 6]\nclass = monitoring", fillcolor="#9cf194"] ;
138 -> 144 ;
145 [label="ratio_pkts <= 0.403\ngini = 0.441\nsamples = 286\nvalue = [0, 193, 1, 92]\nclass = monitoring", fillcolor="#9ff198"] ;
127 -> 145 ;
146 [label="variance_out <= 226280.734\ngini = 0.375\nsamples = 176\nvalue = [0, 132, 0, 44]\nclass = monitoring", fillcolor="#84ee7b"] ;
145 -> 146 ;
147 [label="variance_out <= 119904.719\ngini = 0.334\nsamples = 151\nvalue = [0, 119, 0, 32]\nclass = monitoring", fillcolor="#78ec6e"] ;
146 -> 147 ;
148 [label="s_durat <= 0.4\ngini = 0.44\nsamples = 49\nvalue = [0, 33, 0, 16]\nclass = monitoring", fillcolor="#a0f299"] ;
147 -> 148 ;
149 [label="gini = 0.389\nsamples = 34\nvalue = [0, 25, 0, 9]\nclass = monitoring", fillcolor="#89ee80"] ;
148 -> 149 ;
150 [label="gini = 0.498\nsamples = 15\nvalue = [0, 8, 0, 7]\nclass = monitoring", fillcolor="#e8fce6"] ;
148 -> 150 ;
151 [label="c_durat <= 0.36\ngini = 0.265\nsamples = 102\nvalue = [0, 86, 0, 16]\nclass = monitoring", fillcolor="#69ea5e"] ;
147 -> 151 ;
152 [label="gini = 0.0\nsamples = 15\nvalue = [0, 15, 0, 0]\nclass = monitoring", fillcolor="#47e539"] ;
151 -> 152 ;
153 [label="gini = 0.3\nsamples = 87\nvalue = [0, 71, 0, 16]\nclass = monitoring", fillcolor="#70eb66"] ;
151 -> 153 ;
154 [label="variance_in <= 133358.492\ngini = 0.499\nsamples = 25\nvalue = [0, 13, 0, 12]\nclass = monitoring", fillcolor="#f1fdf0"] ;
146 -> 154 ;
155 [label="gini = 0.42\nsamples = 10\nvalue = [0, 3, 0, 7]\nclass = no_plugin", fillcolor="#e88ef0"] ;
154 -> 155 ;
156 [label="gini = 0.444\nsamples = 15\nvalue = [0, 10, 0, 5]\nclass = monitoring", fillcolor="#a3f29c"] ;
154 -> 156 ;
157 [label="average_s_bytes <= 1317.55\ngini = 0.502\nsamples = 110\nvalue = [0, 61, 1, 48]\nclass = monitoring", fillcolor="#d8fad5"] ;
145 -> 157 ;
158 [label="average_c_bytes <= 142.24\ngini = 0.51\nsamples = 93\nvalue = [0, 47, 1, 45]\nclass = monitoring", fillcolor="#f7fef7"] ;
157 -> 158 ;
159 [label="variance_in <= 104877.117\ngini = 0.495\nsamples = 58\nvalue = [0, 26, 0, 32]\nclass = no_plugin", fillcolor="#f8dafa"] ;
158 -> 159 ;
160 [label="gini = 0.474\nsamples = 44\nvalue = [0, 17, 0, 27]\nclass = no_plugin", fillcolor="#f0b6f5"] ;
159 -> 160 ;
161 [label="gini = 0.459\nsamples = 14\nvalue = [0, 9, 0, 5]\nclass = monitoring", fillcolor="#adf3a7"] ;
159 -> 161 ;
162 [label="c_durat <= 0.372\ngini = 0.501\nsamples = 35\nvalue = [0, 21, 1, 13]\nclass = monitoring", fillcolor="#bcf6b7"] ;
158 -> 162 ;
163 [label="gini = 0.278\nsamples = 12\nvalue = [0, 10, 0, 2]\nclass = monitoring", fillcolor="#6cea61"] ;
162 -> 163 ;
164 [label="gini = 0.541\nsamples = 23\nvalue = [0, 11, 1, 11]\nclass = monitoring", fillcolor="#ffffff"] ;
162 -> 164 ;
165 [label="gini = 0.291\nsamples = 17\nvalue = [0, 14, 0, 3]\nclass = monitoring", fillcolor="#6eeb63"] ;
157 -> 165 ;
166 [label="s_durat <= 0.382\ngini = 0.509\nsamples = 193\nvalue = [0, 100, 2, 91]\nclass = monitoring", fillcolor="#effdee"] ;
92 -> 166 ;
167 [label="c_durat <= 0.31\ngini = 0.498\nsamples = 149\nvalue = [0, 70, 0, 79]\nclass = no_plugin", fillcolor="#fae8fc"] ;
166 -> 167 ;
168 [label="gini = 0.375\nsamples = 16\nvalue = [0, 12, 0, 4]\nclass = monitoring", fillcolor="#84ee7b"] ;
167 -> 168 ;
169 [label="average_c_bytes <= 142.24\ngini = 0.492\nsamples = 133\nvalue = [0, 58, 0, 75]\nclass = no_plugin", fillcolor="#f6d2f9"] ;
167 -> 169 ;
170 [label="variance <= 402510.672\ngini = 0.5\nsamples = 98\nvalue = [0, 49, 0, 49]\nclass = monitoring", fillcolor="#ffffff"] ;
169 -> 170 ;
171 [label="s_durat <= 0.334\ngini = 0.497\nsamples = 84\nvalue = [0, 39, 0, 45]\nclass = no_plugin", fillcolor="#fae5fc"] ;
170 -> 171 ;
172 [label="gini = 0.337\nsamples = 14\nvalue = [0, 3, 0, 11]\nclass = no_plugin", fillcolor="#e26fec"] ;
171 -> 172 ;
173 [label="s_durat <= 0.336\ngini = 0.5\nsamples = 70\nvalue = [0, 36, 0, 34]\nclass = monitoring", fillcolor="#f5fef4"] ;
171 -> 173 ;
174 [label="gini = 0.43\nsamples = 16\nvalue = [0, 11, 0, 5]\nclass = monitoring", fillcolor="#9bf193"] ;
173 -> 174 ;
175 [label="gini = 0.497\nsamples = 54\nvalue = [0, 25, 0, 29]\nclass = no_plugin", fillcolor="#f9e4fb"] ;
173 -> 175 ;
176 [label="gini = 0.408\nsamples = 14\nvalue = [0, 10, 0, 4]\nclass = monitoring", fillcolor="#91ef88"] ;
170 -> 176 ;
177 [label="c_durat <= 0.319\ngini = 0.382\nsamples = 35\nvalue = [0, 9, 0, 26]\nclass = no_plugin", fillcolor="#e57eee"] ;
169 -> 177 ;
178 [label="gini = 0.124\nsamples = 15\nvalue = [0, 1, 0, 14]\nclass = no_plugin", fillcolor="#da47e7"] ;
177 -> 178 ;
179 [label="c_bytes_all <= 3540.0\ngini = 0.48\nsamples = 20\nvalue = [0, 8, 0, 12]\nclass = no_plugin", fillcolor="#f2bdf6"] ;
177 -> 179 ;
180 [label="gini = 0.32\nsamples = 10\nvalue = [0, 2, 0, 8]\nclass = no_plugin", fillcolor="#e16aec"] ;
179 -> 180 ;
181 [label="gini = 0.48\nsamples = 10\nvalue = [0, 6, 0, 4]\nclass = monitoring", fillcolor="#c2f6bd"] ;
179 -> 181 ;
182 [label="ratio_bytes <= 0.055\ngini = 0.459\nsamples = 44\nvalue = [0, 30, 2, 12]\nclass = monitoring", fillcolor="#98f090"] ;
166 -> 182 ;
183 [label="s_bytes_all <= 85478.5\ngini = 0.225\nsamples = 31\nvalue = [0, 27, 0, 4]\nclass = monitoring", fillcolor="#62e956"] ;
182 -> 183 ;
184 [label="gini = 0.0\nsamples = 21\nvalue = [0, 21, 0, 0]\nclass = monitoring", fillcolor="#47e539"] ;
183 -> 184 ;
185 [label="gini = 0.48\nsamples = 10\nvalue = [0, 6, 0, 4]\nclass = monitoring", fillcolor="#c2f6bd"] ;
183 -> 185 ;
186 [label="gini = 0.544\nsamples = 13\nvalue = [0, 3, 2, 8]\nclass = no_plugin", fillcolor="#eb9cf2"] ;
182 -> 186 ;
187 [label="c_bytes_all <= 6276.5\ngini = 0.494\nsamples = 2695\nvalue = [1, 1065, 36, 1593]\nclass = no_plugin", fillcolor="#f2bff7"] ;
5 -> 187 ;
188 [label="s_durat <= 0.346\ngini = 0.481\nsamples = 2642\nvalue = [1, 1056, 1, 1584]\nclass = no_plugin", fillcolor="#f2bdf6"] ;
187 -> 188 ;
189 [label="c_pkts_all <= 29.5\ngini = 0.455\nsamples = 1804\nvalue = [0, 631, 0, 1173]\nclass = no_plugin", fillcolor="#eda4f3"] ;
188 -> 189 ;
190 [label="c_durat <= 0.314\ngini = 0.471\nsamples = 1500\nvalue = [0, 569, 0, 931]\nclass = no_plugin", fillcolor="#efb2f5"] ;
189 -> 190 ;
191 [label="s_durat <= 0.208\ngini = 0.454\nsamples = 1169\nvalue = [0, 408, 0, 761]\nclass = no_plugin", fillcolor="#eca3f3"] ;
190 -> 191 ;
192 [label="c_durat <= 0.113\ngini = 0.08\nsamples = 24\nvalue = [0, 1, 0, 23]\nclass = no_plugin", fillcolor="#d942e6"] ;
191 -> 192 ;
193 [label="gini = 0.0\nsamples = 14\nvalue = [0, 0, 0, 14]\nclass = no_plugin", fillcolor="#d739e5"] ;
192 -> 193 ;
194 [label="gini = 0.18\nsamples = 10\nvalue = [0, 1, 0, 9]\nclass = no_plugin", fillcolor="#db4fe8"] ;
192 -> 194 ;
195 [label="s_durat <= 0.315\ngini = 0.458\nsamples = 1145\nvalue = [0, 407, 0, 738]\nclass = no_plugin", fillcolor="#eda6f3"] ;
191 -> 195 ;
196 [label="c_durat <= 0.293\ngini = 0.479\nsamples = 625\nvalue = [0, 248, 0, 377]\nclass = no_plugin", fillcolor="#f1bbf6"] ;
195 -> 196 ;
197 [label="variance_out <= 174363.484\ngini = 0.461\nsamples = 571\nvalue = [0, 206, 0, 365]\nclass = no_plugin", fillcolor="#eea9f4"] ;
196 -> 197 ;
198 [label="s_durat <= 0.249\ngini = 0.372\nsamples = 162\nvalue = [0, 40, 0, 122]\nclass = no_plugin", fillcolor="#e47aee"] ;
197 -> 198 ;
199 [label="s_durat <= 0.248\ngini = 0.29\nsamples = 91\nvalue = [0, 16, 0, 75]\nclass = no_plugin", fillcolor="#e063eb"] ;
198 -> 199 ;
200 [label="gini = 0.332\nsamples = 76\nvalue = [0, 16, 0, 60]\nclass = no_plugin", fillcolor="#e26eec"] ;
199 -> 200 ;
201 [label="gini = 0.0\nsamples = 15\nvalue = [0, 0, 0, 15]\nclass = no_plugin", fillcolor="#d739e5"] ;
199 -> 201 ;
202 [label="s_durat <= 0.312\ngini = 0.448\nsamples = 71\nvalue = [0, 24, 0, 47]\nclass = no_plugin", fillcolor="#eb9ef2"] ;
198 -> 202 ;
203 [label="gini = 0.477\nsamples = 61\nvalue = [0, 24, 0, 37]\nclass = no_plugin", fillcolor="#f1b9f6"] ;
202 -> 203 ;
204 [label="gini = 0.0\nsamples = 10\nvalue = [0, 0, 0, 10]\nclass = no_plugin", fillcolor="#d739e5"] ;
202 -> 204 ;
205 [label="ratio_pkts <= 0.491\ngini = 0.482\nsamples = 409\nvalue = [0, 166, 0, 243]\nclass = no_plugin", fillcolor="#f2c0f7"] ;
197 -> 205 ;
206 [label="ratio_pkts <= 0.442\ngini = 0.494\nsamples = 293\nvalue = [0, 130, 0, 163]\nclass = no_plugin", fillcolor="#f7d7fa"] ;
205 -> 206 ;
207 [label="gini = 0.41\nsamples = 73\nvalue = [0, 21, 0, 52]\nclass = no_plugin", fillcolor="#e789f0"] ;
206 -> 207 ;
208 [label="gini = 0.5\nsamples = 220\nvalue = [0, 109, 0, 111]\nclass = no_plugin", fillcolor="#fefbff"] ;
206 -> 208 ;
209 [label="c_durat <= 0.227\ngini = 0.428\nsamples = 116\nvalue = [0, 36, 0, 80]\nclass = no_plugin", fillcolor="#e992f1"] ;
205 -> 209 ;
210 [label="gini = 0.451\nsamples = 105\nvalue = [0, 36, 0, 69]\nclass = no_plugin", fillcolor="#eca0f3"] ;
209 -> 210 ;
211 [label="gini = 0.0\nsamples = 11\nvalue = [0, 0, 0, 11]\nclass = no_plugin", fillcolor="#d739e5"] ;
209 -> 211 ;
212 [label="c_durat <= 0.31\ngini = 0.346\nsamples = 54\nvalue = [0, 42, 0, 12]\nclass = monitoring", fillcolor="#7cec72"] ;
196 -> 212 ;
213 [label="c_durat <= 0.307\ngini = 0.176\nsamples = 41\nvalue = [0, 37, 0, 4]\nclass = monitoring", fillcolor="#5be84e"] ;
212 -> 213 ;
214 [label="gini = 0.0\nsamples = 19\nvalue = [0, 19, 0, 0]\nclass = monitoring", fillcolor="#47e539"] ;
213 -> 214 ;
215 [label="c_bytes_all <= 3496.0\ngini = 0.298\nsamples = 22\nvalue = [0, 18, 0, 4]\nclass = monitoring", fillcolor="#70eb65"] ;
213 -> 215 ;
216 [label="gini = 0.278\nsamples = 12\nvalue = [0, 10, 0, 2]\nclass = monitoring", fillcolor="#6cea61"] ;
215 -> 216 ;
217 [label="gini = 0.32\nsamples = 10\nvalue = [0, 8, 0, 2]\nclass = monitoring", fillcolor="#75ec6a"] ;
215 -> 217 ;
218 [label="gini = 0.473\nsamples = 13\nvalue = [0, 5, 0, 8]\nclass = no_plugin", fillcolor="#f0b5f5"] ;
212 -> 218 ;
219 [label="s_durat <= 0.333\ngini = 0.425\nsamples = 520\nvalue = [0, 159, 0, 361]\nclass = no_plugin", fillcolor="#e990f0"] ;
195 -> 219 ;
220 [label="variance_in <= 148605.531\ngini = 0.384\nsamples = 386\nvalue = [0, 100, 0, 286]\nclass = no_plugin", fillcolor="#e57eee"] ;
219 -> 220 ;
221 [label="ratio_bytes <= 0.048\ngini = 0.369\nsamples = 373\nvalue = [0, 91, 0, 282]\nclass = no_plugin", fillcolor="#e479ed"] ;
220 -> 221 ;
222 [label="c_durat <= 0.309\ngini = 0.476\nsamples = 46\nvalue = [0, 18, 0, 28]\nclass = no_plugin", fillcolor="#f1b8f6"] ;
221 -> 222 ;
223 [label="gini = 0.463\nsamples = 11\nvalue = [0, 7, 0, 4]\nclass = monitoring", fillcolor="#b0f4aa"] ;
222 -> 223 ;
224 [label="gini = 0.431\nsamples = 35\nvalue = [0, 11, 0, 24]\nclass = no_plugin", fillcolor="#e994f1"] ;
222 -> 224 ;
225 [label="s_bytes_all <= 63552.5\ngini = 0.347\nsamples = 327\nvalue = [0, 73, 0, 254]\nclass = no_plugin", fillcolor="#e272ec"] ;
221 -> 225 ;
226 [label="gini = 0.453\nsamples = 72\nvalue = [0, 25, 0, 47]\nclass = no_plugin", fillcolor="#eca2f3"] ;
225 -> 226 ;
227 [label="gini = 0.306\nsamples = 255\nvalue = [0, 48, 0, 207]\nclass = no_plugin", fillcolor="#e067eb"] ;
225 -> 227 ;
228 [label="gini = 0.426\nsamples = 13\nvalue = [0, 9, 0, 4]\nclass = monitoring", fillcolor="#99f191"] ;
220 -> 228 ;
229 [label="variance_out <= 124475.402\ngini = 0.493\nsamples = 134\nvalue = [0, 59, 0, 75]\nclass = no_plugin", fillcolor="#f6d5f9"] ;
219 -> 229 ;
230 [label="variance <= 410184.062\ngini = 0.475\nsamples = 121\nvalue = [0, 47, 0, 74]\nclass = no_plugin", fillcolor="#f0b7f6"] ;
229 -> 230 ;
231 [label="s_durat <= 0.334\ngini = 0.461\nsamples = 111\nvalue = [0, 40, 0, 71]\nclass = no_plugin", fillcolor="#eea9f4"] ;
230 -> 231 ;
232 [label="gini = 0.498\nsamples = 34\nvalue = [0, 18, 0, 16]\nclass = monitoring", fillcolor="#ebfce9"] ;
231 -> 232 ;
233 [label="gini = 0.408\nsamples = 77\nvalue = [0, 22, 0, 55]\nclass = no_plugin", fillcolor="#e788ef"] ;
231 -> 233 ;
234 [label="gini = 0.42\nsamples = 10\nvalue = [0, 7, 0, 3]\nclass = monitoring", fillcolor="#96f08e"] ;
230 -> 234 ;
235 [label="gini = 0.142\nsamples = 13\nvalue = [0, 12, 0, 1]\nclass = monitoring", fillcolor="#56e749"] ;
229 -> 235 ;
236 [label="c_bytes_all <= 3594.0\ngini = 0.5\nsamples = 331\nvalue = [0, 161, 0, 170]\nclass = no_plugin", fillcolor="#fdf5fe"] ;
190 -> 236 ;
237 [label="s_durat <= 0.329\ngini = 0.49\nsamples = 133\nvalue = [0, 76, 0, 57]\nclass = monitoring", fillcolor="#d1f8ce"] ;
236 -> 237 ;
238 [label="variance <= 396568.625\ngini = 0.491\nsamples = 53\nvalue = [0, 23, 0, 30]\nclass = no_plugin", fillcolor="#f6d1f9"] ;
237 -> 238 ;
239 [label="gini = 0.444\nsamples = 15\nvalue = [0, 10, 0, 5]\nclass = monitoring", fillcolor="#a3f29c"] ;
238 -> 239 ;
240 [label="c_durat <= 0.316\ngini = 0.45\nsamples = 38\nvalue = [0, 13, 0, 25]\nclass = no_plugin", fillcolor="#eca0f3"] ;
238 -> 240 ;
241 [label="gini = 0.36\nsamples = 17\nvalue = [0, 4, 0, 13]\nclass = no_plugin", fillcolor="#e376ed"] ;
240 -> 241 ;
242 [label="s_durat <= 0.326\ngini = 0.49\nsamples = 21\nvalue = [0, 9, 0, 12]\nclass = no_plugin", fillcolor="#f5cef8"] ;
240 -> 242 ;
243 [label="gini = 0.48\nsamples = 10\nvalue = [0, 6, 0, 4]\nclass = monitoring", fillcolor="#c2f6bd"] ;
242 -> 243 ;
244 [label="gini = 0.397\nsamples = 11\nvalue = [0, 3, 0, 8]\nclass = no_plugin", fillcolor="#e683ef"] ;
242 -> 244 ;
245 [label="variance_in <= 128861.5\ngini = 0.447\nsamples = 80\nvalue = [0, 53, 0, 27]\nclass = monitoring", fillcolor="#a5f29e"] ;
237 -> 245 ;
246 [label="c_durat <= 0.317\ngini = 0.494\nsamples = 47\nvalue = [0, 26, 0, 21]\nclass = monitoring", fillcolor="#dcfad9"] ;
245 -> 246 ;
247 [label="gini = 0.32\nsamples = 10\nvalue = [0, 8, 0, 2]\nclass = monitoring", fillcolor="#75ec6a"] ;
246 -> 247 ;
248 [label="s_durat <= 0.334\ngini = 0.5\nsamples = 37\nvalue = [0, 18, 0, 19]\nclass = no_plugin", fillcolor="#fdf5fe"] ;
246 -> 248 ;
249 [label="s_durat <= 0.331\ngini = 0.463\nsamples = 22\nvalue = [0, 8, 0, 14]\nclass = no_plugin", fillcolor="#eeaaf4"] ;
248 -> 249 ;
250 [label="gini = 0.496\nsamples = 11\nvalue = [0, 6, 0, 5]\nclass = monitoring", fillcolor="#e0fbde"] ;
249 -> 250 ;
251 [label="gini = 0.298\nsamples = 11\nvalue = [0, 2, 0, 9]\nclass = no_plugin", fillcolor="#e065eb"] ;
249 -> 251 ;
252 [label="gini = 0.444\nsamples = 15\nvalue = [0, 10, 0, 5]\nclass = monitoring", fillcolor="#a3f29c"] ;
248 -> 252 ;
253 [label="c_durat <= 0.321\ngini = 0.298\nsamples = 33\nvalue = [0, 27, 0, 6]\nclass = monitoring", fillcolor="#70eb65"] ;
245 -> 253 ;
254 [label="gini = 0.486\nsamples = 12\nvalue = [0, 7, 0, 5]\nclass = monitoring", fillcolor="#caf8c6"] ;
253 -> 254 ;
255 [label="s_durat <= 0.337\ngini = 0.091\nsamples = 21\nvalue = [0, 20, 0, 1]\nclass = monitoring", fillcolor="#50e643"] ;
253 -> 255 ;
256 [label="gini = 0.0\nsamples = 11\nvalue = [0, 11, 0, 0]\nclass = monitoring", fillcolor="#47e539"] ;
255 -> 256 ;
257 [label="gini = 0.18\nsamples = 10\nvalue = [0, 9, 0, 1]\nclass = monitoring", fillcolor="#5be84f"] ;
255 -> 257 ;
258 [label="s_durat <= 0.342\ngini = 0.49\nsamples = 198\nvalue = [0, 85, 0, 113]\nclass = no_plugin", fillcolor="#f5cef9"] ;
236 -> 258 ;
259 [label="s_durat <= 0.34\ngini = 0.481\nsamples = 169\nvalue = [0, 68, 0, 101]\nclass = no_plugin", fillcolor="#f2bef7"] ;
258 -> 259 ;
260 [label="s_durat <= 0.339\ngini = 0.49\nsamples = 151\nvalue = [0, 65, 0, 86]\nclass = no_plugin", fillcolor="#f5cff9"] ;
259 -> 260 ;
261 [label="variance <= 405905.641\ngini = 0.475\nsamples = 131\nvalue = [0, 51, 0, 80]\nclass = no_plugin", fillcolor="#f0b7f6"] ;
260 -> 261 ;
262 [label="s_durat <= 0.337\ngini = 0.434\nsamples = 88\nvalue = [0, 28, 0, 60]\nclass = no_plugin", fillcolor="#ea95f1"] ;
261 -> 262 ;
263 [label="gini = 0.467\nsamples = 70\nvalue = [0, 26, 0, 44]\nclass = no_plugin", fillcolor="#efaef4"] ;
262 -> 263 ;
264 [label="gini = 0.198\nsamples = 18\nvalue = [0, 2, 0, 16]\nclass = no_plugin", fillcolor="#dc52e8"] ;
262 -> 264 ;
265 [label="s_durat <= 0.336\ngini = 0.498\nsamples = 43\nvalue = [0, 23, 0, 20]\nclass = monitoring", fillcolor="#e7fce5"] ;
261 -> 265 ;
266 [label="gini = 0.472\nsamples = 21\nvalue = [0, 8, 0, 13]\nclass = no_plugin", fillcolor="#f0b3f5"] ;
265 -> 266 ;
267 [label="gini = 0.434\nsamples = 22\nvalue = [0, 15, 0, 7]\nclass = monitoring", fillcolor="#9df195"] ;
265 -> 267 ;
268 [label="variance <= 402697.047\ngini = 0.42\nsamples = 20\nvalue = [0, 14, 0, 6]\nclass = monitoring", fillcolor="#96f08e"] ;
260 -> 268 ;
269 [label="gini = 0.18\nsamples = 10\nvalue = [0, 9, 0, 1]\nclass = monitoring", fillcolor="#5be84f"] ;
268 -> 269 ;
270 [label="gini = 0.5\nsamples = 10\nvalue = [0, 5, 0, 5]\nclass = monitoring", fillcolor="#ffffff"] ;
268 -> 270 ;
271 [label="gini = 0.278\nsamples = 18\nvalue = [0, 3, 0, 15]\nclass = no_plugin", fillcolor="#df61ea"] ;
259 -> 271 ;
272 [label="ratio_bytes <= 0.048\ngini = 0.485\nsamples = 29\nvalue = [0, 17, 0, 12]\nclass = monitoring", fillcolor="#c9f7c5"] ;
258 -> 272 ;
273 [label="gini = 0.499\nsamples = 19\nvalue = [0, 9, 0, 10]\nclass = no_plugin", fillcolor="#fbebfc"] ;
272 -> 273 ;
274 [label="gini = 0.32\nsamples = 10\nvalue = [0, 8, 0, 2]\nclass = monitoring", fillcolor="#75ec6a"] ;
272 -> 274 ;
275 [label="s_bytes_all <= 79175.0\ngini = 0.325\nsamples = 304\nvalue = [0, 62, 0, 242]\nclass = no_plugin", fillcolor="#e16cec"] ;
189 -> 275 ;
276 [label="s_durat <= 0.337\ngini = 0.392\nsamples = 194\nvalue = [0, 52, 0, 142]\nclass = no_plugin", fillcolor="#e682ef"] ;
275 -> 276 ;
277 [label="s_durat <= 0.33\ngini = 0.294\nsamples = 106\nvalue = [0, 19, 0, 87]\nclass = no_plugin", fillcolor="#e064eb"] ;
276 -> 277 ;
278 [label="gini = 0.0\nsamples = 12\nvalue = [0, 0, 0, 12]\nclass = no_plugin", fillcolor="#d739e5"] ;
277 -> 278 ;
279 [label="c_durat <= 0.324\ngini = 0.323\nsamples = 94\nvalue = [0, 19, 0, 75]\nclass = no_plugin", fillcolor="#e16bec"] ;
277 -> 279 ;
280 [label="gini = 0.473\nsamples = 13\nvalue = [0, 5, 0, 8]\nclass = no_plugin", fillcolor="#f0b5f5"] ;
279 -> 280 ;
281 [label="s_durat <= 0.333\ngini = 0.286\nsamples = 81\nvalue = [0, 14, 0, 67]\nclass = no_plugin", fillcolor="#df62ea"] ;
279 -> 281 ;
282 [label="gini = 0.444\nsamples = 12\nvalue = [0, 4, 0, 8]\nclass = no_plugin", fillcolor="#eb9cf2"] ;
281 -> 282 ;
283 [label="variance_in <= 129199.355\ngini = 0.248\nsamples = 69\nvalue = [0, 10, 0, 59]\nclass = no_plugin", fillcolor="#de5be9"] ;
281 -> 283 ;
284 [label="s_durat <= 0.337\ngini = 0.153\nsamples = 36\nvalue = [0, 3, 0, 33]\nclass = no_plugin", fillcolor="#db4be7"] ;
283 -> 284 ;
285 [label="gini = 0.077\nsamples = 25\nvalue = [0, 1, 0, 24]\nclass = no_plugin", fillcolor="#d941e6"] ;
284 -> 285 ;
286 [label="gini = 0.298\nsamples = 11\nvalue = [0, 2, 0, 9]\nclass = no_plugin", fillcolor="#e065eb"] ;
284 -> 286 ;
287 [label="s_durat <= 0.334\ngini = 0.334\nsamples = 33\nvalue = [0, 7, 0, 26]\nclass = no_plugin", fillcolor="#e26eec"] ;
283 -> 287 ;
288 [label="gini = 0.0\nsamples = 13\nvalue = [0, 0, 0, 13]\nclass = no_plugin", fillcolor="#d739e5"] ;
287 -> 288 ;
289 [label="gini = 0.455\nsamples = 20\nvalue = [0, 7, 0, 13]\nclass = no_plugin", fillcolor="#eda4f3"] ;
287 -> 289 ;
290 [label="s_durat <= 0.342\ngini = 0.469\nsamples = 88\nvalue = [0, 33, 0, 55]\nclass = no_plugin", fillcolor="#efb0f5"] ;
276 -> 290 ;
291 [label="variance_in <= 123507.18\ngini = 0.499\nsamples = 59\nvalue = [0, 28, 0, 31]\nclass = no_plugin", fillcolor="#fbecfc"] ;
290 -> 291 ;
292 [label="ratio_pkts <= 0.504\ngini = 0.444\nsamples = 27\nvalue = [0, 9, 0, 18]\nclass = no_plugin", fillcolor="#eb9cf2"] ;
291 -> 292 ;
293 [label="gini = 0.5\nsamples = 12\nvalue = [0, 6, 0, 6]\nclass = monitoring", fillcolor="#ffffff"] ;
292 -> 293 ;
294 [label="gini = 0.32\nsamples = 15\nvalue = [0, 3, 0, 12]\nclass = no_plugin", fillcolor="#e16aec"] ;
292 -> 294 ;
295 [label="s_durat <= 0.339\ngini = 0.482\nsamples = 32\nvalue = [0, 19, 0, 13]\nclass = monitoring", fillcolor="#c5f7c0"] ;
291 -> 295 ;
296 [label="gini = 0.499\nsamples = 19\nvalue = [0, 9, 0, 10]\nclass = no_plugin", fillcolor="#fbebfc"] ;
295 -> 296 ;
297 [label="gini = 0.355\nsamples = 13\nvalue = [0, 10, 0, 3]\nclass = monitoring", fillcolor="#7eed74"] ;
295 -> 297 ;
298 [label="variance_in <= 127778.301\ngini = 0.285\nsamples = 29\nvalue = [0, 5, 0, 24]\nclass = no_plugin", fillcolor="#df62ea"] ;
290 -> 298 ;
299 [label="gini = 0.188\nsamples = 19\nvalue = [0, 2, 0, 17]\nclass = no_plugin", fillcolor="#dc50e8"] ;
298 -> 299 ;
300 [label="gini = 0.42\nsamples = 10\nvalue = [0, 3, 0, 7]\nclass = no_plugin", fillcolor="#e88ef0"] ;
298 -> 300 ;
301 [label="variance <= 403906.938\ngini = 0.165\nsamples = 110\nvalue = [0, 10, 0, 100]\nclass = no_plugin", fillcolor="#db4de8"] ;
275 -> 301 ;
302 [label="gini = 0.432\nsamples = 19\nvalue = [0, 6, 0, 13]\nclass = no_plugin", fillcolor="#e994f1"] ;
301 -> 302 ;
303 [label="s_durat <= 0.343\ngini = 0.084\nsamples = 91\nvalue = [0, 4, 0, 87]\nclass = no_plugin", fillcolor="#d942e6"] ;
301 -> 303 ;
304 [label="gini = 0.0\nsamples = 48\nvalue = [0, 0, 0, 48]\nclass = no_plugin", fillcolor="#d739e5"] ;
303 -> 304 ;
305 [label="variance_in <= 117245.016\ngini = 0.169\nsamples = 43\nvalue = [0, 4, 0, 39]\nclass = no_plugin", fillcolor="#db4de8"] ;
303 -> 305 ;
306 [label="gini = 0.0\nsamples = 16\nvalue = [0, 0, 0, 16]\nclass = no_plugin", fillcolor="#d739e5"] ;
305 -> 306 ;
307 [label="s_durat <= 0.345\ngini = 0.252\nsamples = 27\nvalue = [0, 4, 0, 23]\nclass = no_plugin", fillcolor="#de5bea"] ;
305 -> 307 ;
308 [label="gini = 0.375\nsamples = 16\nvalue = [0, 4, 0, 12]\nclass = no_plugin", fillcolor="#e47bee"] ;
307 -> 308 ;
309 [label="gini = 0.0\nsamples = 11\nvalue = [0, 0, 0, 11]\nclass = no_plugin", fillcolor="#d739e5"] ;
307 -> 309 ;
310 [label="average_c_bytes <= 114.676\ngini = 0.502\nsamples = 838\nvalue = [1, 425, 1, 411]\nclass = monitoring", fillcolor="#f9fef9"] ;
188 -> 310 ;
311 [label="variance <= 414304.938\ngini = 0.445\nsamples = 284\nvalue = [0, 95, 0, 189]\nclass = no_plugin", fillcolor="#eb9df2"] ;
310 -> 311 ;
312 [label="s_durat <= 0.352\ngini = 0.491\nsamples = 153\nvalue = [0, 66, 0, 87]\nclass = no_plugin", fillcolor="#f5cff9"] ;
311 -> 312 ;
313 [label="s_durat <= 0.35\ngini = 0.34\nsamples = 23\nvalue = [0, 18, 0, 5]\nclass = monitoring", fillcolor="#7aec70"] ;
312 -> 313 ;
314 [label="gini = 0.463\nsamples = 11\nvalue = [0, 7, 0, 4]\nclass = monitoring", fillcolor="#b0f4aa"] ;
313 -> 314 ;
315 [label="gini = 0.153\nsamples = 12\nvalue = [0, 11, 0, 1]\nclass = monitoring", fillcolor="#58e74b"] ;
313 -> 315 ;
316 [label="ratio_bytes <= 0.04\ngini = 0.466\nsamples = 130\nvalue = [0, 48, 0, 82]\nclass = no_plugin", fillcolor="#eeadf4"] ;
312 -> 316 ;
317 [label="c_durat <= 0.348\ngini = 0.428\nsamples = 116\nvalue = [0, 36, 0, 80]\nclass = no_plugin", fillcolor="#e992f1"] ;
316 -> 317 ;
318 [label="variance <= 406012.234\ngini = 0.397\nsamples = 99\nvalue = [0, 27, 0, 72]\nclass = no_plugin", fillcolor="#e683ef"] ;
317 -> 318 ;
319 [label="gini = 0.496\nsamples = 11\nvalue = [0, 6, 0, 5]\nclass = monitoring", fillcolor="#e0fbde"] ;
318 -> 319 ;
320 [label="s_durat <= 0.357\ngini = 0.363\nsamples = 88\nvalue = [0, 21, 0, 67]\nclass = no_plugin", fillcolor="#e477ed"] ;
318 -> 320 ;
321 [label="s_durat <= 0.356\ngini = 0.431\nsamples = 54\nvalue = [0, 17, 0, 37]\nclass = no_plugin", fillcolor="#e994f1"] ;
320 -> 321 ;
322 [label="gini = 0.363\nsamples = 42\nvalue = [0, 10, 0, 32]\nclass = no_plugin", fillcolor="#e477ed"] ;
321 -> 322 ;
323 [label="gini = 0.486\nsamples = 12\nvalue = [0, 7, 0, 5]\nclass = monitoring", fillcolor="#caf8c6"] ;
321 -> 323 ;
324 [label="s_durat <= 0.36\ngini = 0.208\nsamples = 34\nvalue = [0, 4, 0, 30]\nclass = no_plugin", fillcolor="#dc53e8"] ;
320 -> 324 ;
325 [label="gini = 0.0\nsamples = 18\nvalue = [0, 0, 0, 18]\nclass = no_plugin", fillcolor="#d739e5"] ;
324 -> 325 ;
326 [label="gini = 0.375\nsamples = 16\nvalue = [0, 4, 0, 12]\nclass = no_plugin", fillcolor="#e47bee"] ;
324 -> 326 ;
327 [label="gini = 0.498\nsamples = 17\nvalue = [0, 9, 0, 8]\nclass = monitoring", fillcolor="#ebfce9"] ;
317 -> 327 ;
328 [label="gini = 0.245\nsamples = 14\nvalue = [0, 12, 0, 2]\nclass = monitoring", fillcolor="#66e95a"] ;
316 -> 328 ;
329 [label="ratio_pkts <= 0.528\ngini = 0.345\nsamples = 131\nvalue = [0, 29, 0, 102]\nclass = no_plugin", fillcolor="#e271ec"] ;
311 -> 329 ;
330 [label="s_durat <= 0.375\ngini = 0.384\nsamples = 112\nvalue = [0, 29, 0, 83]\nclass = no_plugin", fillcolor="#e57eee"] ;
329 -> 330 ;
331 [label="s_durat <= 0.355\ngini = 0.335\nsamples = 94\nvalue = [0, 20, 0, 74]\nclass = no_plugin", fillcolor="#e26fec"] ;
330 -> 331 ;
332 [label="s_durat <= 0.352\ngini = 0.48\nsamples = 30\nvalue = [0, 12, 0, 18]\nclass = no_plugin", fillcolor="#f2bdf6"] ;
331 -> 332 ;
333 [label="gini = 0.142\nsamples = 13\nvalue = [0, 1, 0, 12]\nclass = no_plugin", fillcolor="#da49e7"] ;
332 -> 333 ;
334 [label="gini = 0.457\nsamples = 17\nvalue = [0, 11, 0, 6]\nclass = monitoring", fillcolor="#abf3a5"] ;
332 -> 334 ;
335 [label="c_durat <= 0.354\ngini = 0.219\nsamples = 64\nvalue = [0, 8, 0, 56]\nclass = no_plugin", fillcolor="#dd55e9"] ;
331 -> 335 ;
336 [label="variance <= 416512.328\ngini = 0.142\nsamples = 52\nvalue = [0, 4, 0, 48]\nclass = no_plugin", fillcolor="#da49e7"] ;
335 -> 336 ;
337 [label="gini = 0.0\nsamples = 20\nvalue = [0, 0, 0, 20]\nclass = no_plugin", fillcolor="#d739e5"] ;
336 -> 337 ;
338 [label="c_durat <= 0.349\ngini = 0.219\nsamples = 32\nvalue = [0, 4, 0, 28]\nclass = no_plugin", fillcolor="#dd55e9"] ;
336 -> 338 ;
339 [label="gini = 0.408\nsamples = 14\nvalue = [0, 4, 0, 10]\nclass = no_plugin", fillcolor="#e788ef"] ;
338 -> 339 ;
340 [label="gini = 0.0\nsamples = 18\nvalue = [0, 0, 0, 18]\nclass = no_plugin", fillcolor="#d739e5"] ;
338 -> 340 ;
341 [label="gini = 0.444\nsamples = 12\nvalue = [0, 4, 0, 8]\nclass = no_plugin", fillcolor="#eb9cf2"] ;
335 -> 341 ;
342 [label="gini = 0.5\nsamples = 18\nvalue = [0, 9, 0, 9]\nclass = monitoring", fillcolor="#ffffff"] ;
330 -> 342 ;
343 [label="gini = 0.0\nsamples = 19\nvalue = [0, 0, 0, 19]\nclass = no_plugin", fillcolor="#d739e5"] ;
329 -> 343 ;
344 [label="s_durat <= 0.66\ngini = 0.485\nsamples = 554\nvalue = [1, 330, 1, 222]\nclass = monitoring", fillcolor="#c3f7bf"] ;
310 -> 344 ;
345 [label="s_durat <= 0.416\ngini = 0.461\nsamples = 432\nvalue = [0, 276, 0, 156]\nclass = monitoring", fillcolor="#aff4a9"] ;
344 -> 345 ;
346 [label="s_durat <= 0.353\ngini = 0.49\nsamples = 338\nvalue = [0, 193, 0, 145]\nclass = monitoring", fillcolor="#d1f9ce"] ;
345 -> 346 ;
347 [label="ratio_pkts <= 0.449\ngini = 0.429\nsamples = 135\nvalue = [0, 93, 0, 42]\nclass = monitoring", fillcolor="#9af192"] ;
346 -> 347 ;
348 [label="s_durat <= 0.348\ngini = 0.198\nsamples = 36\nvalue = [0, 32, 0, 4]\nclass = monitoring", fillcolor="#5ee852"] ;
347 -> 348 ;
349 [label="gini = 0.375\nsamples = 12\nvalue = [0, 9, 0, 3]\nclass = monitoring", fillcolor="#84ee7b"] ;
348 -> 349 ;
350 [label="s_durat <= 0.351\ngini = 0.08\nsamples = 24\nvalue = [0, 23, 0, 1]\nclass = monitoring", fillcolor="#4fe642"] ;
348 -> 350 ;
351 [label="gini = 0.0\nsamples = 14\nvalue = [0, 14, 0, 0]\nclass = monitoring", fillcolor="#47e539"] ;
350 -> 351 ;
352 [label="gini = 0.18\nsamples = 10\nvalue = [0, 9, 0, 1]\nclass = monitoring", fillcolor="#5be84f"] ;
350 -> 352 ;
353 [label="average_s_bytes <= 1279.623\ngini = 0.473\nsamples = 99\nvalue = [0, 61, 0, 38]\nclass = monitoring", fillcolor="#baf5b4"] ;
347 -> 353 ;
354 [label="ratio_bytes <= 0.049\ngini = 0.499\nsamples = 27\nvalue = [0, 13, 0, 14]\nclass = no_plugin", fillcolor="#fcf1fd"] ;
353 -> 354 ;
355 [label="gini = 0.397\nsamples = 11\nvalue = [0, 3, 0, 8]\nclass = no_plugin", fillcolor="#e683ef"] ;
354 -> 355 ;
356 [label="gini = 0.469\nsamples = 16\nvalue = [0, 10, 0, 6]\nclass = monitoring", fillcolor="#b5f5b0"] ;
354 -> 356 ;
357 [label="ratio_bytes <= 0.048\ngini = 0.444\nsamples = 72\nvalue = [0, 48, 0, 24]\nclass = monitoring", fillcolor="#a3f29c"] ;
353 -> 357 ;
358 [label="c_durat <= 0.334\ngini = 0.473\nsamples = 60\nvalue = [0, 37, 0, 23]\nclass = monitoring", fillcolor="#b9f5b4"] ;
357 -> 358 ;
359 [label="gini = 0.397\nsamples = 11\nvalue = [0, 3, 0, 8]\nclass = no_plugin", fillcolor="#e683ef"] ;
358 -> 359 ;
360 [label="gini = 0.425\nsamples = 49\nvalue = [0, 34, 0, 15]\nclass = monitoring", fillcolor="#98f090"] ;
358 -> 360 ;
361 [label="gini = 0.153\nsamples = 12\nvalue = [0, 11, 0, 1]\nclass = monitoring", fillcolor="#58e74b"] ;
357 -> 361 ;
362 [label="average_c_bytes <= 119.359\ngini = 0.5\nsamples = 203\nvalue = [0, 100, 0, 103]\nclass = no_plugin", fillcolor="#fef9fe"] ;
346 -> 362 ;
363 [label="c_durat <= 0.346\ngini = 0.47\nsamples = 61\nvalue = [0, 23, 0, 38]\nclass = no_plugin", fillcolor="#efb1f5"] ;
362 -> 363 ;
364 [label="variance <= 402528.375\ngini = 0.497\nsamples = 26\nvalue = [0, 14, 0, 12]\nclass = monitoring", fillcolor="#e5fbe3"] ;
363 -> 364 ;
365 [label="gini = 0.49\nsamples = 14\nvalue = [0, 6, 0, 8]\nclass = no_plugin", fillcolor="#f5cef8"] ;
364 -> 365 ;
366 [label="gini = 0.444\nsamples = 12\nvalue = [0, 8, 0, 4]\nclass = monitoring", fillcolor="#a3f29c"] ;
364 -> 366 ;
367 [label="s_durat <= 0.36\ngini = 0.382\nsamples = 35\nvalue = [0, 9, 0, 26]\nclass = no_plugin", fillcolor="#e57eee"] ;
363 -> 367 ;
368 [label="gini = 0.124\nsamples = 15\nvalue = [0, 1, 0, 14]\nclass = no_plugin", fillcolor="#da47e7"] ;
367 -> 368 ;
369 [label="s_durat <= 0.374\ngini = 0.48\nsamples = 20\nvalue = [0, 8, 0, 12]\nclass = no_plugin", fillcolor="#f2bdf6"] ;
367 -> 369 ;
370 [label="gini = 0.5\nsamples = 10\nvalue = [0, 5, 0, 5]\nclass = monitoring", fillcolor="#ffffff"] ;
369 -> 370 ;
371 [label="gini = 0.42\nsamples = 10\nvalue = [0, 3, 0, 7]\nclass = no_plugin", fillcolor="#e88ef0"] ;
369 -> 371 ;
372 [label="variance <= 368521.078\ngini = 0.496\nsamples = 142\nvalue = [0, 77, 0, 65]\nclass = monitoring", fillcolor="#e2fbe0"] ;
362 -> 372 ;
373 [label="gini = 0.401\nsamples = 18\nvalue = [0, 5, 0, 13]\nclass = no_plugin", fillcolor="#e685ef"] ;
372 -> 373 ;
374 [label="variance <= 391392.047\ngini = 0.487\nsamples = 124\nvalue = [0, 72, 0, 52]\nclass = monitoring", fillcolor="#ccf8c8"] ;
372 -> 374 ;
375 [label="gini = 0.231\nsamples = 15\nvalue = [0, 13, 0, 2]\nclass = monitoring", fillcolor="#63e957"] ;
374 -> 375 ;
376 [label="c_bytes_all <= 3781.5\ngini = 0.497\nsamples = 109\nvalue = [0, 59, 0, 50]\nclass = monitoring", fillcolor="#e3fbe1"] ;
374 -> 376 ;
377 [label="gini = 0.5\nsamples = 92\nvalue = [0, 46, 0, 46]\nclass = monitoring", fillcolor="#ffffff"] ;
376 -> 377 ;
378 [label="gini = 0.36\nsamples = 17\nvalue = [0, 13, 0, 4]\nclass = monitoring", fillcolor="#80ed76"] ;
376 -> 378 ;
379 [label="c_durat <= 0.52\ngini = 0.207\nsamples = 94\nvalue = [0, 83, 0, 11]\nclass = monitoring", fillcolor="#5fe853"] ;
345 -> 379 ;
380 [label="s_durat <= 0.455\ngini = 0.097\nsamples = 78\nvalue = [0, 74, 0, 4]\nclass = monitoring", fillcolor="#51e644"] ;
379 -> 380 ;
381 [label="gini = 0.266\nsamples = 19\nvalue = [0, 16, 0, 3]\nclass = monitoring", fillcolor="#6aea5e"] ;
380 -> 381 ;
382 [label="s_bytes_all <= 75314.5\ngini = 0.033\nsamples = 59\nvalue = [0, 58, 0, 1]\nclass = monitoring", fillcolor="#4ae53c"] ;
380 -> 382 ;
383 [label="gini = 0.117\nsamples = 16\nvalue = [0, 15, 0, 1]\nclass = monitoring", fillcolor="#53e746"] ;
382 -> 383 ;
384 [label="gini = 0.0\nsamples = 43\nvalue = [0, 43, 0, 0]\nclass = monitoring", fillcolor="#47e539"] ;
382 -> 384 ;
385 [label="gini = 0.492\nsamples = 16\nvalue = [0, 9, 0, 7]\nclass = monitoring", fillcolor="#d6f9d3"] ;
379 -> 385 ;
386 [label="c_durat <= 0.659\ngini = 0.511\nsamples = 122\nvalue = [1, 54, 1, 66]\nclass = no_plugin", fillcolor="#f8dcfa"] ;
344 -> 386 ;
387 [label="s_durat <= 0.744\ngini = 0.375\nsamples = 36\nvalue = [0, 9, 0, 27]\nclass = no_plugin", fillcolor="#e47bee"] ;
386 -> 387 ;
388 [label="c_bytes_all <= 3752.5\ngini = 0.476\nsamples = 23\nvalue = [0, 9, 0, 14]\nclass = no_plugin", fillcolor="#f1b8f6"] ;
387 -> 388 ;
389 [label="gini = 0.444\nsamples = 12\nvalue = [0, 8, 0, 4]\nclass = monitoring", fillcolor="#a3f29c"] ;
388 -> 389 ;
390 [label="gini = 0.165\nsamples = 11\nvalue = [0, 1, 0, 10]\nclass = no_plugin", fillcolor="#db4de8"] ;
388 -> 390 ;
391 [label="gini = 0.0\nsamples = 13\nvalue = [0, 0, 0, 13]\nclass = no_plugin", fillcolor="#d739e5"] ;
387 -> 391 ;
392 [label="ratio_pkts <= 0.442\ngini = 0.52\nsamples = 86\nvalue = [1, 45, 1, 39]\nclass = monitoring", fillcolor="#e8fce6"] ;
386 -> 392 ;
393 [label="gini = 0.18\nsamples = 10\nvalue = [0, 9, 0, 1]\nclass = monitoring", fillcolor="#5be84f"] ;
392 -> 393 ;
394 [label="variance <= 385778.984\ngini = 0.525\nsamples = 76\nvalue = [1, 36, 1, 38]\nclass = no_plugin", fillcolor="#fdf5fe"] ;
392 -> 394 ;
395 [label="gini = 0.531\nsamples = 14\nvalue = [1, 9, 1, 3]\nclass = monitoring", fillcolor="#9bf193"] ;
394 -> 395 ;
396 [label="variance <= 400404.562\ngini = 0.492\nsamples = 62\nvalue = [0, 27, 0, 35]\nclass = no_plugin", fillcolor="#f6d2f9"] ;
394 -> 396 ;
397 [label="gini = 0.26\nsamples = 13\nvalue = [0, 2, 0, 11]\nclass = no_plugin", fillcolor="#de5dea"] ;
396 -> 397 ;
398 [label="ratio_bytes <= 0.056\ngini = 0.5\nsamples = 49\nvalue = [0, 25, 0, 24]\nclass = monitoring", fillcolor="#f8fef7"] ;
396 -> 398 ;
399 [label="variance <= 407395.906\ngini = 0.484\nsamples = 39\nvalue = [0, 16, 0, 23]\nclass = no_plugin", fillcolor="#f3c3f7"] ;
398 -> 399 ;
400 [label="gini = 0.494\nsamples = 18\nvalue = [0, 10, 0, 8]\nclass = monitoring", fillcolor="#dafad7"] ;
399 -> 400 ;
401 [label="gini = 0.408\nsamples = 21\nvalue = [0, 6, 0, 15]\nclass = no_plugin", fillcolor="#e788ef"] ;
399 -> 401 ;
402 [label="gini = 0.18\nsamples = 10\nvalue = [0, 9, 0, 1]\nclass = monitoring", fillcolor="#5be84f"] ;
398 -> 402 ;
403 [label="variance_in <= 162079.469\ngini = 0.506\nsamples = 53\nvalue = [0, 9, 35, 9]\nclass = multipath", fillcolor="#8ac5f0"] ;
187 -> 403 ;
404 [label="gini = 0.49\nsamples = 14\nvalue = [0, 8, 0, 6]\nclass = monitoring", fillcolor="#d1f8ce"] ;
403 -> 404 ;
405 [label="s_durat <= 0.775\ngini = 0.188\nsamples = 39\nvalue = [0, 1, 35, 3]\nclass = multipath", fillcolor="#4fa8e8"] ;
403 -> 405 ;
406 [label="gini = 0.0\nsamples = 29\nvalue = [0, 0, 29, 0]\nclass = multipath", fillcolor="#399de5"] ;
405 -> 406 ;
407 [label="gini = 0.54\nsamples = 10\nvalue = [0, 1, 6, 3]\nclass = multipath", fillcolor="#aad5f4"] ;
405 -> 407 ;
408 [label="c_bytes_all <= 4306.0\ngini = 0.026\nsamples = 2391\nvalue = [3, 18, 2360, 10]\nclass = multipath", fillcolor="#3c9ee5"] ;
4 -> 408 ;
409 [label="variance_out <= 176286.32\ngini = 0.558\nsamples = 22\nvalue = [3, 13, 0, 6]\nclass = monitoring", fillcolor="#aef4a8"] ;
408 -> 409 ;
410 [label="gini = 0.66\nsamples = 10\nvalue = [3, 3, 0, 4]\nclass = no_plugin", fillcolor="#f9e3fb"] ;
409 -> 410 ;
411 [label="gini = 0.278\nsamples = 12\nvalue = [0, 10, 0, 2]\nclass = monitoring", fillcolor="#6cea61"] ;
409 -> 411 ;
412 [label="average_c_bytes <= 407.964\ngini = 0.008\nsamples = 2369\nvalue = [0, 5, 2360, 4]\nclass = multipath", fillcolor="#3a9de5"] ;
408 -> 412 ;
413 [label="s_durat <= 2.029\ngini = 0.003\nsamples = 2359\nvalue = [0, 2, 2356, 1]\nclass = multipath", fillcolor="#399de5"] ;
412 -> 413 ;
414 [label="c_durat <= 0.615\ngini = 0.001\nsamples = 2347\nvalue = [0, 1, 2346, 0]\nclass = multipath", fillcolor="#399de5"] ;
413 -> 414 ;
415 [label="gini = 0.18\nsamples = 10\nvalue = [0, 1, 9, 0]\nclass = multipath", fillcolor="#4fa8e8"] ;
414 -> 415 ;
416 [label="gini = 0.0\nsamples = 2337\nvalue = [0, 0, 2337, 0]\nclass = multipath", fillcolor="#399de5"] ;
414 -> 416 ;
417 [label="gini = 0.292\nsamples = 12\nvalue = [0, 1, 10, 1]\nclass = multipath", fillcolor="#5dafea"] ;
413 -> 417 ;
418 [label="gini = 0.66\nsamples = 10\nvalue = [0, 3, 4, 3]\nclass = multipath", fillcolor="#e3f1fb"] ;
412 -> 418 ;
}
