digraph Tree {
node [shape=box, style="filled, rounded", color="black", fontname="helvetica"] ;
edge [fontname="helvetica"] ;
0 [label="average_s_bytes <= 776.325\ngini = 0.75\nsamples = 9600\nvalue = [2400, 2400, 2400, 2400]\nclass = fec", fillcolor="#ffffff"] ;
1 [label="variance_out <= 413609.094\ngini = 0.003\nsamples = 2396\nvalue = [2393, 1, 1, 1]\nclass = fec", fillcolor="#e58139"] ;
0 -> 1 [labeldistance=2.5, labelangle=45, headlabel="True"] ;
2 [label="c_durat <= 31.154\ngini = 0.001\nsamples = 2384\nvalue = [2383, 0, 1, 0]\nclass = fec", fillcolor="#e58139"] ;
1 -> 2 ;
3 [label="gini = 0.0\nsamples = 2374\nvalue = [2374, 0, 0, 0]\nclass = fec", fillcolor="#e58139"] ;
2 -> 3 ;
4 [label="gini = 0.18\nsamples = 10\nvalue = [9, 0, 1, 0]\nclass = fec", fillcolor="#e88f4f"] ;
2 -> 4 ;
5 [label="gini = 0.292\nsamples = 12\nvalue = [10, 1, 0, 1]\nclass = fec", fillcolor="#ea985d"] ;
1 -> 5 ;
6 [label="variance_in <= 200368.688\ngini = 0.667\nsamples = 7204\nvalue = [7, 2399, 2399, 2399]\nclass = monitoring", fillcolor="#ffffff"] ;
0 -> 6 [labeldistance=2.5, labelangle=-45, headlabel="False"] ;
7 [label="ratio_pkts <= 0.439\ngini = 0.508\nsamples = 4806\nvalue = [3, 2375, 38, 2390]\nclass = no_plugin", fillcolor="#fffeff"] ;
6 -> 7 ;
8 [label="s_durat <= 0.208\ngini = 0.477\nsamples = 2375\nvalue = [2, 1446, 1, 926]\nclass = monitoring", fillcolor="#bdf6b8"] ;
7 -> 8 ;
9 [label="s_durat <= 0.208\ngini = 0.13\nsamples = 100\nvalue = [0, 7, 0, 93]\nclass = no_plugin", fillcolor="#da48e7"] ;
8 -> 9 ;
10 [label="s_durat <= 0.205\ngini = 0.066\nsamples = 88\nvalue = [0, 3, 0, 85]\nclass = no_plugin", fillcolor="#d840e6"] ;
9 -> 10 ;
11 [label="gini = 0.32\nsamples = 10\nvalue = [0, 2, 0, 8]\nclass = no_plugin", fillcolor="#e16aec"] ;
10 -> 11 ;
12 [label="variance <= 324265.531\ngini = 0.025\nsamples = 78\nvalue = [0, 1, 0, 77]\nclass = no_plugin", fillcolor="#d83ce5"] ;
10 -> 12 ;
13 [label="gini = 0.0\nsamples = 65\nvalue = [0, 0, 0, 65]\nclass = no_plugin", fillcolor="#d739e5"] ;
12 -> 13 ;
14 [label="gini = 0.142\nsamples = 13\nvalue = [0, 1, 0, 12]\nclass = no_plugin", fillcolor="#da49e7"] ;
12 -> 14 ;
15 [label="gini = 0.444\nsamples = 12\nvalue = [0, 4, 0, 8]\nclass = no_plugin", fillcolor="#eb9cf2"] ;
9 -> 15 ;
16 [label="c_pkts_all <= 7.5\ngini = 0.466\nsamples = 2275\nvalue = [2, 1439, 1, 833]\nclass = monitoring", fillcolor="#b2f4ac"] ;
8 -> 16 ;
17 [label="c_durat <= 0.109\ngini = 0.3\nsamples = 204\nvalue = [2, 167, 0, 35]\nclass = monitoring", fillcolor="#6feb64"] ;
16 -> 17 ;
18 [label="s_durat <= 0.209\ngini = 0.198\nsamples = 108\nvalue = [0, 96, 0, 12]\nclass = monitoring", fillcolor="#5ee852"] ;
17 -> 18 ;
19 [label="c_durat <= 0.106\ngini = 0.417\nsamples = 27\nvalue = [0, 19, 0, 8]\nclass = monitoring", fillcolor="#94f08c"] ;
18 -> 19 ;
20 [label="gini = 0.117\nsamples = 16\nvalue = [0, 15, 0, 1]\nclass = monitoring", fillcolor="#53e746"] ;
19 -> 20 ;
21 [label="gini = 0.463\nsamples = 11\nvalue = [0, 4, 0, 7]\nclass = no_plugin", fillcolor="#eeaaf4"] ;
19 -> 21 ;
22 [label="c_durat <= 0.105\ngini = 0.094\nsamples = 81\nvalue = [0, 77, 0, 4]\nclass = monitoring", fillcolor="#51e643"] ;
18 -> 22 ;
23 [label="gini = 0.48\nsamples = 10\nvalue = [0, 6, 0, 4]\nclass = monitoring", fillcolor="#c2f6bd"] ;
22 -> 23 ;
24 [label="gini = 0.0\nsamples = 71\nvalue = [0, 71, 0, 0]\nclass = monitoring", fillcolor="#47e539"] ;
22 -> 24 ;
25 [label="s_bytes_all <= 20990.5\ngini = 0.395\nsamples = 96\nvalue = [2, 71, 0, 23]\nclass = monitoring", fillcolor="#86ee7d"] ;
17 -> 25 ;
26 [label="gini = 0.5\nsamples = 16\nvalue = [0, 8, 0, 8]\nclass = monitoring", fillcolor="#ffffff"] ;
25 -> 26 ;
27 [label="average_c_bytes <= 412.0\ngini = 0.344\nsamples = 80\nvalue = [2, 63, 0, 15]\nclass = monitoring", fillcolor="#77ec6d"] ;
25 -> 27 ;
28 [label="c_durat <= 0.116\ngini = 0.424\nsamples = 53\nvalue = [2, 38, 0, 13]\nclass = monitoring", fillcolor="#8cef83"] ;
27 -> 28 ;
29 [label="c_durat <= 0.113\ngini = 0.285\nsamples = 29\nvalue = [0, 24, 0, 5]\nclass = monitoring", fillcolor="#6dea62"] ;
28 -> 29 ;
30 [label="gini = 0.48\nsamples = 10\nvalue = [0, 6, 0, 4]\nclass = monitoring", fillcolor="#c2f6bd"] ;
29 -> 30 ;
31 [label="gini = 0.1\nsamples = 19\nvalue = [0, 18, 0, 1]\nclass = monitoring", fillcolor="#51e644"] ;
29 -> 31 ;
32 [label="s_durat <= 0.232\ngini = 0.542\nsamples = 24\nvalue = [2, 14, 0, 8]\nclass = monitoring", fillcolor="#baf5b5"] ;
28 -> 32 ;
33 [label="gini = 0.496\nsamples = 11\nvalue = [0, 5, 0, 6]\nclass = no_plugin", fillcolor="#f8defb"] ;
32 -> 33 ;
34 [label="gini = 0.473\nsamples = 13\nvalue = [2, 9, 0, 2]\nclass = monitoring", fillcolor="#8aee81"] ;
32 -> 34 ;
35 [label="s_durat <= 0.244\ngini = 0.137\nsamples = 27\nvalue = [0, 25, 0, 2]\nclass = monitoring", fillcolor="#56e749"] ;
27 -> 35 ;
36 [label="gini = 0.0\nsamples = 17\nvalue = [0, 17, 0, 0]\nclass = monitoring", fillcolor="#47e539"] ;
35 -> 36 ;
37 [label="gini = 0.32\nsamples = 10\nvalue = [0, 8, 0, 2]\nclass = monitoring", fillcolor="#75ec6a"] ;
35 -> 37 ;
38 [label="s_durat <= 0.222\ngini = 0.474\nsamples = 2071\nvalue = [0, 1272, 1, 798]\nclass = monitoring", fillcolor="#baf5b5"] ;
16 -> 38 ;
39 [label="ratio_bytes <= 0.103\ngini = 0.499\nsamples = 406\nvalue = [0, 192, 0, 214]\nclass = no_plugin", fillcolor="#fbebfc"] ;
38 -> 39 ;
40 [label="s_durat <= 0.22\ngini = 0.446\nsamples = 137\nvalue = [0, 46, 0, 91]\nclass = no_plugin", fillcolor="#eb9df2"] ;
39 -> 40 ;
41 [label="c_durat <= 0.116\ngini = 0.228\nsamples = 61\nvalue = [0, 8, 0, 53]\nclass = no_plugin", fillcolor="#dd57e9"] ;
40 -> 41 ;
42 [label="s_durat <= 0.219\ngini = 0.287\nsamples = 46\nvalue = [0, 8, 0, 38]\nclass = no_plugin", fillcolor="#df63ea"] ;
41 -> 42 ;
43 [label="c_durat <= 0.115\ngini = 0.17\nsamples = 32\nvalue = [0, 3, 0, 29]\nclass = no_plugin", fillcolor="#db4de8"] ;
42 -> 43 ;
44 [label="gini = 0.32\nsamples = 15\nvalue = [0, 3, 0, 12]\nclass = no_plugin", fillcolor="#e16aec"] ;
43 -> 44 ;
45 [label="gini = 0.0\nsamples = 17\nvalue = [0, 0, 0, 17]\nclass = no_plugin", fillcolor="#d739e5"] ;
43 -> 45 ;
46 [label="gini = 0.459\nsamples = 14\nvalue = [0, 5, 0, 9]\nclass = no_plugin", fillcolor="#eda7f3"] ;
42 -> 46 ;
47 [label="gini = 0.0\nsamples = 15\nvalue = [0, 0, 0, 15]\nclass = no_plugin", fillcolor="#d739e5"] ;
41 -> 47 ;
48 [label="c_durat <= 0.119\ngini = 0.5\nsamples = 76\nvalue = [0, 38, 0, 38]\nclass = monitoring", fillcolor="#ffffff"] ;
40 -> 48 ;
49 [label="s_durat <= 0.221\ngini = 0.456\nsamples = 57\nvalue = [0, 37, 0, 20]\nclass = monitoring", fillcolor="#aaf3a4"] ;
48 -> 49 ;
50 [label="c_durat <= 0.117\ngini = 0.5\nsamples = 24\nvalue = [0, 12, 0, 12]\nclass = monitoring", fillcolor="#ffffff"] ;
49 -> 50 ;
51 [label="gini = 0.298\nsamples = 11\nvalue = [0, 9, 0, 2]\nclass = monitoring", fillcolor="#70eb65"] ;
50 -> 51 ;
52 [label="gini = 0.355\nsamples = 13\nvalue = [0, 3, 0, 10]\nclass = no_plugin", fillcolor="#e374ed"] ;
50 -> 52 ;
53 [label="s_durat <= 0.221\ngini = 0.367\nsamples = 33\nvalue = [0, 25, 0, 8]\nclass = monitoring", fillcolor="#82ed78"] ;
49 -> 53 ;
54 [label="gini = 0.165\nsamples = 11\nvalue = [0, 10, 0, 1]\nclass = monitoring", fillcolor="#59e84d"] ;
53 -> 54 ;
55 [label="c_durat <= 0.118\ngini = 0.434\nsamples = 22\nvalue = [0, 15, 0, 7]\nclass = monitoring", fillcolor="#9df195"] ;
53 -> 55 ;
56 [label="gini = 0.5\nsamples = 10\nvalue = [0, 5, 0, 5]\nclass = monitoring", fillcolor="#ffffff"] ;
55 -> 56 ;
57 [label="gini = 0.278\nsamples = 12\nvalue = [0, 10, 0, 2]\nclass = monitoring", fillcolor="#6cea61"] ;
55 -> 57 ;
58 [label="gini = 0.1\nsamples = 19\nvalue = [0, 1, 0, 18]\nclass = no_plugin", fillcolor="#d944e6"] ;
48 -> 58 ;
59 [label="variance_in <= 177579.961\ngini = 0.496\nsamples = 269\nvalue = [0, 146, 0, 123]\nclass = monitoring", fillcolor="#e2fbe0"] ;
39 -> 59 ;
60 [label="s_durat <= 0.218\ngini = 0.499\nsamples = 230\nvalue = [0, 119, 0, 111]\nclass = monitoring", fillcolor="#f3fdf2"] ;
59 -> 60 ;
61 [label="c_durat <= 0.114\ngini = 0.498\nsamples = 143\nvalue = [0, 67, 0, 76]\nclass = no_plugin", fillcolor="#fae8fc"] ;
60 -> 61 ;
62 [label="ratio_bytes <= 0.105\ngini = 0.5\nsamples = 113\nvalue = [0, 57, 0, 56]\nclass = monitoring", fillcolor="#fcfffc"] ;
61 -> 62 ;
63 [label="s_durat <= 0.214\ngini = 0.484\nsamples = 51\nvalue = [0, 30, 0, 21]\nclass = monitoring", fillcolor="#c8f7c4"] ;
62 -> 63 ;
64 [label="gini = 0.498\nsamples = 15\nvalue = [0, 7, 0, 8]\nclass = no_plugin", fillcolor="#fae6fc"] ;
63 -> 64 ;
65 [label="c_durat <= 0.112\ngini = 0.461\nsamples = 36\nvalue = [0, 23, 0, 13]\nclass = monitoring", fillcolor="#aff4a9"] ;
63 -> 65 ;
66 [label="gini = 0.32\nsamples = 10\nvalue = [0, 8, 0, 2]\nclass = monitoring", fillcolor="#75ec6a"] ;
65 -> 66 ;
67 [label="gini = 0.488\nsamples = 26\nvalue = [0, 15, 0, 11]\nclass = monitoring", fillcolor="#cef8ca"] ;
65 -> 67 ;
68 [label="c_durat <= 0.113\ngini = 0.492\nsamples = 62\nvalue = [0, 27, 0, 35]\nclass = no_plugin", fillcolor="#f6d2f9"] ;
62 -> 68 ;
69 [label="s_durat <= 0.214\ngini = 0.499\nsamples = 52\nvalue = [0, 25, 0, 27]\nclass = no_plugin", fillcolor="#fcf0fd"] ;
68 -> 69 ;
70 [label="gini = 0.475\nsamples = 36\nvalue = [0, 14, 0, 22]\nclass = no_plugin", fillcolor="#f0b7f6"] ;
69 -> 70 ;
71 [label="gini = 0.43\nsamples = 16\nvalue = [0, 11, 0, 5]\nclass = monitoring", fillcolor="#9bf193"] ;
69 -> 71 ;
72 [label="gini = 0.32\nsamples = 10\nvalue = [0, 2, 0, 8]\nclass = no_plugin", fillcolor="#e16aec"] ;
68 -> 72 ;
73 [label="c_durat <= 0.114\ngini = 0.444\nsamples = 30\nvalue = [0, 10, 0, 20]\nclass = no_plugin", fillcolor="#eb9cf2"] ;
61 -> 73 ;
74 [label="gini = 0.18\nsamples = 10\nvalue = [0, 1, 0, 9]\nclass = no_plugin", fillcolor="#db4fe8"] ;
73 -> 74 ;
75 [label="c_durat <= 0.115\ngini = 0.495\nsamples = 20\nvalue = [0, 9, 0, 11]\nclass = no_plugin", fillcolor="#f8dbfa"] ;
73 -> 75 ;
76 [label="gini = 0.48\nsamples = 10\nvalue = [0, 6, 0, 4]\nclass = monitoring", fillcolor="#c2f6bd"] ;
75 -> 76 ;
77 [label="gini = 0.42\nsamples = 10\nvalue = [0, 3, 0, 7]\nclass = no_plugin", fillcolor="#e88ef0"] ;
75 -> 77 ;
78 [label="s_durat <= 0.219\ngini = 0.481\nsamples = 87\nvalue = [0, 52, 0, 35]\nclass = monitoring", fillcolor="#c3f6be"] ;
60 -> 78 ;
79 [label="c_durat <= 0.115\ngini = 0.388\nsamples = 38\nvalue = [0, 28, 0, 10]\nclass = monitoring", fillcolor="#89ee80"] ;
78 -> 79 ;
80 [label="c_durat <= 0.114\ngini = 0.293\nsamples = 28\nvalue = [0, 23, 0, 5]\nclass = monitoring", fillcolor="#6feb64"] ;
79 -> 80 ;
81 [label="gini = 0.426\nsamples = 13\nvalue = [0, 9, 0, 4]\nclass = monitoring", fillcolor="#99f191"] ;
80 -> 81 ;
82 [label="gini = 0.124\nsamples = 15\nvalue = [0, 14, 0, 1]\nclass = monitoring", fillcolor="#54e747"] ;
80 -> 82 ;
83 [label="gini = 0.5\nsamples = 10\nvalue = [0, 5, 0, 5]\nclass = monitoring", fillcolor="#ffffff"] ;
79 -> 83 ;
84 [label="c_bytes_all <= 2938.0\ngini = 0.5\nsamples = 49\nvalue = [0, 24, 0, 25]\nclass = no_plugin", fillcolor="#fdf7fe"] ;
78 -> 84 ;
85 [label="gini = 0.375\nsamples = 16\nvalue = [0, 4, 0, 12]\nclass = no_plugin", fillcolor="#e47bee"] ;
84 -> 85 ;
86 [label="ratio_pkts <= 0.392\ngini = 0.478\nsamples = 33\nvalue = [0, 20, 0, 13]\nclass = monitoring", fillcolor="#bff6ba"] ;
84 -> 86 ;
87 [label="variance_in <= 124509.918\ngini = 0.423\nsamples = 23\nvalue = [0, 16, 0, 7]\nclass = monitoring", fillcolor="#98f090"] ;
86 -> 87 ;
88 [label="gini = 0.496\nsamples = 11\nvalue = [0, 6, 0, 5]\nclass = monitoring", fillcolor="#e0fbde"] ;
87 -> 88 ;
89 [label="gini = 0.278\nsamples = 12\nvalue = [0, 10, 0, 2]\nclass = monitoring", fillcolor="#6cea61"] ;
87 -> 89 ;
90 [label="gini = 0.48\nsamples = 10\nvalue = [0, 4, 0, 6]\nclass = no_plugin", fillcolor="#f2bdf6"] ;
86 -> 90 ;
91 [label="s_durat <= 0.21\ngini = 0.426\nsamples = 39\nvalue = [0, 27, 0, 12]\nclass = monitoring", fillcolor="#99f191"] ;
59 -> 91 ;
92 [label="gini = 0.486\nsamples = 12\nvalue = [0, 5, 0, 7]\nclass = no_plugin", fillcolor="#f4c6f8"] ;
91 -> 92 ;
93 [label="s_durat <= 0.211\ngini = 0.302\nsamples = 27\nvalue = [0, 22, 0, 5]\nclass = monitoring", fillcolor="#71eb66"] ;
91 -> 93 ;
94 [label="gini = 0.0\nsamples = 12\nvalue = [0, 12, 0, 0]\nclass = monitoring", fillcolor="#47e539"] ;
93 -> 94 ;
95 [label="gini = 0.444\nsamples = 15\nvalue = [0, 10, 0, 5]\nclass = monitoring", fillcolor="#a3f29c"] ;
93 -> 95 ;
96 [label="ratio_pkts <= 0.423\ngini = 0.456\nsamples = 1665\nvalue = [0, 1080, 1, 584]\nclass = monitoring", fillcolor="#abf3a4"] ;
38 -> 96 ;
97 [label="average_s_bytes <= 1317.55\ngini = 0.427\nsamples = 1234\nvalue = [0, 854, 1, 379]\nclass = monitoring", fillcolor="#99f191"] ;
96 -> 97 ;
98 [label="variance <= 332471.188\ngini = 0.443\nsamples = 1058\nvalue = [0, 708, 1, 349]\nclass = monitoring", fillcolor="#a2f29b"] ;
97 -> 98 ;
99 [label="s_durat <= 0.298\ngini = 0.483\nsamples = 236\nvalue = [0, 140, 0, 96]\nclass = monitoring", fillcolor="#c5f7c1"] ;
98 -> 99 ;
100 [label="c_durat <= 0.134\ngini = 0.465\nsamples = 177\nvalue = [0, 112, 0, 65]\nclass = monitoring", fillcolor="#b2f4ac"] ;
99 -> 100 ;
101 [label="c_durat <= 0.122\ngini = 0.48\nsamples = 155\nvalue = [0, 93, 0, 62]\nclass = monitoring", fillcolor="#c2f6bd"] ;
100 -> 101 ;
102 [label="s_durat <= 0.245\ngini = 0.457\nsamples = 119\nvalue = [0, 77, 0, 42]\nclass = monitoring", fillcolor="#abf3a5"] ;
101 -> 102 ;
103 [label="gini = 0.428\nsamples = 103\nvalue = [0, 71, 0, 32]\nclass = monitoring", fillcolor="#9af192"] ;
102 -> 103 ;
104 [label="gini = 0.469\nsamples = 16\nvalue = [0, 6, 0, 10]\nclass = no_plugin", fillcolor="#efb0f5"] ;
102 -> 104 ;
105 [label="ratio_bytes <= 0.099\ngini = 0.494\nsamples = 36\nvalue = [0, 16, 0, 20]\nclass = no_plugin", fillcolor="#f7d7fa"] ;
101 -> 105 ;
106 [label="gini = 0.332\nsamples = 19\nvalue = [0, 4, 0, 15]\nclass = no_plugin", fillcolor="#e26eec"] ;
105 -> 106 ;
107 [label="gini = 0.415\nsamples = 17\nvalue = [0, 12, 0, 5]\nclass = monitoring", fillcolor="#94f08b"] ;
105 -> 107 ;
108 [label="ratio_bytes <= 0.105\ngini = 0.236\nsamples = 22\nvalue = [0, 19, 0, 3]\nclass = monitoring", fillcolor="#64e958"] ;
100 -> 108 ;
109 [label="gini = 0.0\nsamples = 11\nvalue = [0, 11, 0, 0]\nclass = monitoring", fillcolor="#47e539"] ;
108 -> 109 ;
110 [label="gini = 0.397\nsamples = 11\nvalue = [0, 8, 0, 3]\nclass = monitoring", fillcolor="#8cef83"] ;
108 -> 110 ;
111 [label="variance <= 311330.281\ngini = 0.499\nsamples = 59\nvalue = [0, 28, 0, 31]\nclass = no_plugin", fillcolor="#fbecfc"] ;
99 -> 111 ;
112 [label="gini = 0.401\nsamples = 18\nvalue = [0, 13, 0, 5]\nclass = monitoring", fillcolor="#8eef85"] ;
111 -> 112 ;
113 [label="variance <= 318223.422\ngini = 0.464\nsamples = 41\nvalue = [0, 15, 0, 26]\nclass = no_plugin", fillcolor="#eeabf4"] ;
111 -> 113 ;
114 [label="gini = 0.18\nsamples = 10\nvalue = [0, 1, 0, 9]\nclass = no_plugin", fillcolor="#db4fe8"] ;
113 -> 114 ;
115 [label="ratio_pkts <= 0.389\ngini = 0.495\nsamples = 31\nvalue = [0, 14, 0, 17]\nclass = no_plugin", fillcolor="#f8dcfa"] ;
113 -> 115 ;
116 [label="gini = 0.499\nsamples = 21\nvalue = [0, 11, 0, 10]\nclass = monitoring", fillcolor="#eefded"] ;
115 -> 116 ;
117 [label="gini = 0.42\nsamples = 10\nvalue = [0, 3, 0, 7]\nclass = no_plugin", fillcolor="#e88ef0"] ;
115 -> 117 ;
118 [label="ratio_pkts <= 0.403\ngini = 0.428\nsamples = 822\nvalue = [0, 568, 1, 253]\nclass = monitoring", fillcolor="#99f191"] ;
98 -> 118 ;
119 [label="c_durat <= 0.315\ngini = 0.368\nsamples = 386\nvalue = [0, 292, 0, 94]\nclass = monitoring", fillcolor="#82ed79"] ;
118 -> 119 ;
120 [label="c_durat <= 0.272\ngini = 0.412\nsamples = 224\nvalue = [0, 159, 0, 65]\nclass = monitoring", fillcolor="#92f08a"] ;
119 -> 120 ;
121 [label="s_durat <= 0.224\ngini = 0.391\nsamples = 206\nvalue = [0, 151, 0, 55]\nclass = monitoring", fillcolor="#8aee81"] ;
120 -> 121 ;
122 [label="gini = 0.496\nsamples = 11\nvalue = [0, 5, 0, 6]\nclass = no_plugin", fillcolor="#f8defb"] ;
121 -> 122 ;
123 [label="gini = 0.376\nsamples = 195\nvalue = [0, 146, 0, 49]\nclass = monitoring", fillcolor="#85ee7b"] ;
121 -> 123 ;
124 [label="gini = 0.494\nsamples = 18\nvalue = [0, 8, 0, 10]\nclass = no_plugin", fillcolor="#f7d7fa"] ;
120 -> 124 ;
125 [label="c_durat <= 0.338\ngini = 0.294\nsamples = 162\nvalue = [0, 133, 0, 29]\nclass = monitoring", fillcolor="#6feb64"] ;
119 -> 125 ;
126 [label="ratio_bytes <= 0.044\ngini = 0.14\nsamples = 66\nvalue = [0, 61, 0, 5]\nclass = monitoring", fillcolor="#56e749"] ;
125 -> 126 ;
127 [label="gini = 0.054\nsamples = 36\nvalue = [0, 35, 0, 1]\nclass = monitoring", fillcolor="#4ce63f"] ;
126 -> 127 ;
128 [label="gini = 0.231\nsamples = 30\nvalue = [0, 26, 0, 4]\nclass = monitoring", fillcolor="#63e957"] ;
126 -> 128 ;
129 [label="variance_out <= 136372.516\ngini = 0.375\nsamples = 96\nvalue = [0, 72, 0, 24]\nclass = monitoring", fillcolor="#84ee7b"] ;
125 -> 129 ;
130 [label="gini = 0.495\nsamples = 29\nvalue = [0, 16, 0, 13]\nclass = monitoring", fillcolor="#dcfada"] ;
129 -> 130 ;
131 [label="gini = 0.274\nsamples = 67\nvalue = [0, 56, 0, 11]\nclass = monitoring", fillcolor="#6bea60"] ;
129 -> 131 ;
132 [label="s_durat <= 0.355\ngini = 0.466\nsamples = 436\nvalue = [0, 276, 1, 159]\nclass = monitoring", fillcolor="#b1f4ab"] ;
118 -> 132 ;
133 [label="s_durat <= 0.343\ngini = 0.434\nsamples = 327\nvalue = [0, 223, 0, 104]\nclass = monitoring", fillcolor="#9df195"] ;
132 -> 133 ;
134 [label="average_s_bytes <= 1302.892\ngini = 0.461\nsamples = 267\nvalue = [0, 171, 0, 96]\nclass = monitoring", fillcolor="#aef4a8"] ;
133 -> 134 ;
135 [label="gini = 0.45\nsamples = 257\nvalue = [0, 169, 0, 88]\nclass = monitoring", fillcolor="#a7f3a0"] ;
134 -> 135 ;
136 [label="gini = 0.32\nsamples = 10\nvalue = [0, 2, 0, 8]\nclass = no_plugin", fillcolor="#e16aec"] ;
134 -> 136 ;
137 [label="s_durat <= 0.352\ngini = 0.231\nsamples = 60\nvalue = [0, 52, 0, 8]\nclass = monitoring", fillcolor="#63e957"] ;
133 -> 137 ;
138 [label="gini = 0.053\nsamples = 37\nvalue = [0, 36, 0, 1]\nclass = monitoring", fillcolor="#4ce63e"] ;
137 -> 138 ;
139 [label="gini = 0.423\nsamples = 23\nvalue = [0, 16, 0, 7]\nclass = monitoring", fillcolor="#98f090"] ;
137 -> 139 ;
140 [label="c_durat <= 0.339\ngini = 0.509\nsamples = 109\nvalue = [0, 53, 1, 55]\nclass = no_plugin", fillcolor="#fef8fe"] ;
132 -> 140 ;
141 [label="gini = 0.391\nsamples = 15\nvalue = [0, 11, 0, 4]\nclass = monitoring", fillcolor="#8aee81"] ;
140 -> 141 ;
142 [label="s_durat <= 0.385\ngini = 0.506\nsamples = 94\nvalue = [0, 42, 1, 51]\nclass = no_plugin", fillcolor="#f8ddfa"] ;
140 -> 142 ;
143 [label="gini = 0.471\nsamples = 50\nvalue = [0, 19, 0, 31]\nclass = no_plugin", fillcolor="#f0b2f5"] ;
142 -> 143 ;
144 [label="gini = 0.52\nsamples = 44\nvalue = [0, 23, 1, 20]\nclass = monitoring", fillcolor="#e8fce6"] ;
142 -> 144 ;
145 [label="s_durat <= 0.343\ngini = 0.283\nsamples = 176\nvalue = [0, 146, 0, 30]\nclass = monitoring", fillcolor="#6dea62"] ;
97 -> 145 ;
146 [label="gini = 0.469\nsamples = 16\nvalue = [0, 6, 0, 10]\nclass = no_plugin", fillcolor="#efb0f5"] ;
145 -> 146 ;
147 [label="s_durat <= 0.357\ngini = 0.219\nsamples = 160\nvalue = [0, 140, 0, 20]\nclass = monitoring", fillcolor="#61e955"] ;
145 -> 147 ;
148 [label="s_durat <= 0.351\ngini = 0.044\nsamples = 89\nvalue = [0, 87, 0, 2]\nclass = monitoring", fillcolor="#4be63e"] ;
147 -> 148 ;
149 [label="gini = 0.0\nsamples = 60\nvalue = [0, 60, 0, 0]\nclass = monitoring", fillcolor="#47e539"] ;
148 -> 149 ;
150 [label="s_durat <= 0.353\ngini = 0.128\nsamples = 29\nvalue = [0, 27, 0, 2]\nclass = monitoring", fillcolor="#55e748"] ;
148 -> 150 ;
151 [label="gini = 0.32\nsamples = 10\nvalue = [0, 8, 0, 2]\nclass = monitoring", fillcolor="#75ec6a"] ;
150 -> 151 ;
152 [label="gini = 0.0\nsamples = 19\nvalue = [0, 19, 0, 0]\nclass = monitoring", fillcolor="#47e539"] ;
150 -> 152 ;
153 [label="s_durat <= 0.362\ngini = 0.378\nsamples = 71\nvalue = [0, 53, 0, 18]\nclass = monitoring", fillcolor="#85ee7c"] ;
147 -> 153 ;
154 [label="gini = 0.5\nsamples = 10\nvalue = [0, 5, 0, 5]\nclass = monitoring", fillcolor="#ffffff"] ;
153 -> 154 ;
155 [label="average_c_bytes <= 131.921\ngini = 0.335\nsamples = 61\nvalue = [0, 48, 0, 13]\nclass = monitoring", fillcolor="#79ec6f"] ;
153 -> 155 ;
156 [label="c_pkts_all <= 30.5\ngini = 0.159\nsamples = 23\nvalue = [0, 21, 0, 2]\nclass = monitoring", fillcolor="#59e74c"] ;
155 -> 156 ;
157 [label="gini = 0.0\nsamples = 13\nvalue = [0, 13, 0, 0]\nclass = monitoring", fillcolor="#47e539"] ;
156 -> 157 ;
158 [label="gini = 0.32\nsamples = 10\nvalue = [0, 8, 0, 2]\nclass = monitoring", fillcolor="#75ec6a"] ;
156 -> 158 ;
159 [label="variance_out <= 120125.5\ngini = 0.411\nsamples = 38\nvalue = [0, 27, 0, 11]\nclass = monitoring", fillcolor="#92f08a"] ;
155 -> 159 ;
160 [label="gini = 0.5\nsamples = 12\nvalue = [0, 6, 0, 6]\nclass = monitoring", fillcolor="#ffffff"] ;
159 -> 160 ;
161 [label="gini = 0.311\nsamples = 26\nvalue = [0, 21, 0, 5]\nclass = monitoring", fillcolor="#73eb68"] ;
159 -> 161 ;
162 [label="s_durat <= 0.33\ngini = 0.499\nsamples = 431\nvalue = [0, 226, 0, 205]\nclass = monitoring", fillcolor="#eefded"] ;
96 -> 162 ;
163 [label="c_durat <= 0.308\ngini = 0.466\nsamples = 84\nvalue = [0, 31, 0, 53]\nclass = no_plugin", fillcolor="#eeadf4"] ;
162 -> 163 ;
164 [label="c_durat <= 0.238\ngini = 0.473\nsamples = 26\nvalue = [0, 16, 0, 10]\nclass = monitoring", fillcolor="#baf5b5"] ;
163 -> 164 ;
165 [label="gini = 0.498\nsamples = 15\nvalue = [0, 7, 0, 8]\nclass = no_plugin", fillcolor="#fae6fc"] ;
164 -> 165 ;
166 [label="gini = 0.298\nsamples = 11\nvalue = [0, 9, 0, 2]\nclass = monitoring", fillcolor="#70eb65"] ;
164 -> 166 ;
167 [label="ratio_pkts <= 0.431\ngini = 0.383\nsamples = 58\nvalue = [0, 15, 0, 43]\nclass = no_plugin", fillcolor="#e57eee"] ;
163 -> 167 ;
168 [label="gini = 0.5\nsamples = 14\nvalue = [0, 7, 0, 7]\nclass = monitoring", fillcolor="#ffffff"] ;
167 -> 168 ;
169 [label="variance_in <= 137754.078\ngini = 0.298\nsamples = 44\nvalue = [0, 8, 0, 36]\nclass = no_plugin", fillcolor="#e065eb"] ;
167 -> 169 ;
170 [label="s_durat <= 0.328\ngini = 0.159\nsamples = 23\nvalue = [0, 2, 0, 21]\nclass = no_plugin", fillcolor="#db4ce7"] ;
169 -> 170 ;
171 [label="gini = 0.0\nsamples = 13\nvalue = [0, 0, 0, 13]\nclass = no_plugin", fillcolor="#d739e5"] ;
170 -> 171 ;
172 [label="gini = 0.32\nsamples = 10\nvalue = [0, 2, 0, 8]\nclass = no_plugin", fillcolor="#e16aec"] ;
170 -> 172 ;
173 [label="c_durat <= 0.312\ngini = 0.408\nsamples = 21\nvalue = [0, 6, 0, 15]\nclass = no_plugin", fillcolor="#e788ef"] ;
169 -> 173 ;
174 [label="gini = 0.298\nsamples = 11\nvalue = [0, 2, 0, 9]\nclass = no_plugin", fillcolor="#e065eb"] ;
173 -> 174 ;
175 [label="gini = 0.48\nsamples = 10\nvalue = [0, 4, 0, 6]\nclass = no_plugin", fillcolor="#f2bdf6"] ;
173 -> 175 ;
176 [label="ratio_bytes <= 0.085\ngini = 0.492\nsamples = 347\nvalue = [0, 195, 0, 152]\nclass = monitoring", fillcolor="#d6f9d3"] ;
162 -> 176 ;
177 [label="ratio_bytes <= 0.048\ngini = 0.488\nsamples = 332\nvalue = [0, 192, 0, 140]\nclass = monitoring", fillcolor="#cdf8c9"] ;
176 -> 177 ;
178 [label="s_durat <= 0.346\ngini = 0.499\nsamples = 256\nvalue = [0, 135, 0, 121]\nclass = monitoring", fillcolor="#ecfcea"] ;
177 -> 178 ;
179 [label="average_c_bytes <= 134.518\ngini = 0.486\nsamples = 108\nvalue = [0, 45, 0, 63]\nclass = no_plugin", fillcolor="#f4c6f8"] ;
178 -> 179 ;
180 [label="s_durat <= 0.343\ngini = 0.238\nsamples = 29\nvalue = [0, 4, 0, 25]\nclass = no_plugin", fillcolor="#dd59e9"] ;
179 -> 180 ;
181 [label="gini = 0.1\nsamples = 19\nvalue = [0, 1, 0, 18]\nclass = no_plugin", fillcolor="#d944e6"] ;
180 -> 181 ;
182 [label="gini = 0.42\nsamples = 10\nvalue = [0, 3, 0, 7]\nclass = no_plugin", fillcolor="#e88ef0"] ;
180 -> 182 ;
183 [label="average_c_bytes <= 142.24\ngini = 0.499\nsamples = 79\nvalue = [0, 41, 0, 38]\nclass = monitoring", fillcolor="#f2fdf1"] ;
179 -> 183 ;
184 [label="gini = 0.482\nsamples = 64\nvalue = [0, 38, 0, 26]\nclass = monitoring", fillcolor="#c5f7c0"] ;
183 -> 184 ;
185 [label="gini = 0.32\nsamples = 15\nvalue = [0, 3, 0, 12]\nclass = no_plugin", fillcolor="#e16aec"] ;
183 -> 185 ;
186 [label="average_s_bytes <= 1292.426\ngini = 0.477\nsamples = 148\nvalue = [0, 90, 0, 58]\nclass = monitoring", fillcolor="#bef6b9"] ;
178 -> 186 ;
187 [label="c_durat <= 0.343\ngini = 0.278\nsamples = 30\nvalue = [0, 25, 0, 5]\nclass = monitoring", fillcolor="#6cea61"] ;
186 -> 187 ;
188 [label="gini = 0.48\nsamples = 10\nvalue = [0, 6, 0, 4]\nclass = monitoring", fillcolor="#c2f6bd"] ;
187 -> 188 ;
189 [label="gini = 0.095\nsamples = 20\nvalue = [0, 19, 0, 1]\nclass = monitoring", fillcolor="#51e643"] ;
187 -> 189 ;
190 [label="variance_in <= 97404.551\ngini = 0.495\nsamples = 118\nvalue = [0, 65, 0, 53]\nclass = monitoring", fillcolor="#ddfada"] ;
186 -> 190 ;
191 [label="gini = 0.375\nsamples = 20\nvalue = [0, 15, 0, 5]\nclass = monitoring", fillcolor="#84ee7b"] ;
190 -> 191 ;
192 [label="gini = 0.5\nsamples = 98\nvalue = [0, 50, 0, 48]\nclass = monitoring", fillcolor="#f8fef7"] ;
190 -> 192 ;
193 [label="average_s_bytes <= 1281.488\ngini = 0.375\nsamples = 76\nvalue = [0, 57, 0, 19]\nclass = monitoring", fillcolor="#84ee7b"] ;
177 -> 193 ;
194 [label="variance <= 401910.25\ngini = 0.412\nsamples = 62\nvalue = [0, 44, 0, 18]\nclass = monitoring", fillcolor="#92f08a"] ;
193 -> 194 ;
195 [label="s_durat <= 0.334\ngini = 0.467\nsamples = 43\nvalue = [0, 27, 0, 16]\nclass = monitoring", fillcolor="#b4f4ae"] ;
194 -> 195 ;
196 [label="gini = 0.498\nsamples = 17\nvalue = [0, 8, 0, 9]\nclass = no_plugin", fillcolor="#fbe9fc"] ;
195 -> 196 ;
197 [label="gini = 0.393\nsamples = 26\nvalue = [0, 19, 0, 7]\nclass = monitoring", fillcolor="#8bef82"] ;
195 -> 197 ;
198 [label="gini = 0.188\nsamples = 19\nvalue = [0, 17, 0, 2]\nclass = monitoring", fillcolor="#5de850"] ;
194 -> 198 ;
199 [label="gini = 0.133\nsamples = 14\nvalue = [0, 13, 0, 1]\nclass = monitoring", fillcolor="#55e748"] ;
193 -> 199 ;
200 [label="gini = 0.32\nsamples = 15\nvalue = [0, 3, 0, 12]\nclass = no_plugin", fillcolor="#e16aec"] ;
176 -> 200 ;
201 [label="c_bytes_all <= 6395.5\ngini = 0.491\nsamples = 2431\nvalue = [1, 929, 37, 1464]\nclass = no_plugin", fillcolor="#f1b8f6"] ;
7 -> 201 ;
202 [label="s_durat <= 0.407\ngini = 0.477\nsamples = 2387\nvalue = [1, 925, 3, 1458]\nclass = no_plugin", fillcolor="#f0b7f6"] ;
201 -> 202 ;
203 [label="ratio_pkts <= 0.492\ngini = 0.463\nsamples = 2132\nvalue = [0, 776, 0, 1356]\nclass = no_plugin", fillcolor="#eeaaf4"] ;
202 -> 203 ;
204 [label="c_durat <= 0.421\ngini = 0.478\nsamples = 1571\nvalue = [0, 621, 0, 950]\nclass = no_plugin", fillcolor="#f1baf6"] ;
203 -> 204 ;
205 [label="s_durat <= 0.208\ngini = 0.476\nsamples = 1557\nvalue = [0, 608, 0, 949]\nclass = no_plugin", fillcolor="#f1b8f6"] ;
204 -> 205 ;
206 [label="c_durat <= 0.106\ngini = 0.128\nsamples = 29\nvalue = [0, 2, 0, 27]\nclass = no_plugin", fillcolor="#da48e7"] ;
205 -> 206 ;
207 [label="gini = 0.0\nsamples = 19\nvalue = [0, 0, 0, 19]\nclass = no_plugin", fillcolor="#d739e5"] ;
206 -> 207 ;
208 [label="gini = 0.32\nsamples = 10\nvalue = [0, 2, 0, 8]\nclass = no_plugin", fillcolor="#e16aec"] ;
206 -> 208 ;
209 [label="variance_in <= 131094.113\ngini = 0.479\nsamples = 1528\nvalue = [0, 606, 0, 922]\nclass = no_plugin", fillcolor="#f1bbf6"] ;
205 -> 209 ;
210 [label="ratio_pkts <= 0.46\ngini = 0.463\nsamples = 997\nvalue = [0, 363, 0, 634]\nclass = no_plugin", fillcolor="#eeaaf4"] ;
209 -> 210 ;
211 [label="c_durat <= 0.313\ngini = 0.486\nsamples = 517\nvalue = [0, 216, 0, 301]\nclass = no_plugin", fillcolor="#f4c7f8"] ;
210 -> 211 ;
212 [label="c_durat <= 0.312\ngini = 0.449\nsamples = 217\nvalue = [0, 74, 0, 143]\nclass = no_plugin", fillcolor="#ec9ff2"] ;
211 -> 212 ;
213 [label="s_durat <= 0.338\ngini = 0.467\nsamples = 191\nvalue = [0, 71, 0, 120]\nclass = no_plugin", fillcolor="#efaef4"] ;
212 -> 213 ;
214 [label="gini = 0.478\nsamples = 172\nvalue = [0, 68, 0, 104]\nclass = no_plugin", fillcolor="#f1baf6"] ;
213 -> 214 ;
215 [label="gini = 0.266\nsamples = 19\nvalue = [0, 3, 0, 16]\nclass = no_plugin", fillcolor="#de5eea"] ;
213 -> 215 ;
216 [label="c_durat <= 0.313\ngini = 0.204\nsamples = 26\nvalue = [0, 3, 0, 23]\nclass = no_plugin", fillcolor="#dc53e8"] ;
212 -> 216 ;
217 [label="gini = 0.0\nsamples = 16\nvalue = [0, 0, 0, 16]\nclass = no_plugin", fillcolor="#d739e5"] ;
216 -> 217 ;
218 [label="gini = 0.42\nsamples = 10\nvalue = [0, 3, 0, 7]\nclass = no_plugin", fillcolor="#e88ef0"] ;
216 -> 218 ;
219 [label="variance <= 400631.016\ngini = 0.499\nsamples = 300\nvalue = [0, 142, 0, 158]\nclass = no_plugin", fillcolor="#fbebfc"] ;
211 -> 219 ;
220 [label="ratio_pkts <= 0.447\ngini = 0.469\nsamples = 93\nvalue = [0, 35, 0, 58]\nclass = no_plugin", fillcolor="#efb0f5"] ;
219 -> 220 ;
221 [label="gini = 0.5\nsamples = 46\nvalue = [0, 23, 0, 23]\nclass = monitoring", fillcolor="#ffffff"] ;
220 -> 221 ;
222 [label="gini = 0.38\nsamples = 47\nvalue = [0, 12, 0, 35]\nclass = no_plugin", fillcolor="#e57dee"] ;
220 -> 222 ;
223 [label="c_durat <= 0.334\ngini = 0.499\nsamples = 207\nvalue = [0, 107, 0, 100]\nclass = monitoring", fillcolor="#f3fdf2"] ;
219 -> 223 ;
224 [label="gini = 0.478\nsamples = 104\nvalue = [0, 63, 0, 41]\nclass = monitoring", fillcolor="#bff6ba"] ;
223 -> 224 ;
225 [label="gini = 0.489\nsamples = 103\nvalue = [0, 44, 0, 59]\nclass = no_plugin", fillcolor="#f5cdf8"] ;
223 -> 225 ;
226 [label="s_durat <= 0.346\ngini = 0.425\nsamples = 480\nvalue = [0, 147, 0, 333]\nclass = no_plugin", fillcolor="#e990f0"] ;
210 -> 226 ;
227 [label="c_bytes_all <= 3781.5\ngini = 0.378\nsamples = 296\nvalue = [0, 75, 0, 221]\nclass = no_plugin", fillcolor="#e57cee"] ;
226 -> 227 ;
228 [label="variance <= 401375.594\ngini = 0.419\nsamples = 248\nvalue = [0, 74, 0, 174]\nclass = no_plugin", fillcolor="#e88df0"] ;
227 -> 228 ;
229 [label="gini = 0.475\nsamples = 108\nvalue = [0, 42, 0, 66]\nclass = no_plugin", fillcolor="#f0b7f6"] ;
228 -> 229 ;
230 [label="gini = 0.353\nsamples = 140\nvalue = [0, 32, 0, 108]\nclass = no_plugin", fillcolor="#e374ed"] ;
228 -> 230 ;
231 [label="c_durat <= 0.329\ngini = 0.041\nsamples = 48\nvalue = [0, 1, 0, 47]\nclass = no_plugin", fillcolor="#d83de6"] ;
227 -> 231 ;
232 [label="gini = 0.18\nsamples = 10\nvalue = [0, 1, 0, 9]\nclass = no_plugin", fillcolor="#db4fe8"] ;
231 -> 232 ;
233 [label="gini = 0.0\nsamples = 38\nvalue = [0, 0, 0, 38]\nclass = no_plugin", fillcolor="#d739e5"] ;
231 -> 233 ;
234 [label="s_durat <= 0.352\ngini = 0.476\nsamples = 184\nvalue = [0, 72, 0, 112]\nclass = no_plugin", fillcolor="#f1b8f6"] ;
226 -> 234 ;
235 [label="variance_in <= 110178.449\ngini = 0.449\nsamples = 53\nvalue = [0, 35, 0, 18]\nclass = monitoring", fillcolor="#a6f29f"] ;
234 -> 235 ;
236 [label="gini = 0.287\nsamples = 23\nvalue = [0, 19, 0, 4]\nclass = monitoring", fillcolor="#6eea63"] ;
235 -> 236 ;
237 [label="gini = 0.498\nsamples = 30\nvalue = [0, 16, 0, 14]\nclass = monitoring", fillcolor="#e8fce6"] ;
235 -> 237 ;
238 [label="average_s_bytes <= 1289.313\ngini = 0.405\nsamples = 131\nvalue = [0, 37, 0, 94]\nclass = no_plugin", fillcolor="#e787ef"] ;
234 -> 238 ;
239 [label="gini = 0.465\nsamples = 19\nvalue = [0, 12, 0, 7]\nclass = monitoring", fillcolor="#b2f4ac"] ;
238 -> 239 ;
240 [label="gini = 0.347\nsamples = 112\nvalue = [0, 25, 0, 87]\nclass = no_plugin", fillcolor="#e272ec"] ;
238 -> 240 ;
241 [label="c_durat <= 0.218\ngini = 0.496\nsamples = 531\nvalue = [0, 243, 0, 288]\nclass = no_plugin", fillcolor="#f9e0fb"] ;
209 -> 241 ;
242 [label="average_s_bytes <= 1133.355\ngini = 0.468\nsamples = 206\nvalue = [0, 77, 0, 129]\nclass = no_plugin", fillcolor="#efaff5"] ;
241 -> 242 ;
243 [label="s_durat <= 0.222\ngini = 0.495\nsamples = 102\nvalue = [0, 46, 0, 56]\nclass = no_plugin", fillcolor="#f8dcfa"] ;
242 -> 243 ;
244 [label="s_durat <= 0.219\ngini = 0.48\nsamples = 75\nvalue = [0, 30, 0, 45]\nclass = no_plugin", fillcolor="#f2bdf6"] ;
243 -> 244 ;
245 [label="gini = 0.497\nsamples = 61\nvalue = [0, 28, 0, 33]\nclass = no_plugin", fillcolor="#f9e1fb"] ;
244 -> 245 ;
246 [label="gini = 0.245\nsamples = 14\nvalue = [0, 2, 0, 12]\nclass = no_plugin", fillcolor="#de5ae9"] ;
244 -> 246 ;
247 [label="s_durat <= 0.233\ngini = 0.483\nsamples = 27\nvalue = [0, 16, 0, 11]\nclass = monitoring", fillcolor="#c6f7c1"] ;
243 -> 247 ;
248 [label="gini = 0.408\nsamples = 14\nvalue = [0, 10, 0, 4]\nclass = monitoring", fillcolor="#91ef88"] ;
247 -> 248 ;
249 [label="gini = 0.497\nsamples = 13\nvalue = [0, 6, 0, 7]\nclass = no_plugin", fillcolor="#f9e3fb"] ;
247 -> 249 ;
250 [label="c_durat <= 0.215\ngini = 0.418\nsamples = 104\nvalue = [0, 31, 0, 73]\nclass = no_plugin", fillcolor="#e88df0"] ;
242 -> 250 ;
251 [label="s_durat <= 0.244\ngini = 0.45\nsamples = 85\nvalue = [0, 29, 0, 56]\nclass = no_plugin", fillcolor="#eca0f2"] ;
250 -> 251 ;
252 [label="gini = 0.4\nsamples = 65\nvalue = [0, 18, 0, 47]\nclass = no_plugin", fillcolor="#e685ef"] ;
251 -> 252 ;
253 [label="gini = 0.495\nsamples = 20\nvalue = [0, 11, 0, 9]\nclass = monitoring", fillcolor="#defadb"] ;
251 -> 253 ;
254 [label="gini = 0.188\nsamples = 19\nvalue = [0, 2, 0, 17]\nclass = no_plugin", fillcolor="#dc50e8"] ;
250 -> 254 ;
255 [label="c_durat <= 0.308\ngini = 0.5\nsamples = 325\nvalue = [0, 166, 0, 159]\nclass = monitoring", fillcolor="#f7fef7"] ;
241 -> 255 ;
256 [label="ratio_bytes <= 0.056\ngini = 0.469\nsamples = 157\nvalue = [0, 98, 0, 59]\nclass = monitoring", fillcolor="#b6f5b0"] ;
255 -> 256 ;
257 [label="s_durat <= 0.313\ngini = 0.095\nsamples = 40\nvalue = [0, 38, 0, 2]\nclass = monitoring", fillcolor="#51e643"] ;
256 -> 257 ;
258 [label="gini = 0.0\nsamples = 23\nvalue = [0, 23, 0, 0]\nclass = monitoring", fillcolor="#47e539"] ;
257 -> 258 ;
259 [label="gini = 0.208\nsamples = 17\nvalue = [0, 15, 0, 2]\nclass = monitoring", fillcolor="#60e853"] ;
257 -> 259 ;
260 [label="s_durat <= 0.245\ngini = 0.5\nsamples = 117\nvalue = [0, 60, 0, 57]\nclass = monitoring", fillcolor="#f6fef5"] ;
256 -> 260 ;
261 [label="gini = 0.255\nsamples = 20\nvalue = [0, 17, 0, 3]\nclass = monitoring", fillcolor="#67ea5c"] ;
260 -> 261 ;
262 [label="gini = 0.494\nsamples = 97\nvalue = [0, 43, 0, 54]\nclass = no_plugin", fillcolor="#f7d7fa"] ;
260 -> 262 ;
263 [label="s_durat <= 0.329\ngini = 0.482\nsamples = 168\nvalue = [0, 68, 0, 100]\nclass = no_plugin", fillcolor="#f2c0f7"] ;
255 -> 263 ;
264 [label="variance_in <= 144028.469\ngini = 0.401\nsamples = 101\nvalue = [0, 28, 0, 73]\nclass = no_plugin", fillcolor="#e685ef"] ;
263 -> 264 ;
265 [label="gini = 0.206\nsamples = 43\nvalue = [0, 5, 0, 38]\nclass = no_plugin", fillcolor="#dc53e8"] ;
264 -> 265 ;
266 [label="gini = 0.479\nsamples = 58\nvalue = [0, 23, 0, 35]\nclass = no_plugin", fillcolor="#f1bbf6"] ;
264 -> 266 ;
267 [label="c_bytes_all <= 3613.0\ngini = 0.481\nsamples = 67\nvalue = [0, 40, 0, 27]\nclass = monitoring", fillcolor="#c3f7bf"] ;
263 -> 267 ;
268 [label="gini = 0.391\nsamples = 30\nvalue = [0, 22, 0, 8]\nclass = monitoring", fillcolor="#8aee81"] ;
267 -> 268 ;
269 [label="gini = 0.5\nsamples = 37\nvalue = [0, 18, 0, 19]\nclass = no_plugin", fillcolor="#fdf5fe"] ;
267 -> 269 ;
270 [label="gini = 0.133\nsamples = 14\nvalue = [0, 13, 0, 1]\nclass = monitoring", fillcolor="#55e748"] ;
204 -> 270 ;
271 [label="c_durat <= 0.358\ngini = 0.4\nsamples = 561\nvalue = [0, 155, 0, 406]\nclass = no_plugin", fillcolor="#e685ef"] ;
203 -> 271 ;
272 [label="c_pkts_all <= 32.5\ngini = 0.386\nsamples = 532\nvalue = [0, 139, 0, 393]\nclass = no_plugin", fillcolor="#e57fee"] ;
271 -> 272 ;
273 [label="s_durat <= 0.339\ngini = 0.411\nsamples = 415\nvalue = [0, 120, 0, 295]\nclass = no_plugin", fillcolor="#e78af0"] ;
272 -> 273 ;
274 [label="variance_out <= 107084.66\ngini = 0.379\nsamples = 339\nvalue = [0, 86, 0, 253]\nclass = no_plugin", fillcolor="#e57cee"] ;
273 -> 274 ;
275 [label="ratio_pkts <= 0.53\ngini = 0.177\nsamples = 61\nvalue = [0, 6, 0, 55]\nclass = no_plugin", fillcolor="#db4fe8"] ;
274 -> 275 ;
276 [label="c_durat <= 0.326\ngini = 0.051\nsamples = 38\nvalue = [0, 1, 0, 37]\nclass = no_plugin", fillcolor="#d83ee6"] ;
275 -> 276 ;
277 [label="gini = 0.18\nsamples = 10\nvalue = [0, 1, 0, 9]\nclass = no_plugin", fillcolor="#db4fe8"] ;
276 -> 277 ;
278 [label="gini = 0.0\nsamples = 28\nvalue = [0, 0, 0, 28]\nclass = no_plugin", fillcolor="#d739e5"] ;
276 -> 278 ;
279 [label="variance_in <= 134059.766\ngini = 0.34\nsamples = 23\nvalue = [0, 5, 0, 18]\nclass = no_plugin", fillcolor="#e270ec"] ;
275 -> 279 ;
280 [label="gini = 0.426\nsamples = 13\nvalue = [0, 4, 0, 9]\nclass = no_plugin", fillcolor="#e991f1"] ;
279 -> 280 ;
281 [label="gini = 0.18\nsamples = 10\nvalue = [0, 1, 0, 9]\nclass = no_plugin", fillcolor="#db4fe8"] ;
279 -> 281 ;
282 [label="c_durat <= 0.327\ngini = 0.41\nsamples = 278\nvalue = [0, 80, 0, 198]\nclass = no_plugin", fillcolor="#e789f0"] ;
274 -> 282 ;
283 [label="s_durat <= 0.216\ngini = 0.383\nsamples = 252\nvalue = [0, 65, 0, 187]\nclass = no_plugin", fillcolor="#e57eee"] ;
282 -> 283 ;
284 [label="c_durat <= 0.211\ngini = 0.245\nsamples = 56\nvalue = [0, 8, 0, 48]\nclass = no_plugin", fillcolor="#de5ae9"] ;
283 -> 284 ;
285 [label="gini = 0.308\nsamples = 42\nvalue = [0, 8, 0, 34]\nclass = no_plugin", fillcolor="#e068eb"] ;
284 -> 285 ;
286 [label="gini = 0.0\nsamples = 14\nvalue = [0, 0, 0, 14]\nclass = no_plugin", fillcolor="#d739e5"] ;
284 -> 286 ;
287 [label="s_durat <= 0.24\ngini = 0.412\nsamples = 196\nvalue = [0, 57, 0, 139]\nclass = no_plugin", fillcolor="#e78af0"] ;
283 -> 287 ;
288 [label="gini = 0.49\nsamples = 63\nvalue = [0, 27, 0, 36]\nclass = no_plugin", fillcolor="#f5cef8"] ;
287 -> 288 ;
289 [label="gini = 0.349\nsamples = 133\nvalue = [0, 30, 0, 103]\nclass = no_plugin", fillcolor="#e373ed"] ;
287 -> 289 ;
290 [label="c_durat <= 0.33\ngini = 0.488\nsamples = 26\nvalue = [0, 15, 0, 11]\nclass = monitoring", fillcolor="#cef8ca"] ;
282 -> 290 ;
291 [label="gini = 0.498\nsamples = 15\nvalue = [0, 7, 0, 8]\nclass = no_plugin", fillcolor="#fae6fc"] ;
290 -> 291 ;
292 [label="gini = 0.397\nsamples = 11\nvalue = [0, 8, 0, 3]\nclass = monitoring", fillcolor="#8cef83"] ;
290 -> 292 ;
293 [label="ratio_pkts <= 0.518\ngini = 0.494\nsamples = 76\nvalue = [0, 34, 0, 42]\nclass = no_plugin", fillcolor="#f7d9fa"] ;
273 -> 293 ;
294 [label="s_durat <= 0.341\ngini = 0.476\nsamples = 64\nvalue = [0, 25, 0, 39]\nclass = no_plugin", fillcolor="#f1b8f6"] ;
293 -> 294 ;
295 [label="c_durat <= 0.332\ngini = 0.493\nsamples = 25\nvalue = [0, 14, 0, 11]\nclass = monitoring", fillcolor="#d8f9d5"] ;
294 -> 295 ;
296 [label="gini = 0.444\nsamples = 15\nvalue = [0, 10, 0, 5]\nclass = monitoring", fillcolor="#a3f29c"] ;
295 -> 296 ;
297 [label="gini = 0.48\nsamples = 10\nvalue = [0, 4, 0, 6]\nclass = no_plugin", fillcolor="#f2bdf6"] ;
295 -> 297 ;
298 [label="c_durat <= 0.338\ngini = 0.405\nsamples = 39\nvalue = [0, 11, 0, 28]\nclass = no_plugin", fillcolor="#e787ef"] ;
294 -> 298 ;
299 [label="gini = 0.0\nsamples = 12\nvalue = [0, 0, 0, 12]\nclass = no_plugin", fillcolor="#d739e5"] ;
298 -> 299 ;
300 [label="variance <= 415941.891\ngini = 0.483\nsamples = 27\nvalue = [0, 11, 0, 16]\nclass = no_plugin", fillcolor="#f2c1f7"] ;
298 -> 300 ;
301 [label="gini = 0.498\nsamples = 15\nvalue = [0, 8, 0, 7]\nclass = monitoring", fillcolor="#e8fce6"] ;
300 -> 301 ;
302 [label="gini = 0.375\nsamples = 12\nvalue = [0, 3, 0, 9]\nclass = no_plugin", fillcolor="#e47bee"] ;
300 -> 302 ;
303 [label="gini = 0.375\nsamples = 12\nvalue = [0, 9, 0, 3]\nclass = monitoring", fillcolor="#84ee7b"] ;
293 -> 303 ;
304 [label="s_durat <= 0.349\ngini = 0.272\nsamples = 117\nvalue = [0, 19, 0, 98]\nclass = no_plugin", fillcolor="#df5fea"] ;
272 -> 304 ;
305 [label="variance_in <= 120484.27\ngini = 0.131\nsamples = 57\nvalue = [0, 4, 0, 53]\nclass = no_plugin", fillcolor="#da48e7"] ;
304 -> 305 ;
306 [label="gini = 0.0\nsamples = 40\nvalue = [0, 0, 0, 40]\nclass = no_plugin", fillcolor="#d739e5"] ;
305 -> 306 ;
307 [label="gini = 0.36\nsamples = 17\nvalue = [0, 4, 0, 13]\nclass = no_plugin", fillcolor="#e376ed"] ;
305 -> 307 ;
308 [label="c_durat <= 0.352\ngini = 0.375\nsamples = 60\nvalue = [0, 15, 0, 45]\nclass = no_plugin", fillcolor="#e47bee"] ;
304 -> 308 ;
309 [label="ratio_bytes <= 0.041\ngini = 0.454\nsamples = 43\nvalue = [0, 15, 0, 28]\nclass = no_plugin", fillcolor="#eca3f3"] ;
308 -> 309 ;
310 [label="gini = 0.492\nsamples = 16\nvalue = [0, 9, 0, 7]\nclass = monitoring", fillcolor="#d6f9d3"] ;
309 -> 310 ;
311 [label="ratio_pkts <= 0.511\ngini = 0.346\nsamples = 27\nvalue = [0, 6, 0, 21]\nclass = no_plugin", fillcolor="#e272ec"] ;
309 -> 311 ;
312 [label="gini = 0.457\nsamples = 17\nvalue = [0, 6, 0, 11]\nclass = no_plugin", fillcolor="#eda5f3"] ;
311 -> 312 ;
313 [label="gini = 0.0\nsamples = 10\nvalue = [0, 0, 0, 10]\nclass = no_plugin", fillcolor="#d739e5"] ;
311 -> 313 ;
314 [label="gini = 0.0\nsamples = 17\nvalue = [0, 0, 0, 17]\nclass = no_plugin", fillcolor="#d739e5"] ;
308 -> 314 ;
315 [label="variance_out <= 137618.172\ngini = 0.495\nsamples = 29\nvalue = [0, 16, 0, 13]\nclass = monitoring", fillcolor="#dcfada"] ;
271 -> 315 ;
316 [label="gini = 0.388\nsamples = 19\nvalue = [0, 14, 0, 5]\nclass = monitoring", fillcolor="#89ee80"] ;
315 -> 316 ;
317 [label="gini = 0.32\nsamples = 10\nvalue = [0, 2, 0, 8]\nclass = no_plugin", fillcolor="#e16aec"] ;
315 -> 317 ;
318 [label="s_durat <= 0.607\ngini = 0.498\nsamples = 255\nvalue = [1, 149, 3, 102]\nclass = monitoring", fillcolor="#c6f7c2"] ;
202 -> 318 ;
319 [label="c_durat <= 0.478\ngini = 0.348\nsamples = 107\nvalue = [0, 83, 0, 24]\nclass = monitoring", fillcolor="#7ced72"] ;
318 -> 319 ;
320 [label="average_c_bytes <= 121.775\ngini = 0.242\nsamples = 78\nvalue = [0, 67, 0, 11]\nclass = monitoring", fillcolor="#65e95a"] ;
319 -> 320 ;
321 [label="s_durat <= 0.463\ngini = 0.434\nsamples = 22\nvalue = [0, 15, 0, 7]\nclass = monitoring", fillcolor="#9df195"] ;
320 -> 321 ;
322 [label="gini = 0.496\nsamples = 11\nvalue = [0, 5, 0, 6]\nclass = no_plugin", fillcolor="#f8defb"] ;
321 -> 322 ;
323 [label="gini = 0.165\nsamples = 11\nvalue = [0, 10, 0, 1]\nclass = monitoring", fillcolor="#59e84d"] ;
321 -> 323 ;
324 [label="c_durat <= 0.382\ngini = 0.133\nsamples = 56\nvalue = [0, 52, 0, 4]\nclass = monitoring", fillcolor="#55e748"] ;
320 -> 324 ;
325 [label="gini = 0.0\nsamples = 30\nvalue = [0, 30, 0, 0]\nclass = monitoring", fillcolor="#47e539"] ;
324 -> 325 ;
326 [label="s_durat <= 0.471\ngini = 0.26\nsamples = 26\nvalue = [0, 22, 0, 4]\nclass = monitoring", fillcolor="#68ea5d"] ;
324 -> 326 ;
327 [label="gini = 0.444\nsamples = 12\nvalue = [0, 8, 0, 4]\nclass = monitoring", fillcolor="#a3f29c"] ;
326 -> 327 ;
328 [label="gini = 0.0\nsamples = 14\nvalue = [0, 14, 0, 0]\nclass = monitoring", fillcolor="#47e539"] ;
326 -> 328 ;
329 [label="s_pkts_all <= 62.5\ngini = 0.495\nsamples = 29\nvalue = [0, 16, 0, 13]\nclass = monitoring", fillcolor="#dcfada"] ;
319 -> 329 ;
330 [label="gini = 0.426\nsamples = 13\nvalue = [0, 4, 0, 9]\nclass = no_plugin", fillcolor="#e991f1"] ;
329 -> 330 ;
331 [label="gini = 0.375\nsamples = 16\nvalue = [0, 12, 0, 4]\nclass = monitoring", fillcolor="#84ee7b"] ;
329 -> 331 ;
332 [label="c_durat <= 0.619\ngini = 0.523\nsamples = 148\nvalue = [1, 66, 3, 78]\nclass = no_plugin", fillcolor="#f9e2fb"] ;
318 -> 332 ;
333 [label="c_durat <= 0.574\ngini = 0.375\nsamples = 40\nvalue = [0, 10, 0, 30]\nclass = no_plugin", fillcolor="#e47bee"] ;
332 -> 333 ;
334 [label="s_bytes_all <= 65045.0\ngini = 0.444\nsamples = 30\nvalue = [0, 10, 0, 20]\nclass = no_plugin", fillcolor="#eb9cf2"] ;
333 -> 334 ;
335 [label="ratio_pkts <= 0.495\ngini = 0.32\nsamples = 20\nvalue = [0, 4, 0, 16]\nclass = no_plugin", fillcolor="#e16aec"] ;
334 -> 335 ;
336 [label="gini = 0.48\nsamples = 10\nvalue = [0, 4, 0, 6]\nclass = no_plugin", fillcolor="#f2bdf6"] ;
335 -> 336 ;
337 [label="gini = 0.0\nsamples = 10\nvalue = [0, 0, 0, 10]\nclass = no_plugin", fillcolor="#d739e5"] ;
335 -> 337 ;
338 [label="gini = 0.48\nsamples = 10\nvalue = [0, 6, 0, 4]\nclass = monitoring", fillcolor="#c2f6bd"] ;
334 -> 338 ;
339 [label="gini = 0.0\nsamples = 10\nvalue = [0, 0, 0, 10]\nclass = no_plugin", fillcolor="#d739e5"] ;
333 -> 339 ;
340 [label="variance_in <= 95553.164\ngini = 0.533\nsamples = 108\nvalue = [1, 56, 3, 48]\nclass = monitoring", fillcolor="#e6fce5"] ;
332 -> 340 ;
341 [label="ratio_pkts <= 0.464\ngini = 0.34\nsamples = 23\nvalue = [0, 18, 0, 5]\nclass = monitoring", fillcolor="#7aec70"] ;
340 -> 341 ;
342 [label="gini = 0.48\nsamples = 10\nvalue = [0, 6, 0, 4]\nclass = monitoring", fillcolor="#c2f6bd"] ;
341 -> 342 ;
343 [label="gini = 0.142\nsamples = 13\nvalue = [0, 12, 0, 1]\nclass = monitoring", fillcolor="#56e749"] ;
341 -> 343 ;
344 [label="ratio_bytes <= 0.056\ngini = 0.543\nsamples = 85\nvalue = [1, 38, 3, 43]\nclass = no_plugin", fillcolor="#fbeafc"] ;
340 -> 344 ;
345 [label="c_bytes_all <= 3747.0\ngini = 0.457\nsamples = 48\nvalue = [0, 17, 0, 31]\nclass = no_plugin", fillcolor="#eda6f3"] ;
344 -> 345 ;
346 [label="gini = 0.486\nsamples = 12\nvalue = [0, 7, 0, 5]\nclass = monitoring", fillcolor="#caf8c6"] ;
345 -> 346 ;
347 [label="c_bytes_all <= 3902.5\ngini = 0.401\nsamples = 36\nvalue = [0, 10, 0, 26]\nclass = no_plugin", fillcolor="#e685ef"] ;
345 -> 347 ;
348 [label="gini = 0.198\nsamples = 18\nvalue = [0, 2, 0, 16]\nclass = no_plugin", fillcolor="#dc52e8"] ;
347 -> 348 ;
349 [label="gini = 0.494\nsamples = 18\nvalue = [0, 8, 0, 10]\nclass = no_plugin", fillcolor="#f7d7fa"] ;
347 -> 349 ;
350 [label="variance <= 407862.547\ngini = 0.565\nsamples = 37\nvalue = [1, 21, 3, 12]\nclass = monitoring", fillcolor="#bdf6b8"] ;
344 -> 350 ;
351 [label="variance <= 385778.984\ngini = 0.623\nsamples = 27\nvalue = [1, 12, 3, 11]\nclass = monitoring", fillcolor="#f4fdf3"] ;
350 -> 351 ;
352 [label="gini = 0.627\nsamples = 13\nvalue = [1, 7, 3, 2]\nclass = monitoring", fillcolor="#b5f5b0"] ;
351 -> 352 ;
353 [label="gini = 0.459\nsamples = 14\nvalue = [0, 5, 0, 9]\nclass = no_plugin", fillcolor="#eda7f3"] ;
351 -> 353 ;
354 [label="gini = 0.18\nsamples = 10\nvalue = [0, 9, 0, 1]\nclass = monitoring", fillcolor="#5be84f"] ;
350 -> 354 ;
355 [label="c_durat <= 1.057\ngini = 0.376\nsamples = 44\nvalue = [0, 4, 34, 6]\nclass = multipath", fillcolor="#6db7ec"] ;
201 -> 355 ;
356 [label="c_durat <= 0.662\ngini = 0.057\nsamples = 34\nvalue = [0, 0, 33, 1]\nclass = multipath", fillcolor="#3fa0e6"] ;
355 -> 356 ;
357 [label="gini = 0.0\nsamples = 24\nvalue = [0, 0, 24, 0]\nclass = multipath", fillcolor="#399de5"] ;
356 -> 357 ;
358 [label="gini = 0.18\nsamples = 10\nvalue = [0, 0, 9, 1]\nclass = multipath", fillcolor="#4fa8e8"] ;
356 -> 358 ;
359 [label="gini = 0.58\nsamples = 10\nvalue = [0, 4, 1, 5]\nclass = no_plugin", fillcolor="#f8defb"] ;
355 -> 359 ;
360 [label="c_bytes_all <= 4389.0\ngini = 0.031\nsamples = 2398\nvalue = [4, 24, 2361, 9]\nclass = multipath", fillcolor="#3c9fe5"] ;
6 -> 360 ;
361 [label="s_bytes_all <= 45022.0\ngini = 0.538\nsamples = 24\nvalue = [4, 15, 0, 5]\nclass = monitoring", fillcolor="#9ef197"] ;
360 -> 361 ;
362 [label="gini = 0.245\nsamples = 14\nvalue = [0, 12, 0, 2]\nclass = monitoring", fillcolor="#66e95a"] ;
361 -> 362 ;
363 [label="gini = 0.66\nsamples = 10\nvalue = [4, 3, 0, 3]\nclass = fec", fillcolor="#fbede3"] ;
361 -> 363 ;
364 [label="average_c_bytes <= 416.206\ngini = 0.011\nsamples = 2374\nvalue = [0, 9, 2361, 4]\nclass = multipath", fillcolor="#3a9ee5"] ;
360 -> 364 ;
365 [label="s_durat <= 2.187\ngini = 0.003\nsamples = 2364\nvalue = [0, 2, 2360, 2]\nclass = multipath", fillcolor="#399de5"] ;
364 -> 365 ;
366 [label="c_durat <= 0.615\ngini = 0.001\nsamples = 2353\nvalue = [0, 1, 2352, 0]\nclass = multipath", fillcolor="#399de5"] ;
365 -> 366 ;
367 [label="gini = 0.18\nsamples = 10\nvalue = [0, 1, 9, 0]\nclass = multipath", fillcolor="#4fa8e8"] ;
366 -> 367 ;
368 [label="gini = 0.0\nsamples = 2343\nvalue = [0, 0, 2343, 0]\nclass = multipath", fillcolor="#399de5"] ;
366 -> 368 ;
369 [label="gini = 0.43\nsamples = 11\nvalue = [0, 1, 8, 2]\nclass = multipath", fillcolor="#7bbeee"] ;
365 -> 369 ;
370 [label="gini = 0.46\nsamples = 10\nvalue = [0, 7, 1, 2]\nclass = monitoring", fillcolor="#8cef83"] ;
364 -> 370 ;
}
