digraph Tree {
node [shape=box, style="filled, rounded", color="black", fontname="helvetica"] ;
edge [fontname="helvetica"] ;
0 [label="average_s_bytes <= 776.325\ngini = 0.75\nsamples = 9600\nvalue = [2400, 2400, 2400, 2400]\nclass = fec", fillcolor="#ffffff"] ;
1 [label="ratio_bytes <= 0.409\ngini = 0.003\nsamples = 2396\nvalue = [2393, 1, 1, 1]\nclass = fec", fillcolor="#e58139"] ;
0 -> 1 [labeldistance=2.5, labelangle=45, headlabel="True"] ;
2 [label="gini = 0.0\nsamples = 2367\nvalue = [2367, 0, 0, 0]\nclass = fec", fillcolor="#e58139"] ;
1 -> 2 ;
3 [label="s_bytes_all <= 3325.5\ngini = 0.193\nsamples = 29\nvalue = [26, 1, 1, 1]\nclass = fec", fillcolor="#e88e4e"] ;
1 -> 3 ;
4 [label="gini = 0.0\nsamples = 23\nvalue = [23, 0, 0, 0]\nclass = fec", fillcolor="#e58139"] ;
3 -> 4 ;
5 [label="gini = 0.667\nsamples = 6\nvalue = [3, 1, 1, 1]\nclass = fec", fillcolor="#f5cdb0"] ;
3 -> 5 ;
6 [label="c_bytes_all <= 4418.0\ngini = 0.667\nsamples = 7204\nvalue = [7, 2399, 2399, 2399]\nclass = monitoring", fillcolor="#ffffff"] ;
0 -> 6 [labeldistance=2.5, labelangle=-45, headlabel="False"] ;
7 [label="ratio_pkts <= 0.439\ngini = 0.502\nsamples = 4653\nvalue = [7, 2308, 1, 2337]\nclass = no_plugin", fillcolor="#fffdff"] ;
6 -> 7 ;
8 [label="s_durat <= 0.208\ngini = 0.479\nsamples = 2336\nvalue = [6, 1420, 0, 910]\nclass = monitoring", fillcolor="#bdf6b8"] ;
7 -> 8 ;
9 [label="s_durat <= 0.208\ngini = 0.133\nsamples = 98\nvalue = [0, 7, 0, 91]\nclass = no_plugin", fillcolor="#da48e7"] ;
8 -> 9 ;
10 [label="s_durat <= 0.204\ngini = 0.067\nsamples = 86\nvalue = [0, 3, 0, 83]\nclass = no_plugin", fillcolor="#d840e6"] ;
9 -> 10 ;
11 [label="gini = 0.48\nsamples = 5\nvalue = [0, 2, 0, 3]\nclass = no_plugin", fillcolor="#f2bdf6"] ;
10 -> 11 ;
12 [label="average_c_bytes <= 364.5\ngini = 0.024\nsamples = 81\nvalue = [0, 1, 0, 80]\nclass = no_plugin", fillcolor="#d83be5"] ;
10 -> 12 ;
13 [label="gini = 0.245\nsamples = 7\nvalue = [0, 1, 0, 6]\nclass = no_plugin", fillcolor="#de5ae9"] ;
12 -> 13 ;
14 [label="gini = 0.0\nsamples = 74\nvalue = [0, 0, 0, 74]\nclass = no_plugin", fillcolor="#d739e5"] ;
12 -> 14 ;
15 [label="c_bytes_all <= 2900.0\ngini = 0.444\nsamples = 12\nvalue = [0, 4, 0, 8]\nclass = no_plugin", fillcolor="#eb9cf2"] ;
9 -> 15 ;
16 [label="gini = 0.49\nsamples = 7\nvalue = [0, 4, 0, 3]\nclass = monitoring", fillcolor="#d1f8ce"] ;
15 -> 16 ;
17 [label="gini = 0.0\nsamples = 5\nvalue = [0, 0, 0, 5]\nclass = no_plugin", fillcolor="#d739e5"] ;
15 -> 17 ;
18 [label="c_pkts_all <= 7.5\ngini = 0.467\nsamples = 2238\nvalue = [6, 1413, 0, 819]\nclass = monitoring", fillcolor="#b2f4ac"] ;
8 -> 18 ;
19 [label="s_durat <= 1.272\ngini = 0.305\nsamples = 207\nvalue = [3, 169, 0, 35]\nclass = monitoring", fillcolor="#70eb65"] ;
18 -> 19 ;
20 [label="c_durat <= 0.109\ngini = 0.28\nsamples = 202\nvalue = [0, 168, 0, 34]\nclass = monitoring", fillcolor="#6cea61"] ;
19 -> 20 ;
21 [label="s_durat <= 0.209\ngini = 0.184\nsamples = 107\nvalue = [0, 96, 0, 11]\nclass = monitoring", fillcolor="#5ce850"] ;
20 -> 21 ;
22 [label="c_durat <= 0.106\ngini = 0.417\nsamples = 27\nvalue = [0, 19, 0, 8]\nclass = monitoring", fillcolor="#94f08c"] ;
21 -> 22 ;
23 [label="ratio_pkts <= 0.308\ngini = 0.236\nsamples = 22\nvalue = [0, 19, 0, 3]\nclass = monitoring", fillcolor="#64e958"] ;
22 -> 23 ;
24 [label="gini = 0.0\nsamples = 10\nvalue = [0, 10, 0, 0]\nclass = monitoring", fillcolor="#47e539"] ;
23 -> 24 ;
25 [label="s_durat <= 0.209\ngini = 0.375\nsamples = 12\nvalue = [0, 9, 0, 3]\nclass = monitoring", fillcolor="#84ee7b"] ;
23 -> 25 ;
26 [label="gini = 0.48\nsamples = 5\nvalue = [0, 3, 0, 2]\nclass = monitoring", fillcolor="#c2f6bd"] ;
25 -> 26 ;
27 [label="gini = 0.245\nsamples = 7\nvalue = [0, 6, 0, 1]\nclass = monitoring", fillcolor="#66e95a"] ;
25 -> 27 ;
28 [label="gini = 0.0\nsamples = 5\nvalue = [0, 0, 0, 5]\nclass = no_plugin", fillcolor="#d739e5"] ;
22 -> 28 ;
29 [label="c_durat <= 0.105\ngini = 0.072\nsamples = 80\nvalue = [0, 77, 0, 3]\nclass = monitoring", fillcolor="#4ee641"] ;
21 -> 29 ;
30 [label="gini = 0.48\nsamples = 5\nvalue = [0, 2, 0, 3]\nclass = no_plugin", fillcolor="#f2bdf6"] ;
29 -> 30 ;
31 [label="gini = 0.0\nsamples = 75\nvalue = [0, 75, 0, 0]\nclass = monitoring", fillcolor="#47e539"] ;
29 -> 31 ;
32 [label="s_bytes_all <= 20990.5\ngini = 0.367\nsamples = 95\nvalue = [0, 72, 0, 23]\nclass = monitoring", fillcolor="#82ed78"] ;
20 -> 32 ;
33 [label="c_durat <= 0.118\ngini = 0.5\nsamples = 16\nvalue = [0, 8, 0, 8]\nclass = monitoring", fillcolor="#ffffff"] ;
32 -> 33 ;
34 [label="s_durat <= 0.22\ngini = 0.463\nsamples = 11\nvalue = [0, 4, 0, 7]\nclass = no_plugin", fillcolor="#eeaaf4"] ;
33 -> 34 ;
35 [label="gini = 0.5\nsamples = 6\nvalue = [0, 3, 0, 3]\nclass = monitoring", fillcolor="#ffffff"] ;
34 -> 35 ;
36 [label="gini = 0.32\nsamples = 5\nvalue = [0, 1, 0, 4]\nclass = no_plugin", fillcolor="#e16aec"] ;
34 -> 36 ;
37 [label="gini = 0.32\nsamples = 5\nvalue = [0, 4, 0, 1]\nclass = monitoring", fillcolor="#75ec6a"] ;
33 -> 37 ;
38 [label="average_c_bytes <= 412.0\ngini = 0.308\nsamples = 79\nvalue = [0, 64, 0, 15]\nclass = monitoring", fillcolor="#72eb67"] ;
32 -> 38 ;
39 [label="average_s_bytes <= 1179.833\ngini = 0.38\nsamples = 51\nvalue = [0, 38, 0, 13]\nclass = monitoring", fillcolor="#86ee7d"] ;
38 -> 39 ;
40 [label="average_s_bytes <= 1094.021\ngini = 0.463\nsamples = 22\nvalue = [0, 14, 0, 8]\nclass = monitoring", fillcolor="#b0f4aa"] ;
39 -> 40 ;
41 [label="gini = 0.375\nsamples = 16\nvalue = [0, 12, 0, 4]\nclass = monitoring", fillcolor="#84ee7b"] ;
40 -> 41 ;
42 [label="gini = 0.444\nsamples = 6\nvalue = [0, 2, 0, 4]\nclass = no_plugin", fillcolor="#eb9cf2"] ;
40 -> 42 ;
43 [label="s_durat <= 0.215\ngini = 0.285\nsamples = 29\nvalue = [0, 24, 0, 5]\nclass = monitoring", fillcolor="#6dea62"] ;
39 -> 43 ;
44 [label="gini = 0.0\nsamples = 6\nvalue = [0, 6, 0, 0]\nclass = monitoring", fillcolor="#47e539"] ;
43 -> 44 ;
45 [label="gini = 0.34\nsamples = 23\nvalue = [0, 18, 0, 5]\nclass = monitoring", fillcolor="#7aec70"] ;
43 -> 45 ;
46 [label="s_durat <= 0.249\ngini = 0.133\nsamples = 28\nvalue = [0, 26, 0, 2]\nclass = monitoring", fillcolor="#55e748"] ;
38 -> 46 ;
47 [label="gini = 0.0\nsamples = 18\nvalue = [0, 18, 0, 0]\nclass = monitoring", fillcolor="#47e539"] ;
46 -> 47 ;
48 [label="ratio_bytes <= 0.132\ngini = 0.32\nsamples = 10\nvalue = [0, 8, 0, 2]\nclass = monitoring", fillcolor="#75ec6a"] ;
46 -> 48 ;
49 [label="gini = 0.0\nsamples = 5\nvalue = [0, 5, 0, 0]\nclass = monitoring", fillcolor="#47e539"] ;
48 -> 49 ;
50 [label="gini = 0.48\nsamples = 5\nvalue = [0, 3, 0, 2]\nclass = monitoring", fillcolor="#c2f6bd"] ;
48 -> 50 ;
51 [label="gini = 0.56\nsamples = 5\nvalue = [3, 1, 0, 1]\nclass = fec", fillcolor="#f2c09c"] ;
19 -> 51 ;
52 [label="s_durat <= 0.222\ngini = 0.476\nsamples = 2031\nvalue = [3, 1244, 0, 784]\nclass = monitoring", fillcolor="#bbf5b6"] ;
18 -> 52 ;
53 [label="ratio_bytes <= 0.103\ngini = 0.499\nsamples = 406\nvalue = [0, 192, 0, 214]\nclass = no_plugin", fillcolor="#fbebfc"] ;
52 -> 53 ;
54 [label="s_durat <= 0.22\ngini = 0.446\nsamples = 137\nvalue = [0, 46, 0, 91]\nclass = no_plugin", fillcolor="#eb9df2"] ;
53 -> 54 ;
55 [label="c_durat <= 0.116\ngini = 0.228\nsamples = 61\nvalue = [0, 8, 0, 53]\nclass = no_plugin", fillcolor="#dd57e9"] ;
54 -> 55 ;
56 [label="s_durat <= 0.219\ngini = 0.287\nsamples = 46\nvalue = [0, 8, 0, 38]\nclass = no_plugin", fillcolor="#df63ea"] ;
55 -> 56 ;
57 [label="c_durat <= 0.115\ngini = 0.17\nsamples = 32\nvalue = [0, 3, 0, 29]\nclass = no_plugin", fillcolor="#db4de8"] ;
56 -> 57 ;
58 [label="gini = 0.32\nsamples = 15\nvalue = [0, 3, 0, 12]\nclass = no_plugin", fillcolor="#e16aec"] ;
57 -> 58 ;
59 [label="gini = 0.0\nsamples = 17\nvalue = [0, 0, 0, 17]\nclass = no_plugin", fillcolor="#d739e5"] ;
57 -> 59 ;
60 [label="c_durat <= 0.115\ngini = 0.459\nsamples = 14\nvalue = [0, 5, 0, 9]\nclass = no_plugin", fillcolor="#eda7f3"] ;
56 -> 60 ;
61 [label="gini = 0.5\nsamples = 6\nvalue = [0, 3, 0, 3]\nclass = monitoring", fillcolor="#ffffff"] ;
60 -> 61 ;
62 [label="gini = 0.375\nsamples = 8\nvalue = [0, 2, 0, 6]\nclass = no_plugin", fillcolor="#e47bee"] ;
60 -> 62 ;
63 [label="gini = 0.0\nsamples = 15\nvalue = [0, 0, 0, 15]\nclass = no_plugin", fillcolor="#d739e5"] ;
55 -> 63 ;
64 [label="c_durat <= 0.119\ngini = 0.5\nsamples = 76\nvalue = [0, 38, 0, 38]\nclass = monitoring", fillcolor="#ffffff"] ;
54 -> 64 ;
65 [label="s_durat <= 0.221\ngini = 0.456\nsamples = 57\nvalue = [0, 37, 0, 20]\nclass = monitoring", fillcolor="#aaf3a4"] ;
64 -> 65 ;
66 [label="c_durat <= 0.117\ngini = 0.5\nsamples = 24\nvalue = [0, 12, 0, 12]\nclass = monitoring", fillcolor="#ffffff"] ;
65 -> 66 ;
67 [label="gini = 0.198\nsamples = 9\nvalue = [0, 8, 0, 1]\nclass = monitoring", fillcolor="#5ee852"] ;
66 -> 67 ;
68 [label="gini = 0.391\nsamples = 15\nvalue = [0, 4, 0, 11]\nclass = no_plugin", fillcolor="#e681ee"] ;
66 -> 68 ;
69 [label="s_durat <= 0.221\ngini = 0.367\nsamples = 33\nvalue = [0, 25, 0, 8]\nclass = monitoring", fillcolor="#82ed78"] ;
65 -> 69 ;
70 [label="gini = 0.165\nsamples = 11\nvalue = [0, 10, 0, 1]\nclass = monitoring", fillcolor="#59e84d"] ;
69 -> 70 ;
71 [label="gini = 0.434\nsamples = 22\nvalue = [0, 15, 0, 7]\nclass = monitoring", fillcolor="#9df195"] ;
69 -> 71 ;
72 [label="s_durat <= 0.222\ngini = 0.1\nsamples = 19\nvalue = [0, 1, 0, 18]\nclass = no_plugin", fillcolor="#d944e6"] ;
64 -> 72 ;
73 [label="gini = 0.0\nsamples = 13\nvalue = [0, 0, 0, 13]\nclass = no_plugin", fillcolor="#d739e5"] ;
72 -> 73 ;
74 [label="gini = 0.278\nsamples = 6\nvalue = [0, 1, 0, 5]\nclass = no_plugin", fillcolor="#df61ea"] ;
72 -> 74 ;
75 [label="c_durat <= 0.221\ngini = 0.496\nsamples = 269\nvalue = [0, 146, 0, 123]\nclass = monitoring", fillcolor="#e2fbe0"] ;
53 -> 75 ;
76 [label="s_durat <= 0.209\ngini = 0.498\nsamples = 263\nvalue = [0, 140, 0, 123]\nclass = monitoring", fillcolor="#e9fce7"] ;
75 -> 76 ;
77 [label="gini = 0.245\nsamples = 7\nvalue = [0, 1, 0, 6]\nclass = no_plugin", fillcolor="#de5ae9"] ;
76 -> 77 ;
78 [label="average_s_bytes <= 1076.301\ngini = 0.496\nsamples = 256\nvalue = [0, 139, 0, 117]\nclass = monitoring", fillcolor="#e2fbe0"] ;
76 -> 78 ;
79 [label="c_durat <= 0.106\ngini = 0.36\nsamples = 34\nvalue = [0, 26, 0, 8]\nclass = monitoring", fillcolor="#80ed76"] ;
78 -> 79 ;
80 [label="gini = 0.0\nsamples = 6\nvalue = [0, 6, 0, 0]\nclass = monitoring", fillcolor="#47e539"] ;
79 -> 80 ;
81 [label="gini = 0.408\nsamples = 28\nvalue = [0, 20, 0, 8]\nclass = monitoring", fillcolor="#91ef88"] ;
79 -> 81 ;
82 [label="c_durat <= 0.117\ngini = 0.5\nsamples = 222\nvalue = [0, 113, 0, 109]\nclass = monitoring", fillcolor="#f8fef8"] ;
78 -> 82 ;
83 [label="gini = 0.498\nsamples = 204\nvalue = [0, 108, 0, 96]\nclass = monitoring", fillcolor="#ebfce9"] ;
82 -> 83 ;
84 [label="gini = 0.401\nsamples = 18\nvalue = [0, 5, 0, 13]\nclass = no_plugin", fillcolor="#e685ef"] ;
82 -> 84 ;
85 [label="gini = 0.0\nsamples = 6\nvalue = [0, 6, 0, 0]\nclass = monitoring", fillcolor="#47e539"] ;
75 -> 85 ;
86 [label="ratio_pkts <= 0.423\ngini = 0.458\nsamples = 1625\nvalue = [3, 1052, 0, 570]\nclass = monitoring", fillcolor="#abf3a5"] ;
52 -> 86 ;
87 [label="average_s_bytes <= 1317.431\ngini = 0.428\nsamples = 1203\nvalue = [3, 832, 0, 368]\nclass = monitoring", fillcolor="#99f191"] ;
86 -> 87 ;
88 [label="s_durat <= 2.729\ngini = 0.444\nsamples = 1032\nvalue = [3, 691, 0, 338]\nclass = monitoring", fillcolor="#a1f29a"] ;
87 -> 88 ;
89 [label="c_durat <= 0.112\ngini = 0.438\nsamples = 1020\nvalue = [0, 689, 0, 331]\nclass = monitoring", fillcolor="#9ff198"] ;
88 -> 89 ;
90 [label="gini = 0.278\nsamples = 6\nvalue = [0, 1, 0, 5]\nclass = no_plugin", fillcolor="#df61ea"] ;
89 -> 90 ;
91 [label="ratio_pkts <= 0.403\ngini = 0.436\nsamples = 1014\nvalue = [0, 688, 0, 326]\nclass = monitoring", fillcolor="#9ef197"] ;
89 -> 91 ;
92 [label="gini = 0.408\nsamples = 561\nvalue = [0, 401, 0, 160]\nclass = monitoring", fillcolor="#90ef88"] ;
91 -> 92 ;
93 [label="gini = 0.464\nsamples = 453\nvalue = [0, 287, 0, 166]\nclass = monitoring", fillcolor="#b1f4ac"] ;
91 -> 93 ;
94 [label="ratio_pkts <= 0.331\ngini = 0.569\nsamples = 12\nvalue = [3, 2, 0, 7]\nclass = no_plugin", fillcolor="#eda7f3"] ;
88 -> 94 ;
95 [label="gini = 0.56\nsamples = 5\nvalue = [3, 1, 0, 1]\nclass = fec", fillcolor="#f2c09c"] ;
94 -> 95 ;
96 [label="gini = 0.245\nsamples = 7\nvalue = [0, 1, 0, 6]\nclass = no_plugin", fillcolor="#de5ae9"] ;
94 -> 96 ;
97 [label="s_durat <= 0.343\ngini = 0.289\nsamples = 171\nvalue = [0, 141, 0, 30]\nclass = monitoring", fillcolor="#6eeb63"] ;
87 -> 97 ;
98 [label="average_c_bytes <= 140.372\ngini = 0.444\nsamples = 15\nvalue = [0, 5, 0, 10]\nclass = no_plugin", fillcolor="#eb9cf2"] ;
97 -> 98 ;
99 [label="gini = 0.0\nsamples = 10\nvalue = [0, 0, 0, 10]\nclass = no_plugin", fillcolor="#d739e5"] ;
98 -> 99 ;
100 [label="gini = 0.0\nsamples = 5\nvalue = [0, 5, 0, 0]\nclass = monitoring", fillcolor="#47e539"] ;
98 -> 100 ;
101 [label="s_durat <= 0.357\ngini = 0.224\nsamples = 156\nvalue = [0, 136, 0, 20]\nclass = monitoring", fillcolor="#62e956"] ;
97 -> 101 ;
102 [label="s_durat <= 0.351\ngini = 0.044\nsamples = 89\nvalue = [0, 87, 0, 2]\nclass = monitoring", fillcolor="#4be63e"] ;
101 -> 102 ;
103 [label="gini = 0.0\nsamples = 60\nvalue = [0, 60, 0, 0]\nclass = monitoring", fillcolor="#47e539"] ;
102 -> 103 ;
104 [label="gini = 0.128\nsamples = 29\nvalue = [0, 27, 0, 2]\nclass = monitoring", fillcolor="#55e748"] ;
102 -> 104 ;
105 [label="s_durat <= 0.362\ngini = 0.393\nsamples = 67\nvalue = [0, 49, 0, 18]\nclass = monitoring", fillcolor="#8bef82"] ;
101 -> 105 ;
106 [label="gini = 0.5\nsamples = 10\nvalue = [0, 5, 0, 5]\nclass = monitoring", fillcolor="#ffffff"] ;
105 -> 106 ;
107 [label="gini = 0.352\nsamples = 57\nvalue = [0, 44, 0, 13]\nclass = monitoring", fillcolor="#7ded74"] ;
105 -> 107 ;
108 [label="s_durat <= 0.33\ngini = 0.499\nsamples = 422\nvalue = [0, 220, 0, 202]\nclass = monitoring", fillcolor="#f0fdef"] ;
86 -> 108 ;
109 [label="c_durat <= 0.308\ngini = 0.457\nsamples = 82\nvalue = [0, 29, 0, 53]\nclass = no_plugin", fillcolor="#eda5f3"] ;
108 -> 109 ;
110 [label="s_durat <= 0.248\ngini = 0.473\nsamples = 26\nvalue = [0, 16, 0, 10]\nclass = monitoring", fillcolor="#baf5b5"] ;
109 -> 110 ;
111 [label="gini = 0.278\nsamples = 6\nvalue = [0, 1, 0, 5]\nclass = no_plugin", fillcolor="#df61ea"] ;
110 -> 111 ;
112 [label="s_durat <= 0.314\ngini = 0.375\nsamples = 20\nvalue = [0, 15, 0, 5]\nclass = monitoring", fillcolor="#84ee7b"] ;
110 -> 112 ;
113 [label="gini = 0.0\nsamples = 8\nvalue = [0, 8, 0, 0]\nclass = monitoring", fillcolor="#47e539"] ;
112 -> 113 ;
114 [label="gini = 0.486\nsamples = 12\nvalue = [0, 7, 0, 5]\nclass = monitoring", fillcolor="#caf8c6"] ;
112 -> 114 ;
115 [label="s_pkts_all <= 57.5\ngini = 0.357\nsamples = 56\nvalue = [0, 13, 0, 43]\nclass = no_plugin", fillcolor="#e375ed"] ;
109 -> 115 ;
116 [label="s_durat <= 0.316\ngini = 0.278\nsamples = 42\nvalue = [0, 7, 0, 35]\nclass = no_plugin", fillcolor="#df61ea"] ;
115 -> 116 ;
117 [label="gini = 0.444\nsamples = 9\nvalue = [0, 3, 0, 6]\nclass = no_plugin", fillcolor="#eb9cf2"] ;
116 -> 117 ;
118 [label="gini = 0.213\nsamples = 33\nvalue = [0, 4, 0, 29]\nclass = no_plugin", fillcolor="#dd54e9"] ;
116 -> 118 ;
119 [label="c_durat <= 0.318\ngini = 0.49\nsamples = 14\nvalue = [0, 6, 0, 8]\nclass = no_plugin", fillcolor="#f5cef8"] ;
115 -> 119 ;
120 [label="gini = 0.444\nsamples = 9\nvalue = [0, 6, 0, 3]\nclass = monitoring", fillcolor="#a3f29c"] ;
119 -> 120 ;
121 [label="gini = 0.0\nsamples = 5\nvalue = [0, 0, 0, 5]\nclass = no_plugin", fillcolor="#d739e5"] ;
119 -> 121 ;
122 [label="ratio_pkts <= 0.436\ngini = 0.492\nsamples = 340\nvalue = [0, 191, 0, 149]\nclass = monitoring", fillcolor="#d7f9d3"] ;
108 -> 122 ;
123 [label="average_s_bytes <= 1207.2\ngini = 0.498\nsamples = 292\nvalue = [0, 154, 0, 138]\nclass = monitoring", fillcolor="#ecfcea"] ;
122 -> 123 ;
124 [label="c_pkts_all <= 10.5\ngini = 0.245\nsamples = 14\nvalue = [0, 2, 0, 12]\nclass = no_plugin", fillcolor="#de5ae9"] ;
123 -> 124 ;
125 [label="gini = 0.48\nsamples = 5\nvalue = [0, 2, 0, 3]\nclass = no_plugin", fillcolor="#f2bdf6"] ;
124 -> 125 ;
126 [label="gini = 0.0\nsamples = 9\nvalue = [0, 0, 0, 9]\nclass = no_plugin", fillcolor="#d739e5"] ;
124 -> 126 ;
127 [label="s_durat <= 0.348\ngini = 0.496\nsamples = 278\nvalue = [0, 152, 0, 126]\nclass = monitoring", fillcolor="#e0fbdd"] ;
123 -> 127 ;
128 [label="gini = 0.497\nsamples = 135\nvalue = [0, 62, 0, 73]\nclass = no_plugin", fillcolor="#f9e1fb"] ;
127 -> 128 ;
129 [label="gini = 0.467\nsamples = 143\nvalue = [0, 90, 0, 53]\nclass = monitoring", fillcolor="#b3f4ae"] ;
127 -> 129 ;
130 [label="s_durat <= 0.335\ngini = 0.353\nsamples = 48\nvalue = [0, 37, 0, 11]\nclass = monitoring", fillcolor="#7eed74"] ;
122 -> 130 ;
131 [label="s_durat <= 0.333\ngini = 0.435\nsamples = 25\nvalue = [0, 17, 0, 8]\nclass = monitoring", fillcolor="#9ef196"] ;
130 -> 131 ;
132 [label="gini = 0.375\nsamples = 20\nvalue = [0, 15, 0, 5]\nclass = monitoring", fillcolor="#84ee7b"] ;
131 -> 132 ;
133 [label="gini = 0.48\nsamples = 5\nvalue = [0, 2, 0, 3]\nclass = no_plugin", fillcolor="#f2bdf6"] ;
131 -> 133 ;
134 [label="s_durat <= 0.344\ngini = 0.227\nsamples = 23\nvalue = [0, 20, 0, 3]\nclass = monitoring", fillcolor="#63e957"] ;
130 -> 134 ;
135 [label="gini = 0.0\nsamples = 12\nvalue = [0, 12, 0, 0]\nclass = monitoring", fillcolor="#47e539"] ;
134 -> 135 ;
136 [label="gini = 0.397\nsamples = 11\nvalue = [0, 8, 0, 3]\nclass = monitoring", fillcolor="#8cef83"] ;
134 -> 136 ;
137 [label="s_durat <= 0.36\ngini = 0.474\nsamples = 2317\nvalue = [1, 888, 1, 1427]\nclass = no_plugin", fillcolor="#f0b4f5"] ;
7 -> 137 ;
138 [label="ratio_pkts <= 0.492\ngini = 0.458\nsamples = 1970\nvalue = [0, 699, 0, 1271]\nclass = no_plugin", fillcolor="#eda6f3"] ;
137 -> 138 ;
139 [label="s_durat <= 0.208\ngini = 0.475\nsamples = 1459\nvalue = [0, 566, 0, 893]\nclass = no_plugin", fillcolor="#f0b6f5"] ;
138 -> 139 ;
140 [label="c_durat <= 0.114\ngini = 0.128\nsamples = 29\nvalue = [0, 2, 0, 27]\nclass = no_plugin", fillcolor="#da48e7"] ;
139 -> 140 ;
141 [label="gini = 0.0\nsamples = 23\nvalue = [0, 0, 0, 23]\nclass = no_plugin", fillcolor="#d739e5"] ;
140 -> 141 ;
142 [label="gini = 0.444\nsamples = 6\nvalue = [0, 2, 0, 4]\nclass = no_plugin", fillcolor="#eb9cf2"] ;
140 -> 142 ;
143 [label="s_durat <= 0.355\ngini = 0.478\nsamples = 1430\nvalue = [0, 564, 0, 866]\nclass = no_plugin", fillcolor="#f1baf6"] ;
139 -> 143 ;
144 [label="s_durat <= 0.346\ngini = 0.482\nsamples = 1351\nvalue = [0, 548, 0, 803]\nclass = no_plugin", fillcolor="#f2c0f7"] ;
143 -> 144 ;
145 [label="ratio_bytes <= 0.044\ngini = 0.472\nsamples = 1171\nvalue = [0, 448, 0, 723]\nclass = no_plugin", fillcolor="#f0b4f5"] ;
144 -> 145 ;
146 [label="s_durat <= 0.343\ngini = 0.147\nsamples = 75\nvalue = [0, 6, 0, 69]\nclass = no_plugin", fillcolor="#da4ae7"] ;
145 -> 146 ;
147 [label="gini = 0.0\nsamples = 44\nvalue = [0, 0, 0, 44]\nclass = no_plugin", fillcolor="#d739e5"] ;
146 -> 147 ;
148 [label="c_bytes_all <= 3801.0\ngini = 0.312\nsamples = 31\nvalue = [0, 6, 0, 25]\nclass = no_plugin", fillcolor="#e169eb"] ;
146 -> 148 ;
149 [label="gini = 0.473\nsamples = 13\nvalue = [0, 5, 0, 8]\nclass = no_plugin", fillcolor="#f0b5f5"] ;
148 -> 149 ;
150 [label="gini = 0.105\nsamples = 18\nvalue = [0, 1, 0, 17]\nclass = no_plugin", fillcolor="#d945e7"] ;
148 -> 150 ;
151 [label="s_durat <= 0.315\ngini = 0.481\nsamples = 1096\nvalue = [0, 442, 0, 654]\nclass = no_plugin", fillcolor="#f2bff7"] ;
145 -> 151 ;
152 [label="c_durat <= 0.254\ngini = 0.496\nsamples = 439\nvalue = [0, 200, 0, 239]\nclass = no_plugin", fillcolor="#f8dffb"] ;
151 -> 152 ;
153 [label="gini = 0.482\nsamples = 380\nvalue = [0, 154, 0, 226]\nclass = no_plugin", fillcolor="#f2c0f7"] ;
152 -> 153 ;
154 [label="gini = 0.344\nsamples = 59\nvalue = [0, 46, 0, 13]\nclass = monitoring", fillcolor="#7bec71"] ;
152 -> 154 ;
155 [label="c_durat <= 0.313\ngini = 0.465\nsamples = 657\nvalue = [0, 242, 0, 415]\nclass = no_plugin", fillcolor="#eeacf4"] ;
151 -> 155 ;
156 [label="gini = 0.423\nsamples = 382\nvalue = [0, 116, 0, 266]\nclass = no_plugin", fillcolor="#e88ff0"] ;
155 -> 156 ;
157 [label="gini = 0.497\nsamples = 275\nvalue = [0, 126, 0, 149]\nclass = no_plugin", fillcolor="#f9e0fb"] ;
155 -> 157 ;
158 [label="s_durat <= 0.352\ngini = 0.494\nsamples = 180\nvalue = [0, 100, 0, 80]\nclass = monitoring", fillcolor="#dafad7"] ;
144 -> 158 ;
159 [label="average_s_bytes <= 1296.738\ngini = 0.438\nsamples = 105\nvalue = [0, 71, 0, 34]\nclass = monitoring", fillcolor="#9ff198"] ;
158 -> 159 ;
160 [label="average_c_bytes <= 131.071\ngini = 0.486\nsamples = 60\nvalue = [0, 35, 0, 25]\nclass = monitoring", fillcolor="#caf8c6"] ;
159 -> 160 ;
161 [label="gini = 0.5\nsamples = 41\nvalue = [0, 21, 0, 20]\nclass = monitoring", fillcolor="#f6fef6"] ;
160 -> 161 ;
162 [label="gini = 0.388\nsamples = 19\nvalue = [0, 14, 0, 5]\nclass = monitoring", fillcolor="#89ee80"] ;
160 -> 162 ;
163 [label="c_durat <= 0.334\ngini = 0.32\nsamples = 45\nvalue = [0, 36, 0, 9]\nclass = monitoring", fillcolor="#75ec6a"] ;
159 -> 163 ;
164 [label="gini = 0.403\nsamples = 25\nvalue = [0, 18, 0, 7]\nclass = monitoring", fillcolor="#8fef86"] ;
163 -> 164 ;
165 [label="gini = 0.18\nsamples = 20\nvalue = [0, 18, 0, 2]\nclass = monitoring", fillcolor="#5be84f"] ;
163 -> 165 ;
166 [label="ratio_pkts <= 0.457\ngini = 0.474\nsamples = 75\nvalue = [0, 29, 0, 46]\nclass = no_plugin", fillcolor="#f0b6f5"] ;
158 -> 166 ;
167 [label="c_durat <= 0.334\ngini = 0.495\nsamples = 29\nvalue = [0, 16, 0, 13]\nclass = monitoring", fillcolor="#dcfada"] ;
166 -> 167 ;
168 [label="gini = 0.219\nsamples = 8\nvalue = [0, 7, 0, 1]\nclass = monitoring", fillcolor="#61e955"] ;
167 -> 168 ;
169 [label="gini = 0.49\nsamples = 21\nvalue = [0, 9, 0, 12]\nclass = no_plugin", fillcolor="#f5cef8"] ;
167 -> 169 ;
170 [label="average_s_bytes <= 1301.152\ngini = 0.405\nsamples = 46\nvalue = [0, 13, 0, 33]\nclass = no_plugin", fillcolor="#e787ef"] ;
166 -> 170 ;
171 [label="gini = 0.497\nsamples = 13\nvalue = [0, 7, 0, 6]\nclass = monitoring", fillcolor="#e5fbe3"] ;
170 -> 171 ;
172 [label="gini = 0.298\nsamples = 33\nvalue = [0, 6, 0, 27]\nclass = no_plugin", fillcolor="#e065eb"] ;
170 -> 172 ;
173 [label="c_durat <= 0.349\ngini = 0.323\nsamples = 79\nvalue = [0, 16, 0, 63]\nclass = no_plugin", fillcolor="#e16bec"] ;
143 -> 173 ;
174 [label="average_s_bytes <= 1283.589\ngini = 0.278\nsamples = 72\nvalue = [0, 12, 0, 60]\nclass = no_plugin", fillcolor="#df61ea"] ;
173 -> 174 ;
175 [label="gini = 0.49\nsamples = 7\nvalue = [0, 3, 0, 4]\nclass = no_plugin", fillcolor="#f5cef8"] ;
174 -> 175 ;
176 [label="c_durat <= 0.342\ngini = 0.239\nsamples = 65\nvalue = [0, 9, 0, 56]\nclass = no_plugin", fillcolor="#dd59e9"] ;
174 -> 176 ;
177 [label="ratio_bytes <= 0.04\ngini = 0.295\nsamples = 50\nvalue = [0, 9, 0, 41]\nclass = no_plugin", fillcolor="#e064eb"] ;
176 -> 177 ;
178 [label="gini = 0.353\nsamples = 35\nvalue = [0, 8, 0, 27]\nclass = no_plugin", fillcolor="#e374ed"] ;
177 -> 178 ;
179 [label="gini = 0.124\nsamples = 15\nvalue = [0, 1, 0, 14]\nclass = no_plugin", fillcolor="#da47e7"] ;
177 -> 179 ;
180 [label="gini = 0.0\nsamples = 15\nvalue = [0, 0, 0, 15]\nclass = no_plugin", fillcolor="#d739e5"] ;
176 -> 180 ;
181 [label="gini = 0.49\nsamples = 7\nvalue = [0, 4, 0, 3]\nclass = monitoring", fillcolor="#d1f8ce"] ;
173 -> 181 ;
182 [label="average_c_bytes <= 118.111\ngini = 0.385\nsamples = 511\nvalue = [0, 133, 0, 378]\nclass = no_plugin", fillcolor="#e57fee"] ;
138 -> 182 ;
183 [label="ratio_bytes <= 0.041\ngini = 0.276\nsamples = 103\nvalue = [0, 17, 0, 86]\nclass = no_plugin", fillcolor="#df60ea"] ;
182 -> 183 ;
184 [label="gini = 0.494\nsamples = 9\nvalue = [0, 5, 0, 4]\nclass = monitoring", fillcolor="#dafad7"] ;
183 -> 184 ;
185 [label="s_durat <= 0.349\ngini = 0.223\nsamples = 94\nvalue = [0, 12, 0, 82]\nclass = no_plugin", fillcolor="#dd56e9"] ;
183 -> 185 ;
186 [label="s_durat <= 0.338\ngini = 0.131\nsamples = 57\nvalue = [0, 4, 0, 53]\nclass = no_plugin", fillcolor="#da48e7"] ;
185 -> 186 ;
187 [label="gini = 0.48\nsamples = 5\nvalue = [0, 2, 0, 3]\nclass = no_plugin", fillcolor="#f2bdf6"] ;
186 -> 187 ;
188 [label="c_bytes_all <= 3876.0\ngini = 0.074\nsamples = 52\nvalue = [0, 2, 0, 50]\nclass = no_plugin", fillcolor="#d941e6"] ;
186 -> 188 ;
189 [label="s_durat <= 0.34\ngini = 0.245\nsamples = 14\nvalue = [0, 2, 0, 12]\nclass = no_plugin", fillcolor="#de5ae9"] ;
188 -> 189 ;
190 [label="gini = 0.0\nsamples = 5\nvalue = [0, 0, 0, 5]\nclass = no_plugin", fillcolor="#d739e5"] ;
189 -> 190 ;
191 [label="gini = 0.346\nsamples = 9\nvalue = [0, 2, 0, 7]\nclass = no_plugin", fillcolor="#e272ec"] ;
189 -> 191 ;
192 [label="gini = 0.0\nsamples = 38\nvalue = [0, 0, 0, 38]\nclass = no_plugin", fillcolor="#d739e5"] ;
188 -> 192 ;
193 [label="c_durat <= 0.352\ngini = 0.339\nsamples = 37\nvalue = [0, 8, 0, 29]\nclass = no_plugin", fillcolor="#e270ec"] ;
185 -> 193 ;
194 [label="ratio_bytes <= 0.044\ngini = 0.4\nsamples = 29\nvalue = [0, 8, 0, 21]\nclass = no_plugin", fillcolor="#e684ef"] ;
193 -> 194 ;
195 [label="c_durat <= 0.334\ngini = 0.472\nsamples = 21\nvalue = [0, 8, 0, 13]\nclass = no_plugin", fillcolor="#f0b3f5"] ;
194 -> 195 ;
196 [label="gini = 0.32\nsamples = 5\nvalue = [0, 4, 0, 1]\nclass = monitoring", fillcolor="#75ec6a"] ;
195 -> 196 ;
197 [label="gini = 0.375\nsamples = 16\nvalue = [0, 4, 0, 12]\nclass = no_plugin", fillcolor="#e47bee"] ;
195 -> 197 ;
198 [label="gini = 0.0\nsamples = 8\nvalue = [0, 0, 0, 8]\nclass = no_plugin", fillcolor="#d739e5"] ;
194 -> 198 ;
199 [label="gini = 0.0\nsamples = 8\nvalue = [0, 0, 0, 8]\nclass = no_plugin", fillcolor="#d739e5"] ;
193 -> 199 ;
200 [label="s_durat <= 0.339\ngini = 0.407\nsamples = 408\nvalue = [0, 116, 0, 292]\nclass = no_plugin", fillcolor="#e788ef"] ;
182 -> 200 ;
201 [label="average_c_bytes <= 123.367\ngini = 0.377\nsamples = 337\nvalue = [0, 85, 0, 252]\nclass = no_plugin", fillcolor="#e47cee"] ;
200 -> 201 ;
202 [label="ratio_pkts <= 0.529\ngini = 0.18\nsamples = 60\nvalue = [0, 6, 0, 54]\nclass = no_plugin", fillcolor="#db4fe8"] ;
201 -> 202 ;
203 [label="c_durat <= 0.326\ngini = 0.053\nsamples = 37\nvalue = [0, 1, 0, 36]\nclass = no_plugin", fillcolor="#d83ee6"] ;
202 -> 203 ;
204 [label="gini = 0.245\nsamples = 7\nvalue = [0, 1, 0, 6]\nclass = no_plugin", fillcolor="#de5ae9"] ;
203 -> 204 ;
205 [label="gini = 0.0\nsamples = 30\nvalue = [0, 0, 0, 30]\nclass = no_plugin", fillcolor="#d739e5"] ;
203 -> 205 ;
206 [label="c_durat <= 0.324\ngini = 0.34\nsamples = 23\nvalue = [0, 5, 0, 18]\nclass = no_plugin", fillcolor="#e270ec"] ;
202 -> 206 ;
207 [label="gini = 0.469\nsamples = 8\nvalue = [0, 3, 0, 5]\nclass = no_plugin", fillcolor="#efb0f5"] ;
206 -> 207 ;
208 [label="s_durat <= 0.335\ngini = 0.231\nsamples = 15\nvalue = [0, 2, 0, 13]\nclass = no_plugin", fillcolor="#dd57e9"] ;
206 -> 208 ;
209 [label="gini = 0.0\nsamples = 9\nvalue = [0, 0, 0, 9]\nclass = no_plugin", fillcolor="#d739e5"] ;
208 -> 209 ;
210 [label="gini = 0.444\nsamples = 6\nvalue = [0, 2, 0, 4]\nclass = no_plugin", fillcolor="#eb9cf2"] ;
208 -> 210 ;
211 [label="c_durat <= 0.327\ngini = 0.408\nsamples = 277\nvalue = [0, 79, 0, 198]\nclass = no_plugin", fillcolor="#e788ef"] ;
201 -> 211 ;
212 [label="s_durat <= 0.216\ngini = 0.383\nsamples = 252\nvalue = [0, 65, 0, 187]\nclass = no_plugin", fillcolor="#e57eee"] ;
211 -> 212 ;
213 [label="c_durat <= 0.211\ngini = 0.245\nsamples = 56\nvalue = [0, 8, 0, 48]\nclass = no_plugin", fillcolor="#de5ae9"] ;
212 -> 213 ;
214 [label="gini = 0.308\nsamples = 42\nvalue = [0, 8, 0, 34]\nclass = no_plugin", fillcolor="#e068eb"] ;
213 -> 214 ;
215 [label="gini = 0.0\nsamples = 14\nvalue = [0, 0, 0, 14]\nclass = no_plugin", fillcolor="#d739e5"] ;
213 -> 215 ;
216 [label="s_durat <= 0.24\ngini = 0.412\nsamples = 196\nvalue = [0, 57, 0, 139]\nclass = no_plugin", fillcolor="#e78af0"] ;
212 -> 216 ;
217 [label="gini = 0.49\nsamples = 63\nvalue = [0, 27, 0, 36]\nclass = no_plugin", fillcolor="#f5cef8"] ;
216 -> 217 ;
218 [label="gini = 0.349\nsamples = 133\nvalue = [0, 30, 0, 103]\nclass = no_plugin", fillcolor="#e373ed"] ;
216 -> 218 ;
219 [label="average_s_bytes <= 1258.233\ngini = 0.493\nsamples = 25\nvalue = [0, 14, 0, 11]\nclass = monitoring", fillcolor="#d8f9d5"] ;
211 -> 219 ;
220 [label="gini = 0.32\nsamples = 5\nvalue = [0, 1, 0, 4]\nclass = no_plugin", fillcolor="#e16aec"] ;
219 -> 220 ;
221 [label="c_durat <= 0.328\ngini = 0.455\nsamples = 20\nvalue = [0, 13, 0, 7]\nclass = monitoring", fillcolor="#aaf3a4"] ;
219 -> 221 ;
222 [label="gini = 0.278\nsamples = 6\nvalue = [0, 5, 0, 1]\nclass = monitoring", fillcolor="#6cea61"] ;
221 -> 222 ;
223 [label="gini = 0.49\nsamples = 14\nvalue = [0, 8, 0, 6]\nclass = monitoring", fillcolor="#d1f8ce"] ;
221 -> 223 ;
224 [label="s_durat <= 0.339\ngini = 0.492\nsamples = 71\nvalue = [0, 31, 0, 40]\nclass = no_plugin", fillcolor="#f6d2f9"] ;
200 -> 224 ;
225 [label="gini = 0.0\nsamples = 6\nvalue = [0, 6, 0, 0]\nclass = monitoring", fillcolor="#47e539"] ;
224 -> 225 ;
226 [label="ratio_pkts <= 0.519\ngini = 0.473\nsamples = 65\nvalue = [0, 25, 0, 40]\nclass = no_plugin", fillcolor="#f0b5f5"] ;
224 -> 226 ;
227 [label="ratio_pkts <= 0.517\ngini = 0.448\nsamples = 56\nvalue = [0, 19, 0, 37]\nclass = no_plugin", fillcolor="#ec9ff2"] ;
226 -> 227 ;
228 [label="ratio_bytes <= 0.05\ngini = 0.468\nsamples = 51\nvalue = [0, 19, 0, 32]\nclass = no_plugin", fillcolor="#efaff4"] ;
227 -> 228 ;
229 [label="gini = 0.42\nsamples = 40\nvalue = [0, 12, 0, 28]\nclass = no_plugin", fillcolor="#e88ef0"] ;
228 -> 229 ;
230 [label="gini = 0.463\nsamples = 11\nvalue = [0, 7, 0, 4]\nclass = monitoring", fillcolor="#b0f4aa"] ;
228 -> 230 ;
231 [label="gini = 0.0\nsamples = 5\nvalue = [0, 0, 0, 5]\nclass = no_plugin", fillcolor="#d739e5"] ;
227 -> 231 ;
232 [label="gini = 0.444\nsamples = 9\nvalue = [0, 6, 0, 3]\nclass = monitoring", fillcolor="#a3f29c"] ;
226 -> 232 ;
233 [label="s_bytes_all <= 77477.0\ngini = 0.501\nsamples = 347\nvalue = [1, 189, 1, 156]\nclass = monitoring", fillcolor="#dffbdd"] ;
137 -> 233 ;
234 [label="s_bytes_all <= 76030.5\ngini = 0.471\nsamples = 171\nvalue = [1, 109, 1, 60]\nclass = monitoring", fillcolor="#aef4a8"] ;
233 -> 234 ;
235 [label="s_durat <= 0.549\ngini = 0.5\nsamples = 142\nvalue = [1, 82, 1, 58]\nclass = monitoring", fillcolor="#caf8c6"] ;
234 -> 235 ;
236 [label="s_durat <= 0.413\ngini = 0.415\nsamples = 68\nvalue = [0, 48, 0, 20]\nclass = monitoring", fillcolor="#94f08b"] ;
235 -> 236 ;
237 [label="s_durat <= 0.383\ngini = 0.474\nsamples = 44\nvalue = [0, 27, 0, 17]\nclass = monitoring", fillcolor="#bbf5b6"] ;
236 -> 237 ;
238 [label="ratio_pkts <= 0.459\ngini = 0.4\nsamples = 29\nvalue = [0, 21, 0, 8]\nclass = monitoring", fillcolor="#8def84"] ;
237 -> 238 ;
239 [label="c_durat <= 0.356\ngini = 0.497\nsamples = 13\nvalue = [0, 7, 0, 6]\nclass = monitoring", fillcolor="#e5fbe3"] ;
238 -> 239 ;
240 [label="gini = 0.408\nsamples = 7\nvalue = [0, 2, 0, 5]\nclass = no_plugin", fillcolor="#e788ef"] ;
239 -> 240 ;
241 [label="gini = 0.278\nsamples = 6\nvalue = [0, 5, 0, 1]\nclass = monitoring", fillcolor="#6cea61"] ;
239 -> 241 ;
242 [label="s_durat <= 0.369\ngini = 0.219\nsamples = 16\nvalue = [0, 14, 0, 2]\nclass = monitoring", fillcolor="#61e955"] ;
238 -> 242 ;
243 [label="gini = 0.0\nsamples = 9\nvalue = [0, 9, 0, 0]\nclass = monitoring", fillcolor="#47e539"] ;
242 -> 243 ;
244 [label="gini = 0.408\nsamples = 7\nvalue = [0, 5, 0, 2]\nclass = monitoring", fillcolor="#91ef88"] ;
242 -> 244 ;
245 [label="ratio_pkts <= 0.477\ngini = 0.48\nsamples = 15\nvalue = [0, 6, 0, 9]\nclass = no_plugin", fillcolor="#f2bdf6"] ;
237 -> 245 ;
246 [label="gini = 0.494\nsamples = 9\nvalue = [0, 5, 0, 4]\nclass = monitoring", fillcolor="#dafad7"] ;
245 -> 246 ;
247 [label="gini = 0.278\nsamples = 6\nvalue = [0, 1, 0, 5]\nclass = no_plugin", fillcolor="#df61ea"] ;
245 -> 247 ;
248 [label="c_durat <= 0.434\ngini = 0.219\nsamples = 24\nvalue = [0, 21, 0, 3]\nclass = monitoring", fillcolor="#61e955"] ;
236 -> 248 ;
249 [label="gini = 0.0\nsamples = 19\nvalue = [0, 19, 0, 0]\nclass = monitoring", fillcolor="#47e539"] ;
248 -> 249 ;
250 [label="gini = 0.48\nsamples = 5\nvalue = [0, 2, 0, 3]\nclass = no_plugin", fillcolor="#f2bdf6"] ;
248 -> 250 ;
251 [label="c_durat <= 0.563\ngini = 0.525\nsamples = 74\nvalue = [1, 34, 1, 38]\nclass = no_plugin", fillcolor="#fbebfc"] ;
235 -> 251 ;
252 [label="ratio_pkts <= 0.469\ngini = 0.412\nsamples = 31\nvalue = [0, 9, 0, 22]\nclass = no_plugin", fillcolor="#e78af0"] ;
251 -> 252 ;
253 [label="s_durat <= 0.658\ngini = 0.496\nsamples = 11\nvalue = [0, 6, 0, 5]\nclass = monitoring", fillcolor="#e0fbde"] ;
252 -> 253 ;
254 [label="gini = 0.444\nsamples = 6\nvalue = [0, 2, 0, 4]\nclass = no_plugin", fillcolor="#eb9cf2"] ;
253 -> 254 ;
255 [label="gini = 0.32\nsamples = 5\nvalue = [0, 4, 0, 1]\nclass = monitoring", fillcolor="#75ec6a"] ;
253 -> 255 ;
256 [label="c_pkts_all <= 26.5\ngini = 0.255\nsamples = 20\nvalue = [0, 3, 0, 17]\nclass = no_plugin", fillcolor="#de5cea"] ;
252 -> 256 ;
257 [label="s_durat <= 0.973\ngini = 0.133\nsamples = 14\nvalue = [0, 1, 0, 13]\nclass = no_plugin", fillcolor="#da48e7"] ;
256 -> 257 ;
258 [label="gini = 0.0\nsamples = 9\nvalue = [0, 0, 0, 9]\nclass = no_plugin", fillcolor="#d739e5"] ;
257 -> 258 ;
259 [label="gini = 0.32\nsamples = 5\nvalue = [0, 1, 0, 4]\nclass = no_plugin", fillcolor="#e16aec"] ;
257 -> 259 ;
260 [label="gini = 0.444\nsamples = 6\nvalue = [0, 2, 0, 4]\nclass = no_plugin", fillcolor="#eb9cf2"] ;
256 -> 260 ;
261 [label="c_bytes_all <= 3254.0\ngini = 0.522\nsamples = 43\nvalue = [1, 25, 1, 16]\nclass = monitoring", fillcolor="#c2f6bd"] ;
251 -> 261 ;
262 [label="gini = 0.0\nsamples = 5\nvalue = [0, 5, 0, 0]\nclass = monitoring", fillcolor="#47e539"] ;
261 -> 262 ;
263 [label="s_bytes_all <= 65045.0\ngini = 0.544\nsamples = 38\nvalue = [1, 20, 1, 16]\nclass = monitoring", fillcolor="#defadb"] ;
261 -> 263 ;
264 [label="c_durat <= 0.769\ngini = 0.582\nsamples = 19\nvalue = [1, 7, 1, 10]\nclass = no_plugin", fillcolor="#f5cef8"] ;
263 -> 264 ;
265 [label="gini = 0.0\nsamples = 7\nvalue = [0, 0, 0, 7]\nclass = no_plugin", fillcolor="#d739e5"] ;
264 -> 265 ;
266 [label="gini = 0.583\nsamples = 12\nvalue = [1, 7, 1, 3]\nclass = monitoring", fillcolor="#adf3a7"] ;
264 -> 266 ;
267 [label="c_durat <= 0.691\ngini = 0.432\nsamples = 19\nvalue = [0, 13, 0, 6]\nclass = monitoring", fillcolor="#9cf194"] ;
263 -> 267 ;
268 [label="gini = 0.0\nsamples = 7\nvalue = [0, 7, 0, 0]\nclass = monitoring", fillcolor="#47e539"] ;
267 -> 268 ;
269 [label="gini = 0.5\nsamples = 12\nvalue = [0, 6, 0, 6]\nclass = monitoring", fillcolor="#ffffff"] ;
267 -> 269 ;
270 [label="s_bytes_all <= 77415.0\ngini = 0.128\nsamples = 29\nvalue = [0, 27, 0, 2]\nclass = monitoring", fillcolor="#55e748"] ;
234 -> 270 ;
271 [label="gini = 0.0\nsamples = 24\nvalue = [0, 24, 0, 0]\nclass = monitoring", fillcolor="#47e539"] ;
270 -> 271 ;
272 [label="gini = 0.48\nsamples = 5\nvalue = [0, 3, 0, 2]\nclass = monitoring", fillcolor="#c2f6bd"] ;
270 -> 272 ;
273 [label="s_bytes_all <= 100154.0\ngini = 0.496\nsamples = 176\nvalue = [0, 80, 0, 96]\nclass = no_plugin", fillcolor="#f8defb"] ;
233 -> 273 ;
274 [label="c_bytes_all <= 3828.0\ngini = 0.484\nsamples = 156\nvalue = [0, 64, 0, 92]\nclass = no_plugin", fillcolor="#f3c3f7"] ;
273 -> 274 ;
275 [label="s_durat <= 0.685\ngini = 0.496\nsamples = 44\nvalue = [0, 24, 0, 20]\nclass = monitoring", fillcolor="#e0fbde"] ;
274 -> 275 ;
276 [label="average_s_bytes <= 1309.118\ngini = 0.463\nsamples = 33\nvalue = [0, 21, 0, 12]\nclass = monitoring", fillcolor="#b0f4aa"] ;
275 -> 276 ;
277 [label="s_durat <= 0.363\ngini = 0.494\nsamples = 27\nvalue = [0, 15, 0, 12]\nclass = monitoring", fillcolor="#dafad7"] ;
276 -> 277 ;
278 [label="gini = 0.278\nsamples = 6\nvalue = [0, 5, 0, 1]\nclass = monitoring", fillcolor="#6cea61"] ;
277 -> 278 ;
279 [label="s_durat <= 0.457\ngini = 0.499\nsamples = 21\nvalue = [0, 10, 0, 11]\nclass = no_plugin", fillcolor="#fbedfd"] ;
277 -> 279 ;
280 [label="gini = 0.444\nsamples = 15\nvalue = [0, 5, 0, 10]\nclass = no_plugin", fillcolor="#eb9cf2"] ;
279 -> 280 ;
281 [label="gini = 0.278\nsamples = 6\nvalue = [0, 5, 0, 1]\nclass = monitoring", fillcolor="#6cea61"] ;
279 -> 281 ;
282 [label="gini = 0.0\nsamples = 6\nvalue = [0, 6, 0, 0]\nclass = monitoring", fillcolor="#47e539"] ;
276 -> 282 ;
283 [label="c_durat <= 1.022\ngini = 0.397\nsamples = 11\nvalue = [0, 3, 0, 8]\nclass = no_plugin", fillcolor="#e683ef"] ;
275 -> 283 ;
284 [label="gini = 0.0\nsamples = 6\nvalue = [0, 0, 0, 6]\nclass = no_plugin", fillcolor="#d739e5"] ;
283 -> 284 ;
285 [label="gini = 0.48\nsamples = 5\nvalue = [0, 3, 0, 2]\nclass = monitoring", fillcolor="#c2f6bd"] ;
283 -> 285 ;
286 [label="average_c_bytes <= 126.113\ngini = 0.459\nsamples = 112\nvalue = [0, 40, 0, 72]\nclass = no_plugin", fillcolor="#eda7f3"] ;
274 -> 286 ;
287 [label="s_durat <= 0.412\ngini = 0.477\nsamples = 102\nvalue = [0, 40, 0, 62]\nclass = no_plugin", fillcolor="#f1b9f6"] ;
286 -> 287 ;
288 [label="ratio_bytes <= 0.04\ngini = 0.4\nsamples = 58\nvalue = [0, 16, 0, 42]\nclass = no_plugin", fillcolor="#e684ef"] ;
287 -> 288 ;
289 [label="c_durat <= 0.343\ngini = 0.5\nsamples = 16\nvalue = [0, 8, 0, 8]\nclass = monitoring", fillcolor="#ffffff"] ;
288 -> 289 ;
290 [label="gini = 0.278\nsamples = 6\nvalue = [0, 1, 0, 5]\nclass = no_plugin", fillcolor="#df61ea"] ;
289 -> 290 ;
291 [label="gini = 0.42\nsamples = 10\nvalue = [0, 7, 0, 3]\nclass = monitoring", fillcolor="#96f08e"] ;
289 -> 291 ;
292 [label="s_durat <= 0.369\ngini = 0.308\nsamples = 42\nvalue = [0, 8, 0, 34]\nclass = no_plugin", fillcolor="#e068eb"] ;
288 -> 292 ;
293 [label="gini = 0.083\nsamples = 23\nvalue = [0, 1, 0, 22]\nclass = no_plugin", fillcolor="#d942e6"] ;
292 -> 293 ;
294 [label="gini = 0.465\nsamples = 19\nvalue = [0, 7, 0, 12]\nclass = no_plugin", fillcolor="#eeacf4"] ;
292 -> 294 ;
295 [label="c_durat <= 0.478\ngini = 0.496\nsamples = 44\nvalue = [0, 24, 0, 20]\nclass = monitoring", fillcolor="#e0fbde"] ;
287 -> 295 ;
296 [label="s_durat <= 0.465\ngini = 0.245\nsamples = 14\nvalue = [0, 12, 0, 2]\nclass = monitoring", fillcolor="#66e95a"] ;
295 -> 296 ;
297 [label="gini = 0.444\nsamples = 6\nvalue = [0, 4, 0, 2]\nclass = monitoring", fillcolor="#a3f29c"] ;
296 -> 297 ;
298 [label="gini = 0.0\nsamples = 8\nvalue = [0, 8, 0, 0]\nclass = monitoring", fillcolor="#47e539"] ;
296 -> 298 ;
299 [label="c_pkts_all <= 32.5\ngini = 0.48\nsamples = 30\nvalue = [0, 12, 0, 18]\nclass = no_plugin", fillcolor="#f2bdf6"] ;
295 -> 299 ;
300 [label="gini = 0.278\nsamples = 6\nvalue = [0, 5, 0, 1]\nclass = monitoring", fillcolor="#6cea61"] ;
299 -> 300 ;
301 [label="gini = 0.413\nsamples = 24\nvalue = [0, 7, 0, 17]\nclass = no_plugin", fillcolor="#e78bf0"] ;
299 -> 301 ;
302 [label="gini = 0.0\nsamples = 10\nvalue = [0, 0, 0, 10]\nclass = no_plugin", fillcolor="#d739e5"] ;
286 -> 302 ;
303 [label="s_bytes_all <= 101593.5\ngini = 0.32\nsamples = 20\nvalue = [0, 16, 0, 4]\nclass = monitoring", fillcolor="#75ec6a"] ;
273 -> 303 ;
304 [label="gini = 0.0\nsamples = 9\nvalue = [0, 9, 0, 0]\nclass = monitoring", fillcolor="#47e539"] ;
303 -> 304 ;
305 [label="average_c_bytes <= 112.514\ngini = 0.463\nsamples = 11\nvalue = [0, 7, 0, 4]\nclass = monitoring", fillcolor="#b0f4aa"] ;
303 -> 305 ;
306 [label="gini = 0.278\nsamples = 6\nvalue = [0, 5, 0, 1]\nclass = monitoring", fillcolor="#6cea61"] ;
305 -> 306 ;
307 [label="gini = 0.48\nsamples = 5\nvalue = [0, 2, 0, 3]\nclass = no_plugin", fillcolor="#f2bdf6"] ;
305 -> 307 ;
308 [label="average_s_bytes <= 1181.431\ngini = 0.114\nsamples = 2551\nvalue = [0, 91, 2398, 62]\nclass = multipath", fillcolor="#45a3e7"] ;
6 -> 308 ;
309 [label="average_c_bytes <= 416.206\ngini = 0.025\nsamples = 2425\nvalue = [0, 17, 2394, 14]\nclass = multipath", fillcolor="#3c9ee5"] ;
308 -> 309 ;
310 [label="c_durat <= 0.547\ngini = 0.012\nsamples = 2407\nvalue = [0, 7, 2393, 7]\nclass = multipath", fillcolor="#3a9ee5"] ;
309 -> 310 ;
311 [label="gini = 0.444\nsamples = 6\nvalue = [0, 2, 0, 4]\nclass = no_plugin", fillcolor="#eb9cf2"] ;
310 -> 311 ;
312 [label="s_durat <= 3.687\ngini = 0.007\nsamples = 2401\nvalue = [0, 5, 2393, 3]\nclass = multipath", fillcolor="#3a9de5"] ;
310 -> 312 ;
313 [label="c_bytes_all <= 7179.5\ngini = 0.004\nsamples = 2396\nvalue = [0, 5, 2391, 0]\nclass = multipath", fillcolor="#399de5"] ;
312 -> 313 ;
314 [label="ratio_pkts <= 0.626\ngini = 0.002\nsamples = 2363\nvalue = [0, 2, 2361, 0]\nclass = multipath", fillcolor="#399de5"] ;
313 -> 314 ;
315 [label="ratio_pkts <= 0.396\ngini = 0.001\nsamples = 2358\nvalue = [0, 1, 2357, 0]\nclass = multipath", fillcolor="#399de5"] ;
314 -> 315 ;
316 [label="average_s_bytes <= 1105.274\ngini = 0.091\nsamples = 21\nvalue = [0, 1, 20, 0]\nclass = multipath", fillcolor="#43a2e6"] ;
315 -> 316 ;
317 [label="gini = 0.0\nsamples = 16\nvalue = [0, 0, 16, 0]\nclass = multipath", fillcolor="#399de5"] ;
316 -> 317 ;
318 [label="gini = 0.32\nsamples = 5\nvalue = [0, 1, 4, 0]\nclass = multipath", fillcolor="#6ab6ec"] ;
316 -> 318 ;
319 [label="gini = 0.0\nsamples = 2337\nvalue = [0, 0, 2337, 0]\nclass = multipath", fillcolor="#399de5"] ;
315 -> 319 ;
320 [label="gini = 0.32\nsamples = 5\nvalue = [0, 1, 4, 0]\nclass = multipath", fillcolor="#6ab6ec"] ;
314 -> 320 ;
321 [label="s_durat <= 1.356\ngini = 0.165\nsamples = 33\nvalue = [0, 3, 30, 0]\nclass = multipath", fillcolor="#4da7e8"] ;
313 -> 321 ;
322 [label="gini = 0.0\nsamples = 28\nvalue = [0, 0, 28, 0]\nclass = multipath", fillcolor="#399de5"] ;
321 -> 322 ;
323 [label="gini = 0.48\nsamples = 5\nvalue = [0, 3, 2, 0]\nclass = monitoring", fillcolor="#c2f6bd"] ;
321 -> 323 ;
324 [label="gini = 0.48\nsamples = 5\nvalue = [0, 0, 2, 3]\nclass = no_plugin", fillcolor="#f2bdf6"] ;
312 -> 324 ;
325 [label="c_durat <= 1.279\ngini = 0.537\nsamples = 18\nvalue = [0, 10, 1, 7]\nclass = monitoring", fillcolor="#cdf8c9"] ;
309 -> 325 ;
326 [label="ratio_pkts <= 0.339\ngini = 0.542\nsamples = 12\nvalue = [0, 4, 1, 7]\nclass = no_plugin", fillcolor="#f0b5f5"] ;
325 -> 326 ;
327 [label="gini = 0.32\nsamples = 5\nvalue = [0, 4, 0, 1]\nclass = monitoring", fillcolor="#75ec6a"] ;
326 -> 327 ;
328 [label="gini = 0.245\nsamples = 7\nvalue = [0, 0, 1, 6]\nclass = no_plugin", fillcolor="#de5ae9"] ;
326 -> 328 ;
329 [label="gini = 0.0\nsamples = 6\nvalue = [0, 6, 0, 0]\nclass = monitoring", fillcolor="#47e539"] ;
325 -> 329 ;
330 [label="ratio_bytes <= 0.095\ngini = 0.509\nsamples = 126\nvalue = [0, 74, 4, 48]\nclass = monitoring", fillcolor="#c2f6bd"] ;
308 -> 330 ;
331 [label="ratio_bytes <= 0.062\ngini = 0.48\nsamples = 113\nvalue = [0, 73, 4, 36]\nclass = monitoring", fillcolor="#a7f3a0"] ;
330 -> 331 ;
332 [label="c_durat <= 1.288\ngini = 0.308\nsamples = 42\nvalue = [0, 34, 0, 8]\nclass = monitoring", fillcolor="#72eb68"] ;
331 -> 332 ;
333 [label="ratio_bytes <= 0.051\ngini = 0.175\nsamples = 31\nvalue = [0, 28, 0, 3]\nclass = monitoring", fillcolor="#5be84e"] ;
332 -> 333 ;
334 [label="gini = 0.408\nsamples = 7\nvalue = [0, 5, 0, 2]\nclass = monitoring", fillcolor="#91ef88"] ;
333 -> 334 ;
335 [label="s_durat <= 0.345\ngini = 0.08\nsamples = 24\nvalue = [0, 23, 0, 1]\nclass = monitoring", fillcolor="#4fe642"] ;
333 -> 335 ;
336 [label="gini = 0.32\nsamples = 5\nvalue = [0, 4, 0, 1]\nclass = monitoring", fillcolor="#75ec6a"] ;
335 -> 336 ;
337 [label="gini = 0.0\nsamples = 19\nvalue = [0, 19, 0, 0]\nclass = monitoring", fillcolor="#47e539"] ;
335 -> 337 ;
338 [label="s_pkts_all <= 77.0\ngini = 0.496\nsamples = 11\nvalue = [0, 6, 0, 5]\nclass = monitoring", fillcolor="#e0fbde"] ;
332 -> 338 ;
339 [label="gini = 0.32\nsamples = 5\nvalue = [0, 1, 0, 4]\nclass = no_plugin", fillcolor="#e16aec"] ;
338 -> 339 ;
340 [label="gini = 0.278\nsamples = 6\nvalue = [0, 5, 0, 1]\nclass = monitoring", fillcolor="#6cea61"] ;
338 -> 340 ;
341 [label="c_pkts_all <= 37.5\ngini = 0.54\nsamples = 71\nvalue = [0, 39, 4, 28]\nclass = monitoring", fillcolor="#d0f8cc"] ;
331 -> 341 ;
342 [label="c_durat <= 0.352\ngini = 0.476\nsamples = 64\nvalue = [0, 39, 0, 25]\nclass = monitoring", fillcolor="#bdf6b8"] ;
341 -> 342 ;
343 [label="gini = 0.0\nsamples = 8\nvalue = [0, 8, 0, 0]\nclass = monitoring", fillcolor="#47e539"] ;
342 -> 343 ;
344 [label="c_bytes_all <= 5035.0\ngini = 0.494\nsamples = 56\nvalue = [0, 31, 0, 25]\nclass = monitoring", fillcolor="#dbfad9"] ;
342 -> 344 ;
345 [label="ratio_pkts <= 0.46\ngini = 0.461\nsamples = 25\nvalue = [0, 9, 0, 16]\nclass = no_plugin", fillcolor="#eea8f4"] ;
344 -> 345 ;
346 [label="c_durat <= 0.457\ngini = 0.48\nsamples = 10\nvalue = [0, 6, 0, 4]\nclass = monitoring", fillcolor="#c2f6bd"] ;
345 -> 346 ;
347 [label="gini = 0.32\nsamples = 5\nvalue = [0, 4, 0, 1]\nclass = monitoring", fillcolor="#75ec6a"] ;
346 -> 347 ;
348 [label="gini = 0.48\nsamples = 5\nvalue = [0, 2, 0, 3]\nclass = no_plugin", fillcolor="#f2bdf6"] ;
346 -> 348 ;
349 [label="c_durat <= 0.421\ngini = 0.32\nsamples = 15\nvalue = [0, 3, 0, 12]\nclass = no_plugin", fillcolor="#e16aec"] ;
345 -> 349 ;
350 [label="c_durat <= 0.4\ngini = 0.18\nsamples = 10\nvalue = [0, 1, 0, 9]\nclass = no_plugin", fillcolor="#db4fe8"] ;
349 -> 350 ;
351 [label="gini = 0.32\nsamples = 5\nvalue = [0, 1, 0, 4]\nclass = no_plugin", fillcolor="#e16aec"] ;
350 -> 351 ;
352 [label="gini = 0.0\nsamples = 5\nvalue = [0, 0, 0, 5]\nclass = no_plugin", fillcolor="#d739e5"] ;
350 -> 352 ;
353 [label="gini = 0.48\nsamples = 5\nvalue = [0, 2, 0, 3]\nclass = no_plugin", fillcolor="#f2bdf6"] ;
349 -> 353 ;
354 [label="average_s_bytes <= 1280.321\ngini = 0.412\nsamples = 31\nvalue = [0, 22, 0, 9]\nclass = monitoring", fillcolor="#92f08a"] ;
344 -> 354 ;
355 [label="average_c_bytes <= 227.371\ngini = 0.483\nsamples = 22\nvalue = [0, 13, 0, 9]\nclass = monitoring", fillcolor="#c6f7c2"] ;
354 -> 355 ;
356 [label="s_bytes_all <= 83508.5\ngini = 0.492\nsamples = 16\nvalue = [0, 7, 0, 9]\nclass = no_plugin", fillcolor="#f6d3f9"] ;
355 -> 356 ;
357 [label="gini = 0.375\nsamples = 8\nvalue = [0, 2, 0, 6]\nclass = no_plugin", fillcolor="#e47bee"] ;
356 -> 357 ;
358 [label="gini = 0.469\nsamples = 8\nvalue = [0, 5, 0, 3]\nclass = monitoring", fillcolor="#b5f5b0"] ;
356 -> 358 ;
359 [label="gini = 0.0\nsamples = 6\nvalue = [0, 6, 0, 0]\nclass = monitoring", fillcolor="#47e539"] ;
355 -> 359 ;
360 [label="gini = 0.0\nsamples = 9\nvalue = [0, 9, 0, 0]\nclass = monitoring", fillcolor="#47e539"] ;
354 -> 360 ;
361 [label="gini = 0.49\nsamples = 7\nvalue = [0, 0, 4, 3]\nclass = multipath", fillcolor="#cee6f8"] ;
341 -> 361 ;
362 [label="average_c_bytes <= 264.918\ngini = 0.142\nsamples = 13\nvalue = [0, 1, 0, 12]\nclass = no_plugin", fillcolor="#da49e7"] ;
330 -> 362 ;
363 [label="gini = 0.0\nsamples = 8\nvalue = [0, 0, 0, 8]\nclass = no_plugin", fillcolor="#d739e5"] ;
362 -> 363 ;
364 [label="gini = 0.32\nsamples = 5\nvalue = [0, 1, 0, 4]\nclass = no_plugin", fillcolor="#e16aec"] ;
362 -> 364 ;
}
