digraph Tree {
node [shape=box, style="filled, rounded", color="black", fontname="helvetica"] ;
edge [fontname="helvetica"] ;
0 [label="X[8] <= 7.587\ngini = 0.75\nsamples = 9600\nvalue = [2400, 2400, 2400, 2400]\nclass = fec", fillcolor="#ffffff"] ;
1 [label="X[4] <= 4356.5\ngini = 0.672\nsamples = 7262\nvalue = [62, 2400, 2400, 2400]\nclass = monitoring", fillcolor="#ffffff"] ;
0 -> 1 [labeldistance=2.5, labelangle=45, headlabel="True"] ;
2 [label="X[6] <= 1096.181\ngini = 0.601\nsamples = 5329\nvalue = [1, 2293, 662, 2373]\nclass = no_plugin", fillcolor="#fefafe"] ;
1 -> 2 ;
3 [label="gini = 0.521\nsamples = 1016\nvalue = [1, 150, 654, 211]\nclass = multipath", fillcolor="#92c9f1"] ;
2 -> 3 ;
4 [label="gini = 0.502\nsamples = 4313\nvalue = [0, 2143, 8, 2162]\nclass = no_plugin", fillcolor="#fffdff"] ;
2 -> 4 ;
5 [label="X[1] <= 5917.5\ngini = 0.187\nsamples = 1933\nvalue = [61, 107, 1738, 27]\nclass = multipath", fillcolor="#4ea7e8"] ;
1 -> 5 ;
6 [label="gini = 0.662\nsamples = 191\nvalue = [60, 86, 35, 10]\nclass = monitoring", fillcolor="#dafad8"] ;
5 -> 6 ;
7 [label="gini = 0.044\nsamples = 1742\nvalue = [1, 21, 1703, 17]\nclass = multipath", fillcolor="#3d9fe6"] ;
5 -> 7 ;
8 [label="gini = 0.0\nsamples = 2338\nvalue = [2338, 0, 0, 0]\nclass = fec", fillcolor="#e58139"] ;
0 -> 8 [labeldistance=2.5, labelangle=-45, headlabel="False"] ;
}
